<?xml version="1.0"?>
<MethodSetup Method="DL::DNN">
  <GeneralInfo>
    <Info name="TMVA Release" value="4.2.1 [262657]"/>
    <Info name="ROOT Release" value="6.24/06 [399366]"/>
    <Info name="Creator" value="pvaucell"/>
    <Info name="Date" value="Tue Aug 30 11:03:02 2022"/>
    <Info name="Host" value="Linux sbgat310.in2p3.fr 3.10.0-1160.36.2.el7.x86_64 #1 SMP Wed Jul 21 11:57:15 UTC 2021 x86_64 x86_64 x86_64 GNU/Linux"/>
    <Info name="Dir" value="/opt/sbg/cms/ui2_data1/pvaucell/LLTopAna/MVA/AnalysisCode"/>
    <Info name="Training events" value="168767"/>
    <Info name="TrainingTime" value="2.09536227e+03"/>
    <Info name="AnalysisType" value="Classification"/>
  </GeneralInfo>
  <Options>
    <Option name="V" modified="Yes">False</Option>
    <Option name="VerbosityLevel" modified="No">Default</Option>
    <Option name="VarTransform" modified="No">None</Option>
    <Option name="H" modified="Yes">False</Option>
    <Option name="CreateMVAPdfs" modified="No">False</Option>
    <Option name="IgnoreNegWeightsInTraining" modified="No">False</Option>
    <Option name="InputLayout" modified="No">0|0|0</Option>
    <Option name="BatchLayout" modified="No">0|0|0</Option>
    <Option name="Layout" modified="Yes">TANH|128,TANH|128,TANH|128,LINEAR</Option>
    <Option name="ErrorStrategy" modified="Yes">CROSSENTROPY</Option>
    <Option name="WeightInitialization" modified="Yes">XAVIER</Option>
    <Option name="RandomSeed" modified="No">0</Option>
    <Option name="ValidationSize" modified="No">20%</Option>
    <Option name="Architecture" modified="Yes">CPU</Option>
    <Option name="TrainingStrategy" modified="Yes">LearningRate=1e-3,MaxEpoch=40</Option>
  </Options>
  <Variables NVar="8">
    <Variable VarIndex="0" Expression="mva_track_pt" Label="mva_track_pt" Title="mva_track_pt" Unit="" Internal="mva_track_pt" Type="F" Min="1.00000191e+00" Max="4.59388477e+03"/>
    <Variable VarIndex="1" Expression="mva_track_eta" Label="mva_track_eta" Title="mva_track_eta" Unit="" Internal="mva_track_eta" Type="F" Min="-2.49993014e+00" Max="2.49976158e+00"/>
    <Variable VarIndex="2" Expression="mva_track_nchi2" Label="mva_track_nchi2" Title="mva_track_nchi2" Unit="" Internal="mva_track_nchi2" Type="F" Min="5.23474730e-09" Max="4.99952650e+00"/>
    <Variable VarIndex="3" Expression="mva_track_nhits" Label="mva_track_nhits" Title="mva_track_nhits" Unit="" Internal="mva_track_nhits" Type="F" Min="3.00000000e+00" Max="3.40000000e+01"/>
    <Variable VarIndex="4" Expression="mva_track_algo" Label="mva_track_algo" Title="mva_track_algo" Unit="" Internal="mva_track_algo" Type="F" Min="2.00000000e+00" Max="2.40000000e+01"/>
    <Variable VarIndex="5" Expression="mva_ntrk10" Label="mva_ntrk10" Title="mva_ntrk10" Unit="" Internal="mva_ntrk10" Type="F" Min="0.00000000e+00" Max="7.00000000e+01"/>
    <Variable VarIndex="6" Expression="mva_drSig" Label="mva_drSig" Title="mva_drSig" Unit="" Internal="mva_drSig" Type="F" Min="5.00006390e+00" Max="1.46512197e+04"/>
    <Variable VarIndex="7" Expression="mva_track_isinjet" Label="mva_track_isinjet" Title="mva_track_isinjet" Unit="" Internal="mva_track_isinjet" Type="F" Min="0.00000000e+00" Max="1.00000000e+00"/>
  </Variables>
  <Spectators NSpec="0"/>
  <Classes NClass="2">
    <Class Name="Signal" Index="0"/>
    <Class Name="Background" Index="1"/>
  </Classes>
  <Transformations NTransformations="0"/>
  <MVAPdfs/>
  <Weights NetDepth="4" InputDepth="1" InputHeight="1" InputWidth="8" BatchSize="1" BatchDepth="1" BatchHeight="30" BatchWidth="8" LossFunction="C" Initialization="X" Regularization="0" OutputFunction="S" WeightDecay="0.0000000000000000e+00">
    <DenseLayer Width="128" ActivationFunction="3">
      <Weights Rows="128" Columns="8">
        -1.278706e+00  1.020377e+00  1.326358e+00  7.028461e-01  -2.030126e-01  -4.957810e-01  8.031159e-02  1.098133e+00  3.809095e-01  -7.901607e-01  -1.956574e-01  -5.724345e-02  -9.097841e-02  -2.999982e-01  9.228933e-01  1.772646e+00  3.196529e-03  6.372359e-02  5.764405e-01  -7.131394e-02  1.691993e+00  -5.532283e-01  3.719112e-02  -1.337529e+00  1.070502e+00  6.940419e-01  -1.233940e+00  -8.052028e-01  -2.481020e-02  3.617885e-01  5.862500e-02  -1.085050e+00  1.410198e+00  8.507945e-01  -1.668592e-01  -3.169003e-01  2.778579e-01  3.967667e-02  2.467786e-02  6.573422e-01  1.376106e-01  -7.533821e-01  -1.357888e+00  -5.780930e-01  -4.945949e-01  4.738387e-01  1.643149e-01  -1.588483e-01  1.261555e-01  -1.243300e+00  -1.530687e-01  -6.876519e-01  3.294393e-01  -3.685438e-01  7.213210e-02  4.128739e-01  -3.617619e-01  6.118765e-01  -6.293483e-01  -6.123317e-01  -5.325984e-01  -2.717297e-01  -4.535973e-02  -7.061970e-01  -2.391140e-01  3.364654e-01  -5.171807e-01  -3.886352e-01  -6.855508e-01  -3.881413e-01  -1.254410e-01  1.363312e+00  1.416401e-01  2.106495e+00  -1.422038e+00  -1.283245e+00  3.146138e-01  -4.705979e-02  6.805620e-02  -9.251915e-01  6.027326e-01  -2.719375e+00  6.633305e-01  -4.492736e-01  8.154783e-01  8.187579e-02  1.574071e-04  5.814506e-01  4.654406e-02  7.062986e-02  5.265698e-01  3.266279e-01  6.819371e-01  2.735840e-01  1.700600e-01  4.283176e-01  -6.843043e-01  1.229714e+00  1.603564e-01  6.700143e-02  -2.906758e-03  -4.122232e-01  6.760338e-02  -3.340523e-01  1.485712e-01  -1.037228e+00  -1.420093e-01  5.479015e-01  7.702594e-01  1.015204e-01  1.828761e-01  1.005383e+00  -1.499483e+00  -1.268316e+00  -9.142073e-01  4.497588e-01  2.811262e-03  -1.469245e-01  -1.585950e-02  -1.903930e+00  1.160036e-01  -2.422953e+00  3.261166e-01  -8.447212e-01  1.707394e-02  3.134557e-02  4.931921e-03  5.696691e-01  1.161490e+00  5.319377e-01  2.287311e-02  -6.109245e-01  2.668260e-01  1.148485e-01  1.192654e-01  2.387072e-01  4.933224e-02  1.277301e-01  2.877182e-01  3.546600e-01  -5.329973e-01  -1.008841e+00  -9.410495e-02  -1.294063e+00  -5.125332e-01  1.790833e-01  -4.097453e-01  -3.244012e-01  -7.861369e-01  -3.558590e-02  -1.048038e-01  2.369557e-01  7.655388e-01  -3.623852e-01  7.242780e-01  2.391629e-01  3.175234e-01  1.722948e-01  1.667053e-01  3.275043e-01  3.495181e-01  3.803454e+00  -1.147098e+00  2.577278e-01  -6.861780e-01  3.211332e-01  2.037863e-02  5.719289e-02  -9.075652e-01  1.223747e+00  -4.100006e-01  3.014068e-01  -1.626197e-01  -5.191399e-02  -9.539374e-02  3.273096e-01  -4.208370e-02  8.712530e-01  -1.901900e-03  3.184329e-01  2.059965e-01  -5.851867e-01  -2.417431e-01  1.040404e-01  1.005472e-01  -3.243227e-01  1.335822e-01  7.597781e-01  1.550176e-03  4.890473e-01  2.326561e-03  5.681179e-01  -1.320860e-01  1.050112e+00  5.746738e-01  -2.406332e-01  1.913308e+00  -1.992870e-01  -7.531326e-02  -1.952277e+00  -3.055068e-01  -1.480512e+00  -2.969352e-01  5.657658e-01  -6.699094e-01  2.412277e-02  -4.487031e-02  -6.044102e-01  2.535966e-02  -2.823044e-02  1.394421e-01  6.111438e-02  3.973954e-01  9.187710e-02  8.609087e-04  -1.648117e-01  2.746530e-01  2.317188e-01  1.433891e+00  -1.757850e-01  6.839758e-01  -3.798933e+00  3.786188e-02  3.461666e-01  -8.549419e-01  1.158263e-02  1.455237e-02  -1.939427e-01  7.059035e-01  -3.802489e-01  3.551522e-01  -2.808710e-01  -4.980671e-01  5.560638e-01  -3.238282e-01  -2.150668e-01  -4.360397e-01  -3.916824e-01  -2.617065e-02  -4.384454e-01  3.306589e-01  -1.863501e-01  4.638584e-01  4.851013e-01  3.873378e-01  4.484511e-01  1.964145e-02  -5.761397e-02  -5.741709e-01  -3.246182e-01  -5.300350e-01  1.484859e-01  7.735163e-01  -8.271784e-01  1.502549e-02  -5.454651e-01  -1.392279e-01  2.519602e-01  -4.563678e-01  -8.316416e-01  -5.737041e-01  -3.323694e-02  -3.564516e-02  -6.709750e-01  2.119974e-02  -3.152193e-01  3.021447e-01  3.054759e-01  2.326364e-01  -2.228318e-01  -1.954619e-01  -1.962596e-01  -9.188363e-02  -1.237334e-01  -2.000189e-02  -5.357115e-01  -3.373267e-01  -1.430648e-01  -3.833396e-01  1.168506e-01  -6.469619e-01  -4.757438e-02  -6.824847e-01  -3.281014e-01  -8.670794e-01  -5.970056e-02  -5.288231e-02  3.031779e-01  7.492367e-01  -5.910752e-01  6.918362e-01  4.734526e-01  5.281481e-01  2.667212e-01  1.248807e-01  -1.229145e+00  -3.060421e-01  2.021476e+00  -2.317849e-01  -1.542044e-01  4.906663e-01  -1.171580e-01  7.704204e-02  -9.166021e-01  -4.832291e-01  -3.934236e-01  -1.127350e+00  -3.982590e-01  5.879142e-01  2.273788e-01  4.207338e-02  -2.171057e-01  -9.342507e-01  -2.097541e+00  -1.317821e+00  -4.223157e-02  -2.672582e-01  -4.268914e-03  -4.049245e-02  8.013209e-01  1.048622e+00  -3.941600e-01  4.413776e-01  -1.878758e-01  -4.037437e-01  -1.963803e-01  -3.271016e-01  2.726531e+00  9.725262e-02  2.396901e-01  -5.423562e-01  -3.959312e-01  2.955418e-02  2.872647e-01  9.444762e-02  3.685588e-01  1.951947e-01  5.271119e-01  -3.849001e-01  1.275975e-01  4.861668e-01  -8.769360e-01  -1.148761e-01  1.189873e-01  -8.482704e-02  3.501230e-01  -7.664930e-01  2.107506e-01  -4.646746e-01  1.663149e+00  4.101491e-02  -1.458793e+00  -2.588984e-02  6.696842e-02  4.371520e-01  -1.885258e-02  -2.967253e-03  -1.060259e-02  7.846373e-05  -8.192872e+00  -5.557906e-01  3.260630e-01  -2.889342e-01  -1.893722e-01  -1.620842e-01  -2.741454e-01  7.522032e-01  7.760853e-01  -1.445487e+00  -2.773913e+00  -4.420025e-01  3.931240e-01  -6.119526e-01  1.461005e-01  7.613358e-02  -2.518806e-01  4.092863e-01  6.679966e-01  3.042375e-01  4.963795e-01  -8.719444e-01  -6.689816e-02  2.822525e-02  -7.993509e-01  -7.557643e-01  2.052791e+00  1.563942e+00  -2.112724e-01  5.479438e-01  -9.288349e-02  3.519271e-02  9.443064e-02  3.302551e-01  5.841493e-02  6.608109e-01  3.388807e-02  5.816455e-01  -1.159342e-01  -2.184615e-01  3.246802e-01  5.584873e-02  -1.393713e+00  1.438374e-03  7.478499e-02  -4.017271e-01  -4.953858e-01  -1.444236e-01  5.832993e-01  2.365760e-01  -8.504265e-01  3.604165e-01  1.801440e-01  -4.023471e-01  -3.499471e-01  3.372540e-02  3.217521e-01  4.077631e+00  -8.350734e-02  -1.492287e+00  -1.575682e-01  -1.603311e-01  1.423499e+00  1.693772e-03  6.980712e-01  1.095478e+00  -8.478529e-01  -2.397297e-01  3.863231e-01  -5.625002e-01  -5.373024e-01  1.194919e-01  -7.377352e-02  -3.164769e-01  -2.641663e-01  1.819860e-02  2.473678e-01  -6.366422e-01  -5.183775e-01  7.031876e-01  1.269797e-01  6.604576e-01  5.241125e-01  7.119396e-01  4.384761e-01  1.015178e+00  3.889640e-02  3.669631e-02  -2.121102e-01  1.452911e-01  -7.743306e-01  -4.213787e-01  -1.235034e-01  3.721057e-02  3.717922e-01  2.619131e-02  -3.319779e-01  -9.064295e-02  -4.348110e+00  -3.902221e-02  1.241681e-01  5.685176e-01  -2.412784e-01  -6.849551e-02  2.842943e-01  4.603780e-01  -2.160286e-01  2.428789e-01  -7.699700e-02  2.125301e-01  9.315795e-02  6.110398e-02  9.590818e-02  5.099005e-02  -1.713443e-01  2.243662e-01  9.222392e-03  -4.044418e-01  -2.895183e-01  2.117035e-02  -1.750800e+00  4.559646e-01  -2.558491e-01  9.401897e-02  3.134432e-01  6.328149e-01  -3.617544e-01  -1.227781e-01  -1.035296e+00  -2.712796e-02  7.338314e-02  7.384422e-01  -1.445457e-01  -4.350706e-01  1.255079e-02  1.276372e-02  -3.620186e-02  -1.279635e-02  1.774946e-01  -1.020816e+00  -1.860217e-01  -3.629546e-01  -1.552405e-01  -4.898365e-01  -1.331679e-01  -6.910620e-02  -7.351893e-01  -6.893677e-01  2.676653e-01  -7.852695e-01  8.448914e-01  7.918718e-03  6.304235e-01  -1.788688e-02  -2.722848e+00  -1.822705e-01  6.781248e-01  1.718887e-01  1.329116e-02  -7.273588e-02  -8.169726e-01  -1.947578e-01  -7.152892e-01  -4.910388e-01  1.098834e-01  -1.046188e+00  1.575161e-01  8.108062e-02  1.074228e+00  4.229818e-01  5.367154e-01  6.959278e-01  3.061465e-01  5.859469e-01  1.373030e-02  -4.223411e-01  -5.088236e-01  -2.810270e-01  -2.955877e-01  2.160514e-01  3.988638e-01  1.297255e+00  -2.754796e-01  3.898941e-03  -8.733068e-01  -8.044356e-01  1.669103e-01  -2.409975e+00  -4.111230e-01  -1.873040e-01  2.121067e+00  2.434510e-02  1.197601e-01  -2.745700e-01  5.341175e-01  3.517138e-01  -5.125117e-01  9.022717e-01  3.219805e-01  8.220684e-02  1.233895e+00  1.890417e+00  4.823702e-02  -2.867828e-01  8.894976e-03  -1.203673e-02  4.464548e-02  2.248250e-02  1.009579e+00  -2.514425e-01  3.753036e-01  -9.535106e-02  5.997229e-01  -6.948912e-01  -3.546143e-01  7.616851e-02  -5.505115e-02  2.114218e+00  -1.623597e-01  -1.519572e+00  -1.473512e-01  -9.644130e-03  1.289562e-01  -1.023997e-02  9.492537e-01  4.192268e-02  -3.700282e-01  2.572218e-01  6.212871e-01  6.919742e-01  1.644422e-01  5.955476e-02  2.868161e-01  1.166141e+00  -1.596250e-01  -2.613689e-01  -2.070300e-02  1.335695e-01  -5.673068e-01  1.682302e-01  -3.403902e-02  8.739062e-01  -1.926981e+00  1.766272e-01  2.904240e-01  -7.314433e-01  -2.119918e-01  -3.504221e-01  6.584825e-01  -8.777305e-03  -1.637073e+00  4.399508e-01  -1.719033e+00  9.559400e-01  -1.078557e-01  2.150061e-03  -1.073966e+00  6.159592e-02  3.186203e+00  4.632452e-01  5.813548e-01  -6.170244e-01  -3.880504e-01  -4.384860e-02  3.106862e-01  -2.396799e-01  3.650498e-01  1.980961e-01  1.281686e-01  -5.894415e-01  1.443740e-01  4.657565e-01  8.755628e-01  1.908484e-02  9.191461e-01  1.280546e+00  5.928851e-01  1.015141e+00  2.065102e-01  4.875314e-01  4.444552e-01  -9.431808e-02  -9.562671e-01  5.052416e-01  -1.830441e-01  -3.005640e-01  -1.725144e-01  1.319139e+00  1.201713e+00  2.830408e-02  3.464624e-02  -2.456775e+00  1.074478e-01  -8.334972e-01  1.283760e+00  3.096065e-04  7.015093e-02  7.646074e-02  -1.595115e+00  -5.301814e-01  -1.573482e-01  -3.972782e-03  -4.138705e-01  3.978240e-01  2.783080e-01  -6.324261e-02  1.392947e-01  -7.476242e-01  -4.334437e-01  -4.590893e-01  -4.329269e-01  -3.677943e-02  1.430897e-01  3.663794e-01  7.364942e-01  2.356548e-01  -1.506641e-01  1.690629e-01  8.820216e-01  -2.541292e-01  2.771639e-01  2.617043e-01  -5.350593e-01  -1.740302e-01  9.645247e-01  7.206466e-01  -7.009523e-02  3.919064e-01  -4.293692e-01  -2.727220e-01  2.020805e-01  -8.643445e-02  -2.517196e-01  -2.561541e-01  2.673616e+00  2.330917e-01  -1.890590e-01  2.399551e-01  -1.303549e+00  1.790924e-01  -8.003932e-01  6.394655e-01  -1.505799e-01  7.154972e-02  -4.723387e-01  -1.460320e-01  -9.043609e-02  -4.144311e-01  3.189844e-02  -1.287536e-01  2.272022e+00  8.941909e-03  -1.378969e+00  -5.001276e-02  -1.997658e-01  -4.055523e-01  -4.886102e-01  -5.317791e-01  -1.242929e-01  -1.223989e-01  3.922538e-01  -3.968556e-01  2.115930e+00  4.193347e-01  2.548905e-01  2.877318e-03  -4.719238e-01  2.754750e-02  -5.038258e-01  -8.363145e-02  2.598633e+00  2.994740e-01  -1.314342e+00  2.800549e-01  8.688207e-01  4.398343e-02  3.535806e-01  7.316076e-01  2.298380e-01  -1.148955e-01  -6.689024e-01  6.727986e-01  -1.380392e-01  -1.318483e-01  -1.545714e+00  -3.079892e-01  -9.006365e-01  -8.106869e-01  -1.145538e-01  -2.193024e-01  -5.514697e-01  2.933127e-01  -3.122276e-01  1.195755e+00  1.355514e+00  2.987356e-01  -2.836749e-01  -3.910583e-01  -1.640322e-01  -2.879658e-02  1.181765e+00  -3.294872e-02  2.800296e+00  2.569229e-02  -2.483095e-01  -2.089715e-01  4.771600e-03  3.955642e-02  1.253427e-01  -5.235200e-01  -4.113849e-01  1.851917e+00  -1.303347e-01  5.635066e-01  -1.900707e+00  -4.141386e-02  2.398361e-02  -2.185940e-01  -2.164193e-01  -2.749201e-01  -5.857021e-02  -4.678548e-01  -2.322977e-01  1.358123e-01  -4.325414e-02  1.440350e-03  8.700173e-01  1.438198e-01  -1.194422e+00  6.244875e-01  -2.902778e-02  3.416660e-02  6.515219e-01  5.875115e-01  6.680490e-01  1.445241e+00  -7.471423e-02  6.137691e-01  1.732337e-01  7.071470e-02  6.765534e-01  -3.072175e-02  7.238312e-01  1.861919e+00  -1.141784e+00  1.098131e+00  -1.688290e-01  6.031369e-02  -7.210329e-01  -1.362251e-01  -2.885576e-01  -1.663300e-01  -1.833779e-01  3.039014e-01  9.092082e-01  -6.840193e-02  1.835371e+00  -1.045768e+00  -1.873193e-02  -6.791148e-01  1.083999e+00  -8.134802e-02  -4.743475e-01  -2.987433e-02  -1.324984e+00  5.967930e-02  6.003338e-02  -1.562758e-01  -2.964252e-02  -3.349968e-02  1.343059e-01  8.435813e-02  -5.893179e+00  1.681729e-01  2.535055e-01  5.497169e-01  3.586726e-01  2.795761e-01  2.247534e-01  2.561406e-01  2.656441e-01  1.041913e-01  -6.199837e-02  2.669168e-01  4.505648e-01  4.187340e-01  1.057583e-01  3.761627e-01  -2.558869e-01  2.621927e-01  6.439517e-01  1.097726e-01  -2.862820e-01  -6.790458e-02  -8.518162e-01  7.158062e-02  2.145305e-01  -7.450274e-01  -9.626400e-01  -3.131349e-01  -4.343296e-01  -4.823637e-01  -6.109096e-01  -8.304220e-02  -4.356590e-01  1.006631e-01  -4.787977e-01  -4.357175e-01  -6.665256e-01  -3.012984e-01  9.213684e-01  -1.678754e-01  -1.185766e+00  3.555568e-01  -2.674633e+00  4.789982e-01  -2.655404e-02  2.516047e-02  1.079596e-01  -8.469794e-01  -1.152940e+00  -1.136967e-02  2.357171e-01  1.371674e+00  2.782777e-01  1.390854e+00  2.389495e-01  3.060503e-01  -1.575173e-01  7.012860e-01  2.225527e+00  7.160378e-01  -4.734507e-01  2.426537e-01  2.668900e-01  6.008869e-03  1.465345e+00  -5.786556e-02  5.446675e-01  3.899397e-01  -4.004905e-01  9.410254e-01  -2.449254e-01  8.015143e-02  -5.021239e-01  -6.849215e-01  1.072951e-02  -2.928512e-01  -6.301147e-01  -5.777159e-01  5.981418e-03  -6.708330e-02  -1.213554e+00  -2.616844e-01  -2.696734e+00  1.156412e-01  4.895809e-01  1.225344e-01  -6.455964e-01  8.962896e-02  -1.052833e+00  3.676344e-01  -5.814891e-02  5.972481e-02  2.512009e-01  1.810759e-01  4.161713e-01  4.402013e-01  -8.816958e-02  -4.371567e-02  -5.266487e-01  -1.340508e-02  1.401382e+00  -9.491171e-01  9.521466e-02  8.233980e-03  -3.344444e-01  -1.148463e-01  -5.015449e-01  4.220919e-01  -7.174747e-01  9.702283e-01  2.011234e-02  -1.426725e-02  6.139078e-01  9.255883e-01  2.459713e-01  -1.049953e+00  -3.229536e-02  1.526726e-01  5.232834e-02  -1.872605e-02  -1.720562e+00  3.604380e-02  -2.615384e+00  -1.174441e+00  6.866807e-01  -8.574021e-01  6.286961e-01  5.575255e-02  1.860301e-01  1.633814e-01  2.173196e-01  8.189484e-01  6.284773e-01  6.756673e-01  3.085535e-01  -3.257896e-01  1.116843e+00  -2.318588e-01  -5.735434e-03  -2.816127e-01  -4.012428e-01  -2.883995e-01  -3.523457e-01  -4.188462e-01  -4.025021e-01  2.438771e-01  1.676727e+00  5.366609e-02  6.819804e-02  7.362235e-01  -3.366368e-01  -2.517299e-01  -1.269237e+00  -4.338198e-02  -8.684511e-01  -1.740580e+00  8.545594e-02  -4.176045e-01  1.481034e+00  -3.071276e-02  -5.198556e-01  -1.329316e-01  7.006080e-01  -5.958681e-01  -6.970239e-01  2.923573e-01  -4.521589e-02  -3.624366e-03  -5.429032e-01  1.111106e+00  -7.394702e-01  2.550901e+00  -2.880260e-01  -1.003176e-01  -6.140810e-01  -2.410110e-02  1.029675e+00  5.469087e-02  -6.386379e-01  2.834759e-01  2.519514e-01  5.358031e-01  -1.028562e-01  -1.805525e-01  3.559631e-01  4.032023e-01  2.858416e-01  4.993320e-01  -8.253489e-02  2.964176e-02  5.238726e-01  7.681188e-02  2.739124e-01  
      </Weights>
      <Biases Rows="128" Columns="1">
        1.598587e+00  -2.487279e-01  1.584186e+00  -7.939565e-01  -2.194795e-01  -5.390668e-01  -1.495513e+00  -8.860050e-01  -6.091189e-01  -4.877304e-02  -1.783573e+00  6.460831e-01  -3.054826e-01  9.014940e-01  -2.826814e+00  4.430674e+00  -1.115244e+00  1.285854e+00  -1.293418e+00  4.377414e-01  2.116029e+00  -5.000824e-01  2.101647e-01  1.475974e+00  1.623668e+00  7.575811e-01  -4.355789e+00  2.346058e+00  -3.233930e-01  -2.804725e-01  1.150214e+00  2.582613e-01  -9.855632e-01  1.138030e+00  -1.436891e-01  -8.874075e-01  6.028906e-01  7.432616e-01  -1.472201e+00  2.664629e+00  5.010532e-01  -5.605355e-01  8.753512e-01  -1.071667e+00  2.498812e+00  -4.577793e-02  1.073421e+00  2.026556e+00  -3.353095e+00  9.005230e-01  -1.284606e-01  1.848647e-01  -1.905793e+00  7.425891e-01  1.488170e+00  1.240019e+00  -2.221224e-01  1.647821e+00  -1.425944e-01  3.682771e+00  -2.581542e-01  4.959728e+00  -6.187474e-01  4.536063e-01  -4.022075e+00  -1.840734e+00  8.473794e-01  1.733554e+00  -1.470065e+00  -8.340371e-01  -4.397841e+00  -2.869324e-01  -3.305200e+00  8.785936e-01  -3.498972e-01  1.099184e+00  2.660660e+00  9.476446e-01  7.076334e-01  1.789934e+00  -3.291285e-01  -3.477139e+00  -9.983567e-01  -4.881256e-01  -3.066560e-01  1.082041e+00  -2.430231e-01  -6.100392e-01  -2.132014e+00  -1.254434e+00  5.537903e-01  9.244527e-01  -1.657022e+00  -7.017450e-01  -1.311638e+00  1.892270e-01  2.079140e+00  -3.908060e-01  3.152891e+00  5.227155e-01  1.739645e+00  -2.377679e+00  -9.794426e-02  1.686525e+00  1.525081e-01  1.104003e-01  -3.810273e-01  -7.293056e-01  -1.050914e-01  8.186206e-01  1.502899e+00  -1.338681e+00  -1.052470e+00  -6.015831e-01  -1.308835e+00  1.951749e-01  -3.125419e+00  -1.301524e+00  -3.153178e+00  4.588014e-02  1.042293e+00  -1.890649e-01  -7.988179e-01  -3.297605e+00  -5.084823e-01  3.269285e+00  1.227302e+00  3.388754e-01  
      </Biases>
    </DenseLayer>
    <DenseLayer Width="128" ActivationFunction="3">
      <Weights Rows="128" Columns="128">
        -3.806338e-01  5.829759e-01  -4.619634e-01  6.432136e-01  4.923016e-01  1.259017e-01  1.418074e-01  2.960241e-01  -1.528164e-01  9.428294e-01  3.462242e-01  1.058922e-01  -3.781963e-01  -2.933806e-01  -1.010353e-01  -1.209629e+00  5.861014e-01  -5.173137e-02  -2.601738e-02  1.816193e-01  -1.072466e+00  1.168897e-02  -1.204276e-01  -3.213261e-02  -1.346946e+00  -2.373313e-01  9.227914e-01  1.439241e-01  -3.563028e-01  -1.760923e-01  -1.994478e-01  -4.871241e-02  3.607586e-01  3.918148e-02  -2.624927e-01  -1.956854e-01  5.723884e-01  -2.686853e-01  -5.836917e-02  -9.813266e-01  3.177032e-01  3.652184e-02  -7.492700e-02  6.865707e-01  -6.031281e-01  3.078516e-01  -4.873655e-01  2.645124e-01  1.029607e+00  -2.776499e-01  -8.530518e-02  2.265255e-01  3.266873e-01  3.726026e-01  -8.698589e-02  -1.292045e-01  1.490829e-02  -8.291331e-01  -5.769786e-02  -6.302192e-02  -8.167239e-02  -2.397024e+00  -1.497554e-01  -1.233325e-02  1.071878e+00  3.247668e-01  -1.757398e-01  -3.768713e-01  -6.032192e-01  -4.561697e-01  1.766408e+00  -1.639059e-01  1.027742e+00  -1.794453e-01  4.688352e-01  1.905788e-01  1.593294e-01  2.712314e-01  -2.285859e-03  -7.810182e-01  6.165300e-01  -3.691543e-02  1.688536e-01  -4.360798e-02  2.506025e-01  -7.610180e-02  3.608551e-01  3.545737e-01  7.339056e-01  -1.065919e-01  4.556079e-02  -6.833405e-01  7.852971e-01  8.660229e-02  4.058239e-01  3.291133e-02  1.923168e-01  -1.882424e-01  -4.550242e-01  2.438491e-01  -2.464029e-01  1.444042e-01  -3.226797e-02  6.114477e-02  -3.132890e-01  1.035133e-01  -9.476046e-02  -1.374277e-02  1.045524e-01  -6.285663e-01  -3.880746e-01  6.944856e-02  3.024581e-01  -7.424729e-02  3.922516e-01  1.923240e-01  5.090860e-01  2.621506e-01  5.797604e-01  -2.533002e-01  1.660463e-01  -5.142573e-01  3.608411e-01  4.246121e-01  -3.192062e-02  -1.838998e-01  -1.729166e-01  -1.163952e-01  -8.472183e-01  4.916294e-02  -4.703598e-01  6.792769e-01  -3.027121e-01  6.779854e-01  2.562203e-01  6.179551e-01  7.504681e-01  -1.099123e-01  -9.261158e-01  2.333811e-02  -4.808043e-01  -9.239001e-01  -5.147305e-01  -1.219625e-01  -5.089001e-02  1.208335e-01  -1.873428e-02  -3.928320e-01  6.893024e-01  -1.084898e-01  2.453820e-01  -3.257968e-01  -2.803184e-01  2.099095e-02  -6.646928e-01  -8.009027e-01  -7.321557e-01  3.700773e-01  -5.625135e-01  -4.619745e-01  -2.861743e-02  -7.498314e-01  3.143724e-02  4.132269e-01  -1.019153e+00  1.124086e-01  5.338018e-02  6.374201e-01  8.331198e-02  3.425128e-01  -3.426009e-01  6.695139e-01  -2.665506e-01  -2.712255e-01  5.480630e-01  2.771720e-02  5.516514e-01  -4.326735e-01  -2.562433e-01  -4.207377e-02  -4.790111e-02  -3.068224e-01  2.124583e-01  -3.217290e-01  3.746512e-01  5.645626e-02  6.742481e-01  4.624010e-01  -1.009604e+00  1.384585e-01  1.179697e-01  -7.517155e-02  -1.416125e-01  5.881152e-01  -6.011873e-01  -7.757820e-01  1.405308e+00  2.861161e-01  4.069910e-01  -2.869903e-01  7.499008e-01  -1.251854e-01  -3.246655e-02  -7.859171e-02  7.527627e-01  -5.947397e-01  2.760791e-01  -6.523250e-01  5.219557e-01  6.293691e-01  -4.673001e-01  4.922815e-01  -8.622680e-02  -6.701676e-01  6.143079e-01  2.581971e-01  -8.329402e-02  1.807712e-01  -7.463251e-01  2.705757e-01  3.195311e-01  1.466465e-01  -1.761992e-01  6.240211e-01  -9.562214e-01  2.549413e-01  1.806614e-01  -8.501760e-01  -3.428563e-01  -3.002877e-01  1.961755e-01  3.001469e-01  -1.047722e-01  -1.423773e-01  3.265854e-01  3.773384e-01  -2.978593e-01  -5.610072e-01  -2.062783e-01  4.884642e-01  -2.096374e-01  8.544741e-01  -5.380232e-01  -2.531331e-01  -6.024381e-01  -5.927170e-01  2.060228e-01  8.147284e-01  -9.906079e-01  1.100920e-01  -6.668503e-01  5.254496e-01  -7.926638e-02  -1.135792e+00  -8.669337e-01  1.072544e-01  4.440733e-01  -7.167289e-01  -2.535782e-01  5.236101e-01  -6.298786e-02  1.700941e-01  3.240424e-01  -7.811771e-02  -4.113673e-01  5.073444e-01  -1.155927e+00  -1.620961e-01  -4.754525e-01  6.104022e-01  5.150817e-01  4.508618e-01  -4.132402e-01  -2.683446e-01  3.506648e-01  -2.275149e-01  -3.801067e-01  2.951067e-01  -3.122310e-01  5.161633e-01  -2.694373e-01  3.601222e-01  -7.101982e-01  -1.037287e+00  -1.294940e-01  -7.103764e-02  1.942140e-01  -4.627153e-02  -1.059900e-01  2.801232e-01  -1.734713e-02  -4.657010e-01  1.006197e+00  -2.832856e-01  -2.239679e-01  8.368433e-01  6.151577e-01  5.832086e-03  -2.740960e-01  2.308571e-01  1.348337e+00  -9.001120e-01  1.058581e+00  -5.505370e-02  -1.182723e+00  2.802110e-01  7.788024e-02  1.016972e-01  4.322674e-01  4.082744e-02  -8.991215e-01  -1.337903e-01  1.337634e-01  3.667104e-01  4.814266e-02  -2.639635e-01  -1.517619e-01  8.851563e-01  2.771619e-01  1.044479e+00  4.584879e-01  2.389641e-01  5.255216e-01  4.912319e-01  2.838924e-01  1.570554e-01  -3.487223e-01  3.590026e-01  7.344682e-01  -1.284633e-02  -2.442257e-01  3.601918e-01  3.082014e-01  -4.495809e-01  -2.349642e-02  2.336446e-01  -6.823055e-01  2.981236e-01  -5.066944e-01  -4.045698e-02  4.542102e-01  -1.425357e-02  -4.104638e-01  -2.426908e-01  5.466433e-01  1.123619e-01  1.946028e-01  -3.209933e-01  -5.369903e-01  -1.091732e+00  -8.793103e-01  -3.134171e-01  -3.136903e-01  4.208011e-02  -1.086072e-01  -2.198454e-01  -9.127144e-01  2.020060e-01  2.492505e-01  9.049596e-01  9.654752e-02  -1.044721e-01  -7.034589e-02  -5.165948e-01  4.683742e-01  3.300971e-01  2.605756e-01  -7.549919e-01  -6.186873e-01  -1.095381e-01  4.939740e-01  -4.091105e-01  9.097820e-01  -3.929774e-02  -4.732638e-03  7.148813e-01  9.398193e-01  5.052707e-01  -2.521519e-01  3.141317e-01  -9.662591e-02  -8.600951e-02  -3.029520e-01  5.764388e-01  -6.236790e-01  2.489040e-01  -2.572769e-02  2.725903e-01  3.450322e-01  -2.349116e-02  2.108646e-01  2.383905e-01  9.565334e-02  -8.535177e-02  -9.809890e-02  2.078875e-01  -3.811999e-01  -3.987422e-01  -6.548840e-01  -5.732232e-01  3.361192e-01  7.447556e-02  -3.602036e-01  4.417109e-01  -2.614778e-01  -1.082992e-01  2.624837e-01  -4.882303e-01  -3.733646e-01  -4.528507e-01  6.813740e-01  1.493589e+00  -1.634241e-01  3.820576e-01  1.478341e-01  -1.943418e-01  1.529136e-01  2.586628e-01  -6.734876e-02  -1.304429e-02  -3.618900e-01  -5.677877e-01  2.693566e-01  -8.726432e-01  5.534827e-01  -1.174235e-01  3.065979e-01  -3.281250e-01  -1.091610e+00  5.318741e-01  -9.170959e-01  5.707369e-01  -3.731914e-01  -1.950631e-01  1.752646e-01  7.454997e-02  -6.410211e-01  4.681201e-01  2.095667e-01  3.727311e-01  -3.274142e-01  -2.704314e-01  -3.058408e-01  2.129248e-02  -1.171971e-01  -6.837342e-01  -1.936899e-01  -2.488694e-01  -1.445551e-01  2.130165e-01  -4.698889e-01  -5.896446e-01  -1.835209e+00  -2.746948e-01  6.581169e-01  2.029897e-01  1.257900e+00  1.816332e-01  3.080806e-01  9.813081e-01  -4.586902e-01  5.038918e-02  3.481333e-01  -2.341479e-02  9.168759e-02  4.188789e-01  5.510597e-01  2.122447e-01  -1.139349e+00  -2.727974e-01  3.017377e-01  6.390858e-02  -4.994228e-01  -3.714482e-01  -6.030029e-01  -6.602105e-02  2.282515e-01  5.620758e-01  6.902109e-01  1.733186e-01  1.156479e+00  -1.332760e-02  2.360151e-01  4.159820e-01  -4.509291e-01  5.464920e-02  -2.734579e-01  -1.095008e+00  2.786816e-01  3.665426e-01  3.370809e-01  1.359759e-01  1.098517e-01  -1.047201e-01  -2.388933e-01  8.481326e-03  -1.037671e-03  3.951949e-01  1.873945e-01  1.361386e-01  5.987889e-01  -9.119838e-02  4.127739e-01  -3.970924e-01  -7.357640e-01  -4.181896e-01  -9.362094e-02  -1.006818e+00  1.152584e-01  6.664521e-01  -4.022569e-01  -2.157402e-01  -6.677639e-01  2.040170e-02  -4.888492e-01  -1.028185e-01  -2.348579e-03  -3.445550e-01  1.623490e-01  -1.513119e-01  -8.070244e-02  -5.658319e-01  -3.445628e-01  2.083921e-01  -1.993835e-01  -8.666624e-03  -4.996064e-01  1.124733e+00  6.548329e-02  -1.429168e-01  -2.074347e-01  2.502799e-01  8.920104e-01  4.579189e-02  4.794286e-03  1.409232e-01  -3.374334e-01  -2.403548e-01  -1.555126e+00  9.906182e-01  -4.040973e-01  -2.208435e-01  2.389288e-01  -2.434052e-01  -2.352672e-01  1.978351e-01  -3.626711e-01  -1.748802e-01  3.850696e-02  -3.888198e-01  5.691841e-02  3.084061e-01  2.761767e-01  -3.983173e-02  7.348594e-02  -1.500872e-01  -7.008979e-01  -2.277668e-01  8.545842e-02  6.378031e-01  -2.003102e+00  -1.753331e-01  -2.776920e-01  2.025515e-02  -8.457437e-01  4.298873e-01  1.302114e-01  9.743762e-02  -2.784401e-01  -5.838348e-01  -2.305164e-01  2.677838e-01  -6.604565e-03  2.834396e+00  -8.199124e-02  2.128821e-01  -1.634993e+00  1.378618e-02  -4.839711e-02  -2.045997e-02  -5.125287e-01  -8.259933e-02  -9.213291e-01  -1.852366e-01  -4.081472e-01  1.719043e-01  -1.756787e-01  8.642433e-01  1.122803e-01  5.691769e-02  6.268266e-01  6.156873e-02  -8.994646e-02  -2.342382e-01  -5.027634e-02  2.182850e-01  2.063442e-01  1.460427e-02  3.421358e-01  1.804972e-03  -5.075786e-01  -1.825459e-01  -2.812755e-01  5.827795e-01  -2.755398e-01  3.822663e-01  2.127990e-01  5.147852e-01  1.451833e-02  -2.004295e-01  7.211545e-01  1.209214e-01  -5.367380e-02  4.052434e-02  -5.892001e-01  -4.338908e-01  -1.178818e-02  2.629074e-01  1.279773e-01  1.088841e-02  3.387740e-01  2.365127e-01  4.572728e-02  7.658403e-02  -1.199979e-01  -4.364400e-02  -4.899414e-01  2.670865e-01  -6.516544e-01  -1.018913e-01  -5.538104e-01  5.119571e-01  -1.719406e-02  -4.920007e-01  -6.715019e-01  -2.723716e-01  -3.673571e-01  4.951223e-01  1.042644e-01  -2.923436e-01  1.375978e-01  -6.392117e-01  2.296961e-01  -1.006335e-01  3.798434e-01  4.227194e-01  5.660512e-01  1.124809e-01  1.482857e-01  -2.439617e-01  5.077037e-01  -4.703271e-01  -1.704475e-01  3.688296e-01  5.378443e-02  2.232936e+00  3.500545e-01  1.060502e-01  -1.158784e-01  -9.254051e-02  -1.257955e+00  4.098592e-02  -1.323978e-01  -1.837268e-01  1.611500e-01  -8.578165e-03  -6.908651e-01  4.861516e-01  1.094837e-01  2.981393e-02  -5.840096e-01  1.439071e-01  2.720852e-01  -2.212788e-03  7.002518e-02  7.200156e-02  7.850838e-02  -2.774855e-01  -6.318340e-02  1.010767e+00  3.790820e-01  2.476170e-01  -2.015659e-01  -9.167434e-02  -2.507027e-01  -2.532173e-01  8.699577e-01  -5.800054e-01  -7.079872e-01  -3.560406e-02  -2.847398e-02  -1.502269e-01  5.735071e-02  -1.213363e-01  -1.342735e-01  -5.883679e-02  2.006744e-01  8.951908e-01  -1.449871e-01  -2.141985e-02  -2.209357e-01  1.292222e+00  2.605901e-01  -2.904438e-01  5.815248e-01  -7.681211e-02  -6.512802e-01  -2.201263e-01  3.770430e-01  2.277956e-02  -4.992234e-01  -3.571627e-01  3.474463e-01  -8.845081e-02  -4.825096e-01  3.539211e-01  2.444255e+00  -8.872389e-01  -3.732212e-02  -6.496088e-01  -2.907410e-01  -6.493366e-01  -5.405420e-02  2.137710e-01  2.699682e-01  1.377253e-02  4.374281e-01  5.568088e-01  -1.214608e-01  4.261771e-01  -2.870578e-01  -1.812344e-01  7.344805e-02  7.894844e-02  -2.562781e-01  -7.855242e-01  -4.432837e-02  -3.664086e-03  2.973875e-01  -1.441242e-01  6.027785e-01  1.456729e-01  -5.691217e-01  -5.999694e-01  7.161738e-02  -1.859191e-01  1.025006e-01  -1.836575e-01  1.490053e-01  2.435040e-01  -6.600484e-02  -1.110387e-01  -2.449646e-01  -2.043436e-01  1.193356e-01  -2.139662e-01  -1.943729e+00  3.108279e-01  -5.258505e-01  3.770602e-02  2.076847e-01  1.747566e-01  -6.497170e-01  -3.578611e-03  -5.526293e-02  3.384077e-01  1.950117e-01  1.903691e-01  4.097943e-01  -1.909799e-01  6.565473e-01  -1.721406e-01  3.781231e-01  -1.909745e-01  4.451740e-01  3.955354e-01  7.810752e-01  3.854723e-01  -5.767964e-02  -3.557471e-01  8.173179e-02  -7.416022e-01  -5.805648e-02  6.044912e-01  -1.757290e-01  -3.452060e-01  1.330739e-01  -3.132353e-01  4.073082e-01  -2.886199e-01  3.968409e-02  -8.637936e-01  8.596346e-01  -5.916326e-02  -1.380105e-01  4.960679e-01  -2.315846e-01  3.594456e-01  -1.804806e-01  3.895511e-01  2.425104e-01  7.658721e-02  4.889475e-02  3.075098e-01  -7.037997e-01  -1.014841e-01  4.336154e-01  2.874548e-01  -4.574459e-01  -1.255263e-01  1.729856e-01  2.508530e-02  3.190406e-01  1.029879e+00  2.495510e-01  -3.423196e-01  9.354185e-01  1.792391e-01  4.998952e-02  -4.746575e-01  -9.164499e-01  -2.015272e-02  1.972768e-01  1.929139e-01  -1.604097e-01  3.586937e-01  1.045782e-01  9.534822e-01  3.188812e-02  5.670804e-01  2.428877e-02  -7.660353e-01  -9.771879e-01  -3.177758e-02  -6.172018e-01  -2.443652e-01  7.029048e-01  6.278058e-01  -8.145588e-01  -4.828335e-02  -6.007148e-01  -6.837462e-03  4.648335e-02  -1.160764e+00  1.225780e+00  -2.060363e-01  3.053414e-01  -1.759672e-02  4.730244e-02  -5.317821e-01  8.004193e-01  5.525510e-01  -6.529099e-01  -1.000265e-01  3.924845e-01  2.225610e-01  -2.740304e-01  6.132439e-03  1.952371e-02  5.060695e-01  2.688539e-01  8.951621e-01  -2.078242e-01  8.477858e-01  3.193998e-01  1.493328e-02  1.288469e+00  1.214996e-01  1.273628e+00  -8.767402e-01  -3.261382e-01  4.378851e-01  -6.466925e-01  -9.802151e-02  2.345831e-01  5.441028e-01  1.820055e-01  -5.188133e-01  1.789584e-01  -2.826147e-01  9.307751e-02  9.937698e-01  -1.646056e-01  -1.080754e-01  -1.262293e+00  9.335906e-01  -7.647420e-01  -2.371668e-01  -1.048826e+00  3.265916e-01  -5.638507e-01  -8.537395e-02  3.061461e-01  -4.877759e-01  1.449859e-01  -2.427135e-01  -1.330648e-01  5.088418e-04  -5.911674e-01  3.869342e-01  1.817887e-01  6.150127e-01  1.292342e-01  5.951523e-02  -7.291504e-02  2.735678e-02  8.319062e-02  -1.401551e-01  -4.008332e-01  2.686535e-01  2.270718e-01  1.419751e-01  -1.285485e-01  9.481285e-02  9.750190e-02  1.034994e-01  -3.501784e-01  -3.642264e-01  -2.173484e-01  2.826031e-02  -7.366447e-01  -7.266463e-01  3.721008e-01  -1.302398e+00  -6.424048e-01  2.273089e-01  -4.698295e-01  -4.443678e-01  9.540632e-02  -2.391077e-01  2.451341e-01  -1.544716e-01  7.727493e-02  -5.314437e-01  -4.420475e-01  1.938830e-01  2.912215e-01  5.748693e-01  -4.730629e-01  2.866375e-01  -2.310066e-01  9.330121e-02  2.236490e-01  4.080145e-01  -7.319688e-01  -5.460065e-01  -3.816394e-01  -3.941263e-02  7.330890e-01  7.584652e-02  1.233782e-01  -7.234844e-01  2.645406e-01  8.937033e-03  -2.093673e-01  1.802391e-01  -3.517766e-01  6.779268e-02  2.378973e-01  1.158378e-01  7.931731e-01  2.705871e-01  -2.613680e-01  -2.321615e-02  5.836672e-01  -3.731019e-01  1.001594e+00  2.522149e-01  1.128956e+00  -5.725343e-01  -1.629487e-01  8.223419e-01  -2.980257e-01  -2.264364e-01  3.492880e-01  -6.059471e-01  7.783864e-02  1.321573e+00  -1.416616e-01  -3.619241e-01  3.024736e-01  1.442363e-01  -2.725415e-02  1.028615e-01  1.030493e+00  6.647637e-01  -8.578672e-02  -2.517400e-01  4.664392e-01  -1.715940e-01  8.683557e-01  1.440608e-01  -8.204674e-01  -5.595885e-02  -4.038574e-01  -4.335655e-01  -5.019987e-01  2.040140e-01  -3.389162e-01  5.074314e-02  -6.764904e-02  -7.848346e-02  -3.203886e-01  -3.691643e-01  2.762913e-01  -2.903581e-01  -3.355469e-01  2.726670e-02  1.497561e-01  2.661669e-02  -5.629210e-01  1.620257e-02  7.759996e-02  -8.743038e-01  7.664391e-01  1.124823e+00  -1.587179e-01  2.112993e-01  -2.536462e-01  6.350126e-01  6.432648e-02  -4.591907e-01  -6.473612e-01  1.325682e-01  4.183065e-01  -6.508732e-01  -1.303362e-01  -9.524669e-02  -3.836368e-01  -3.184744e-01  -1.043223e-01  1.417856e-01  6.840219e-04  -3.501928e-01  1.487059e-01  -5.936500e-02  -6.269291e-01  2.726045e-01  9.047950e-01  -6.553292e-01  -2.724197e-01  5.236832e-01  3.312024e-01  8.755034e-02  -2.987701e-01  -1.022765e-01  -1.321484e-01  2.762100e-02  1.189840e-01  4.413771e-01  8.598665e-03  9.605710e-02  4.194460e-02  -2.317141e-01  -2.819939e-01  7.219987e-02  6.127608e-01  2.108500e-01  8.678707e-02  -9.812441e-02  5.498703e-01  -2.578493e-01  -9.588189e-02  2.178081e-01  -7.012964e-01  -1.502686e-01  -6.527441e-02  5.536651e-02  3.311243e-01  -3.164855e-01  7.172453e-01  6.952397e-01  -5.757971e-01  9.741919e-02  1.967652e-01  1.673581e-01  -2.643695e+00  -1.415370e-01  -1.221518e+00  -1.009833e-01  5.075290e-01  5.486719e-01  2.076669e-01  -1.053450e+00  4.834564e-01  -9.908869e-01  2.533699e-01  1.262683e-01  5.511650e-01  -5.623423e-03  -3.151082e-02  -3.411077e-01  2.589469e-01  -5.283263e-01  -1.439825e+00  -3.407541e-01  -1.313861e+00  -6.445409e-02  -2.168378e-01  5.844759e-02  -6.305425e-01  -1.957258e-01  -3.646474e-01  9.460894e-02  -6.727164e-01  -8.634957e-02  -1.707372e-01  -1.311441e-01  -3.408555e-02  2.432307e-01  2.593332e-02  -1.082251e-01  2.566619e-01  6.882669e-02  2.019707e-01  -4.894178e-01  -2.276384e-01  -6.870712e-02  -4.123861e-01  -6.305847e-01  1.005068e-01  3.004930e-01  -1.165036e+00  1.928783e-02  -1.252207e+00  8.804315e-02  6.440914e-01  5.569459e-01  3.061081e-01  1.357492e-01  -2.357686e-02  2.230202e-02  4.846505e-01  3.114249e-01  -1.306136e-01  -5.451381e-01  -8.211867e-02  -7.244121e-02  4.446408e-01  -1.957268e-01  8.148596e-01  -8.680977e-01  -1.691603e-01  3.245119e-01  2.315906e-01  3.023483e-01  -5.160607e-01  8.011378e-02  -1.135549e-01  -2.062234e-01  3.182330e-01  2.205852e-01  1.512018e-02  8.907061e-01  -1.168226e+00  -2.866207e-01  -3.524740e-01  1.629760e-01  2.876526e-02  -1.819664e-01  6.303236e-02  -2.926986e-01  -6.303857e-02  -8.117000e-02  2.311074e-01  5.002244e-01  1.323333e+00  -1.266119e-01  -8.502413e-02  1.804448e-01  1.174272e-01  -3.148641e-02  -1.925422e-01  1.524184e-05  1.601791e-01  3.153508e-01  -9.946022e-01  3.467647e-01  -7.385050e-02  3.128032e-01  -7.116999e-02  2.217665e-01  2.760531e-01  4.900534e-01  -1.270197e-01  -3.289517e-01  -3.201157e-01  3.519101e-01  -4.371670e-02  -4.486876e-01  2.042997e-01  5.057947e-01  -1.230464e-01  -3.916412e-02  6.794097e-02  -1.425275e-01  -9.065644e-01  6.134812e-01  6.214231e-01  9.556001e-02  -9.683041e-01  -1.945008e-01  1.601735e-01  -1.257309e-01  -1.538312e-01  -4.740652e-02  6.445304e-01  -1.444994e-01  2.118020e-01  9.415865e-01  -1.670113e-01  -3.991776e-01  -1.125841e-01  -9.907452e-02  -3.020229e-01  -3.127224e-01  5.435975e-01  5.596492e-01  -7.058582e-01  -3.533185e-01  -2.662656e-01  5.332449e-02  -4.476778e-01  -9.144491e-03  7.123210e-02  1.021532e-01  1.991779e-01  7.086343e-02  -1.551559e+00  1.987456e-02  2.300041e-01  1.954857e-01  7.106023e-01  4.381584e-01  4.983791e-01  -3.162983e-01  -8.283954e-01  5.729344e-01  1.302195e-01  -3.078054e-01  -4.591883e-01  -7.579061e-02  -4.454971e-01  -8.340924e-01  -4.211309e-01  4.786924e-01  -1.925567e-01  -1.563372e-01  3.414193e-01  4.791159e-02  -1.497832e+00  -1.381401e-01  -1.227762e+00  -1.872112e-01  1.079525e+00  -7.785705e-01  -2.308372e-02  3.415539e-01  -1.516124e-01  -6.247048e-02  -3.714475e-02  -1.415169e+00  -8.023845e-02  -5.642710e-01  -5.223393e-01  2.091096e-01  3.966587e-01  -5.523925e-02  1.988584e+00  6.987971e-02  -3.066033e-01  3.883612e-01  -3.407521e-01  -4.897341e-02  -4.110439e-02  -2.586731e-01  -4.799457e-01  4.968167e-01  -1.823525e-01  -2.053802e-01  -1.704241e-01  -6.639771e-01  -4.371758e-01  8.274341e-02  2.869641e-01  3.226991e-01  1.256331e-01  3.847477e-01  -6.488979e-02  9.983625e-01  -5.265505e-01  -4.015196e-01  -2.064660e-01  -5.089602e-01  3.740616e-01  4.535574e-01  -3.888359e-01  6.990480e-01  4.443465e-01  -4.186097e-01  2.483212e-01  9.851417e-03  2.311691e-01  -1.762732e-02  -3.975517e-01  -8.437858e-01  -2.247865e-01  -1.171784e+00  1.155109e-01  2.856122e-01  -4.875217e-01  1.891519e-02  5.906913e-01  6.928540e-01  2.391249e-01  6.437147e-01  -5.163146e-01  -3.661615e-02  -3.867840e-01  8.463539e-02  -2.068680e-01  1.060198e-01  -3.485773e-01  -1.070576e-01  7.421053e-01  -7.081931e-01  5.364330e-01  -2.954224e-01  5.959813e-03  2.294234e-01  2.315084e-01  -1.304197e-01  -3.645528e-02  -2.342702e-01  -6.509557e-01  -5.727870e-01  1.366043e-01  4.133942e-01  2.173019e-01  2.470694e-01  8.620678e-01  -5.548154e-03  3.063005e-01  -4.948872e-01  1.568892e-01  2.416122e-01  7.967862e-02  -6.371273e-01  1.118467e+00  1.094245e-01  -5.636820e-01  -3.749422e-01  -1.218719e+00  -3.546952e-01  -3.260008e-01  -1.685309e-01  1.402539e+00  -3.516997e-01  -6.696312e-01  -6.374968e-01  -4.931900e-01  5.173730e-01  -6.306320e-02  4.571592e-01  4.270397e-01  -3.767434e-01  -6.389666e-01  6.320285e-01  4.618858e-01  3.331249e-01  1.986278e-01  5.026700e-01  1.897147e-01  -2.780319e-01  -6.274533e-01  -2.330915e-01  3.151791e-01  2.889485e-02  8.418010e-01  3.280773e-02  4.011694e-01  -5.617103e-01  4.756452e-02  -2.337188e-01  -2.114026e-02  -3.388886e-01  5.065717e-01  2.584455e-01  -3.801348e-01  6.336253e-01  -9.915913e-02  -4.934322e-01  6.501612e-01  8.327270e-02  -3.903278e-01  -1.424094e-01  -1.047655e+00  -7.457445e-02  2.513990e-01  -5.934027e-03  1.793906e-01  4.245581e-01  -2.113600e-01  5.851740e-01  4.048112e-01  -3.556932e-01  -4.301637e-02  6.554281e-01  4.546945e-01  -7.544896e-02  3.658021e-01  2.337881e-01  7.388164e-01  2.497742e-02  -8.169042e-01  -8.031372e-01  -7.175261e-01  -3.907432e-02  -1.261024e-01  6.060604e-01  2.556156e-01  6.591942e-01  2.976022e-01  5.956575e-01  -1.461043e-01  -1.266970e-01  -5.927989e-01  4.476660e-01  3.252913e-02  -8.313997e-02  -5.810944e-02  1.587086e-01  3.952688e-01  2.753423e-01  -7.255850e-01  -1.076830e-01  3.686506e-01  -2.032459e-01  9.607328e-01  6.284453e-01  -9.095887e-01  6.877162e-01  -2.607525e-01  -6.140539e-01  7.217944e-01  -3.945755e-01  -1.182396e-01  -3.196628e-01  -3.335009e-01  8.866804e-03  7.043670e-02  -1.129358e-01  7.738824e-01  4.088061e-02  -2.671554e-01  3.623692e-02  -6.838056e-01  2.204779e-02  -3.876643e-01  -2.334403e-01  2.826070e-01  2.908059e-01  2.334361e-01  6.091405e-01  -3.609575e-01  1.901156e-01  -5.739071e-01  4.706400e-01  -1.792049e-01  7.158245e-01  -5.492800e-01  4.401098e-01  -2.379688e-01  -5.789117e-01  3.752536e-01  6.553799e-01  -1.297514e-01  -3.537979e-01  -1.204955e+00  -4.561722e-02  -1.701813e-01  6.485764e-01  2.471518e-01  2.526604e-01  -1.358477e-01  1.327996e-01  2.014407e-01  1.740423e-01  3.461227e-01  -2.556326e-02  1.180368e-01  -4.058900e-01  -2.872392e-01  1.553319e-01  4.282791e-01  -8.998803e-03  1.780131e-01  -7.250350e-01  1.040039e-02  1.305807e-01  -3.164862e-01  -2.034144e-01  -2.632851e-03  3.221292e-01  -5.116772e-01  -3.386219e-01  -1.939845e-02  4.488109e-01  -2.378049e-01  -5.609683e-02  1.000923e-01  2.474917e-01  -2.257821e-01  4.096535e-01  -2.842407e-01  8.512622e-02  3.444137e-01  -2.039090e-01  5.905772e-01  -2.051343e-01  -3.252397e-01  2.336962e-01  2.247814e-01  1.755375e-01  4.290709e-01  -4.455481e-01  1.068850e-02  4.340334e-01  1.366411e-01  -6.299970e-01  8.963548e-02  -3.831578e-01  -5.265430e-01  3.249106e-01  -9.428218e-02  -3.359668e-01  -2.528759e-01  -3.407018e-01  -2.731622e-01  1.763554e-01  2.521589e-01  -9.347353e-02  3.871404e-01  5.137876e-01  -1.256514e-01  5.121745e-01  2.891930e-01  4.936124e-01  -1.948791e-01  -2.904188e-01  -1.963417e-01  -1.060987e+00  7.768417e-02  -6.925057e-01  5.625327e-02  2.973518e-01  -2.056393e-01  3.842258e-01  -2.338135e-02  -2.400846e-01  1.826873e-01  -2.280089e-01  1.519375e+00  -2.507537e-01  2.014943e-01  -1.501637e-01  9.703362e-02  2.234631e-01  -7.624513e-02  -1.134729e-01  -5.089533e-01  -2.135671e-01  4.401445e-01  6.227540e-01  3.277500e-01  1.390611e-02  -2.321951e-01  -1.731096e-01  4.529078e-02  6.676853e-01  -5.618438e-01  5.032306e-02  -5.328726e-01  -1.847048e-02  1.379022e+00  -1.438545e-01  -4.699169e-01  -3.311968e-01  1.992566e+00  -7.071645e-01  -4.531089e-01  5.474311e-02  -2.983057e-01  -1.145851e+00  -2.724295e-01  -6.401824e-01  1.261491e-01  -1.211436e+00  -4.522247e-01  4.011218e-01  -4.530107e-01  9.434849e-02  -1.926297e-01  -2.046644e-01  3.749255e-01  5.982904e-01  1.674554e+00  -2.608235e-01  8.148794e-01  6.925197e-02  1.217800e-02  -4.628252e-01  -3.612042e-01  -2.948387e-02  7.351515e-02  3.989745e-01  2.308232e-01  -1.790412e-01  -3.436329e-01  -1.180137e-01  1.857535e-01  -3.398290e-01  1.265633e-01  6.853062e-02  5.349047e-01  -1.920772e-01  -2.001807e-02  1.255758e+00  6.224439e-01  -5.432256e-01  -1.048522e-01  4.606595e-01  -1.204721e-01  -2.268679e-01  5.866017e-01  1.166747e-01  7.459868e-01  2.589233e-01  -3.706994e-01  -5.815784e-01  -1.774820e-01  3.851019e-01  -2.627196e-01  -5.304788e-01  3.271397e-01  -3.546326e-01  4.111214e-01  4.506808e-01  -1.588524e-01  2.923336e-01  -5.665640e-01  2.318292e-01  -4.943398e-01  5.595719e-01  3.538420e-01  -9.026854e-01  -5.857725e-01  -4.738126e-01  2.617614e-02  5.481724e-01  -2.821318e-01  -2.509102e-01  -1.775020e-02  -4.231674e-01  -2.020186e-02  -5.109388e-01  -1.353552e-01  -5.667943e-01  -1.372208e-01  2.315473e-02  -3.706375e-01  -3.957199e-02  8.729896e-02  -8.661034e-01  -5.388000e-01  -6.767874e-02  2.891493e-03  1.666248e-01  3.230020e-02  1.533974e+00  -4.184889e-01  1.219594e-01  1.324282e-02  -1.134024e-01  5.498030e-01  -1.460151e-01  9.208900e-02  2.934057e-01  3.386145e-01  3.399522e-01  -5.242943e-01  -7.327566e-01  -4.643660e-01  3.609376e-02  -2.959907e-01  -1.971717e-02  -1.824107e-01  1.038019e-01  3.407710e-01  -1.841716e-01  -3.451389e-01  -1.853460e-01  -1.276808e-01  4.689340e-01  3.223372e-02  1.588025e-01  -2.716001e-01  -7.764211e-02  3.496278e-01  -2.309347e-01  6.189379e-01  -4.211361e-01  -1.457602e+00  1.450511e-02  4.732841e-01  -5.391828e-02  4.109205e-01  -1.376226e-01  9.040343e-03  -1.294222e-01  -1.477850e-02  1.701696e+00  -7.433193e-02  6.536410e-01  3.060258e-01  2.580473e+00  1.476816e-01  5.045546e-01  7.617206e-01  -6.652493e-01  -3.978967e-01  2.835386e-01  9.793673e-01  3.086113e-01  -4.034994e-01  1.788997e-01  -4.246563e-02  1.382023e-02  -2.779135e-01  8.489648e-01  1.153086e+00  -8.303640e-01  4.698543e-01  -3.438865e-02  -8.755689e-02  1.278340e-01  -3.687690e-01  -1.419316e-03  -7.034098e-03  -1.312749e-01  -2.017118e-01  5.092945e-02  5.192276e-01  3.871482e-02  -6.933852e-02  2.768468e-01  -5.203633e-01  -4.419455e-02  -5.321642e-01  -1.398137e-01  -3.196753e-01  -1.157054e-01  -2.939220e-03  1.893112e-02  -4.223640e-01  -2.714320e-02  2.852266e-01  -1.032301e-01  -4.457699e-01  -2.791518e-01  -1.559883e-01  2.656030e-01  -3.749178e-02  2.035099e-01  4.519756e-01  -2.947757e-01  -7.081117e-01  1.981964e-01  4.869908e-01  -2.846487e-01  -7.551197e-01  1.244996e-01  -1.162257e+00  8.287690e-01  1.579714e-01  -1.316714e-01  -1.031832e+00  -1.254410e-01  -1.061970e-01  4.998352e-02  3.610684e-01  -6.114708e-02  -6.794508e-01  -3.512234e-01  5.576796e-02  -1.329632e-01  -9.667445e-03  4.366451e-01  -3.638472e-01  -4.605827e-01  -2.644398e-02  -5.628350e-01  1.058862e-01  1.635118e-01  -3.680058e-01  -2.389578e-01  -4.971074e-01  7.232539e-02  -7.181261e-02  -1.057297e-01  -3.711925e-02  3.457213e-02  2.420495e-02  -4.182712e-01  -7.835455e-01  5.058369e-01  -9.751606e-02  -1.351509e-01  6.628313e-01  -1.146312e+00  -1.450143e-01  -2.560934e-01  -5.311554e-02  -2.265467e-01  -5.449937e-02  -7.274246e-01  8.066133e-02  -2.918612e-01  4.803509e-01  -2.729149e-02  4.053738e-01  3.465325e-01  8.266155e-01  2.944944e-01  -1.287616e+00  8.113853e-01  -8.112854e-01  1.347015e-01  2.907549e-01  2.149164e-01  -7.646627e-01  -3.351292e-01  -1.272091e-01  5.105212e-01  1.344786e+00  -2.449890e-01  6.376624e-01  -9.347523e-02  5.894228e-02  -1.794226e-01  8.312133e-02  -8.971570e-02  -3.305136e-01  5.987126e-01  -2.695763e-01  3.766660e-01  1.383339e-01  4.343223e-01  -1.210919e-01  -1.880838e-01  7.494418e-01  4.720001e-01  7.856613e-01  -2.630337e-01  5.293093e-01  -2.588626e-01  -2.785104e-02  4.189294e-01  -8.553980e-01  -3.851399e-01  2.058387e-01  5.532068e-02  1.607523e-01  5.729707e-01  2.621970e-01  -2.024276e-01  2.672386e-01  -4.020987e-01  2.212142e-01  -3.141153e-01  9.298907e-01  4.541461e-02  -4.543339e-01  -2.897941e-01  -5.918273e-01  4.315748e-01  -7.863581e-01  2.906219e-01  -1.814111e+00  7.864918e-02  -1.099392e+00  -3.666276e-01  -4.594539e-01  9.417563e-01  1.670618e-01  3.171018e-01  4.985161e-02  -1.863669e-01  -1.213204e-01  -3.740255e-01  1.232472e-03  5.775694e-01  -1.780148e-01  2.072843e-01  -4.410758e-01  -7.126516e-01  3.307458e-01  -2.296276e-02  9.262658e-01  2.134068e-02  -2.309437e-01  1.259756e+00  2.609002e-01  1.621003e-01  -6.009458e-01  1.026218e+00  1.543889e-01  -4.982351e-01  -5.080121e-01  1.902140e-01  9.391900e-01  -8.183045e-01  -2.114432e-01  -2.505599e-01  -3.914976e-01  -5.404948e-02  2.759280e-01  -1.461419e-01  -1.919055e-01  -1.236674e-02  -7.759544e-02  -1.458421e-01  7.655625e-02  7.535517e-02  2.989820e-01  7.235392e-02  -4.103969e-01  -3.945522e-01  -1.366775e-01  3.596509e-02  -3.602568e-01  7.545418e-02  3.925013e-01  -1.701589e-01  3.705591e-03  4.002789e-01  7.652304e-02  1.586095e+00  1.547490e-01  -1.592541e-01  6.924734e-02  -1.984114e-02  -1.205269e-02  1.524953e-01  2.114765e-01  -1.879719e-01  2.572331e-01  6.285791e-01  -3.252353e-01  5.360951e-01  -9.951559e-02  4.028948e-02  2.365020e-01  -3.330567e-01  1.889831e-01  3.323472e-02  3.603794e-01  -1.933029e-01  1.607381e+00  4.443472e-01  -5.162896e-02  2.696686e-02  -2.126446e+00  2.285929e-01  -5.932184e-01  4.409863e-02  -8.979284e-02  -8.223431e-01  2.679122e-01  -8.330907e-01  1.869669e-01  -7.911515e-01  1.703547e-01  -3.636208e-01  1.643682e-01  -7.409631e-02  1.306549e-01  5.378488e-01  -3.188555e-01  5.119677e-01  -1.609847e+00  -4.788769e-01  -1.175681e+00  6.176803e-03  -6.327823e-01  -8.314699e-01  -8.647015e-02  -2.407876e-01  -1.314505e-01  3.138116e-01  -7.361606e-01  -7.281600e-01  2.332091e-02  2.519748e-01  8.858099e-02  4.510087e-01  -3.308722e-01  3.442953e-01  -8.984635e-01  -7.365637e-02  -2.032919e-01  -4.572125e-01  3.851965e-01  2.094844e-01  -5.923026e-01  -4.096633e-01  1.315538e+00  -7.232702e-02  1.568603e-01  7.099914e-02  2.312137e-01  -5.527312e-01  6.558804e-01  -4.331780e-01  2.898314e-01  -4.161371e-01  2.382088e-01  -1.588166e-01  -1.885086e-02  3.125580e-01  -1.262179e-02  -6.488580e-01  5.240159e-01  -3.593787e-01  7.734776e-02  -1.651179e-02  -5.568740e-01  1.211696e-01  -1.490761e-01  -6.794693e-01  1.028767e-01  2.625864e-01  2.980802e-01  -1.692351e-01  -3.560735e-02  -2.237842e-01  -7.064336e-02  5.044184e-01  3.531210e-01  -2.826457e-01  4.002311e-01  -1.775724e-02  -7.334635e-01  -3.605888e-01  -2.079601e-01  -5.317505e-02  1.992312e-01  -2.111654e-01  -1.668157e-01  1.403662e-01  3.266148e-02  6.925969e-02  -4.324554e-01  3.921120e-01  -2.580214e-01  -1.987952e-01  5.563220e-03  -3.982617e-01  4.513665e-01  -4.833075e-02  -1.812614e-01  3.538892e-01  6.820441e-01  3.076820e-01  -5.013942e-01  1.285010e+00  1.279480e-01  -4.081455e-01  1.662534e-01  4.194299e-01  -4.876700e-01  2.093136e-01  -1.538658e-01  -3.131374e-01  3.789649e-02  4.620409e-01  -3.473280e-01  -3.985182e-01  7.512279e-02  -7.815314e-03  4.148746e-01  -6.218558e-01  2.423920e-01  -3.491545e-01  -8.846229e-03  -2.572106e-01  6.813061e-01  7.195700e-01  -3.300738e-01  1.569182e-01  -6.283346e-01  2.222829e-01  -1.313897e-01  2.082205e-01  7.257909e-02  -2.224497e-01  -2.703311e-01  -4.338688e-02  2.260574e-01  -3.543990e-01  5.706201e-02  -7.497898e-01  -3.070749e-01  -8.899529e-01  7.772881e-01  2.628645e-01  -9.476323e-01  -6.289096e-01  -4.068131e-01  -2.212479e-01  3.776489e-01  1.192840e-01  1.933979e-01  -1.830550e-01  -8.788087e-02  7.548999e-01  -4.016530e-01  3.704442e-01  -4.253255e-01  -1.626744e+00  -3.560427e-01  2.095750e-01  4.692742e-01  4.501391e-01  2.308657e-01  -7.077277e-01  -5.204703e-01  -3.525599e-01  4.820892e-01  -7.959561e-01  -3.147449e-01  -6.209124e-01  -1.609208e-01  -2.884247e-01  5.612848e-01  -3.187792e-01  -2.387165e-02  -1.804426e-01  9.535362e-01  6.813392e-02  6.199214e-01  6.144640e-01  1.286892e-02  -1.391157e-02  -1.667948e-01  -2.263557e-02  -1.891055e-01  3.880084e-01  3.508003e-01  -1.180531e-01  4.902785e-01  6.932800e-02  4.416387e-01  2.843481e-01  -2.235446e-01  -3.947138e-01  5.006434e-01  -7.647408e-01  7.787119e-01  -2.481760e-01  9.016489e-01  -8.656668e-01  -2.574097e-01  8.496953e-01  9.123248e-01  1.445496e-02  9.172068e-02  4.786449e-01  5.813969e-02  8.724497e-02  4.187445e-02  2.845223e-01  9.154226e-01  -4.030246e-01  -1.399133e-01  4.975976e-01  3.671522e-01  -1.854981e-01  1.451151e-01  -2.341858e-01  -5.807112e-01  6.458125e-01  -2.408324e-01  -2.911572e-01  2.532282e-02  -4.884440e-02  -7.974938e-01  -1.039369e-01  5.117083e-02  -1.113659e-01  -3.400911e-01  -1.597529e-01  6.151084e-02  3.202755e-02  5.830223e-01  -3.247344e-02  -1.160540e-02  1.734864e-01  1.119167e-01  -4.806046e-01  -7.978861e-02  1.539916e-01  -1.350197e-01  -1.337739e-01  8.478827e-01  2.089491e-01  9.688486e-02  -1.897964e-01  -2.428625e-01  -2.301575e-01  -1.275937e+00  6.880099e-01  -4.967416e-01  -4.171877e-01  -3.937333e-01  -6.480461e-01  2.446904e-01  1.977558e-01  1.193168e+00  5.797283e-01  1.066347e+00  1.285783e-01  6.004351e-01  3.366281e-01  -4.075129e-02  1.880610e-01  -6.204457e-01  -6.193206e-02  -4.428229e-02  -1.324613e-01  1.183111e-01  5.042086e-01  -8.628696e-01  -1.697143e-03  -4.915878e-01  9.348598e-02  2.402430e+00  3.526909e-01  1.735995e+00  -2.187491e-01  2.087081e-01  -7.967533e-02  2.156000e-01  3.476299e-02  1.320285e-01  -1.640017e-01  1.128481e+00  2.795459e-01  9.191949e-01  -1.879966e-01  -1.169948e+00  2.584962e-01  -1.127940e-01  2.163583e-01  -2.734868e-01  3.305672e-01  -1.104007e-01  -2.250712e-01  -3.219033e-01  4.908979e-01  3.635313e-01  -8.491558e-02  6.338016e-01  5.805793e-01  1.468884e-01  1.966237e-01  6.640768e-01  7.061211e-01  1.562332e-01  -6.178610e-01  3.217993e-01  -1.212199e-01  -1.479023e-01  4.814123e-01  1.656243e-02  -2.910184e-01  1.953867e-02  5.467110e-02  4.801949e-02  -1.703135e-02  9.687517e-02  -1.525176e-01  -7.700775e-01  5.440310e-01  -5.635974e-01  -2.827195e-01  -9.846991e-01  -8.429863e-02  -2.871123e-01  -3.894851e-01  1.920906e-01  7.806069e-01  -8.167043e-03  1.445914e-01  4.087320e-01  -8.583638e-01  -1.296289e-01  2.314936e-01  -2.032862e-01  -1.337231e-01  -7.044137e-01  -2.216267e-01  -3.891550e-01  -1.648513e-01  -7.890479e-01  1.226252e-01  -2.297247e-02  -2.558568e-01  -2.062815e-02  6.030242e-01  -2.217476e-01  -6.508140e-02  2.993935e-01  -7.526253e-02  -1.524195e-01  1.492490e-01  2.926672e-01  3.423685e-01  4.659081e-01  4.202608e-01  -3.870448e-01  -2.803161e-01  1.310774e-01  -2.270598e-01  1.418794e-01  -4.365213e-01  -2.375927e-01  5.100435e-01  5.401561e-02  6.887756e-02  5.146315e-01  8.841521e-01  -4.903878e-01  6.977614e-02  -5.210885e-01  -2.901623e-01  8.030888e-02  -3.810270e-01  5.280044e-01  -1.052992e+00  5.069023e-02  5.613617e-01  -2.632762e-01  4.572335e-01  -3.522475e-01  -7.778491e-01  -1.960396e-01  -2.155417e-01  -9.248090e-01  -2.948876e-01  1.807343e-01  -5.027538e-01  -4.219953e-02  6.449756e-01  3.987257e-01  8.110976e-01  1.037869e-01  3.664218e-01  -4.586516e-01  -4.542507e-01  1.424681e+00  5.736513e-01  4.288464e-01  -3.100619e-01  -8.056915e-01  -2.299638e-01  -5.982100e-01  1.504491e-02  -1.443467e-01  1.100721e-01  -3.257379e-02  -3.463374e-01  -2.455061e-01  1.214776e-02  -6.693327e-01  -2.423437e-01  -1.507993e+00  -7.483079e-02  8.274894e-01  -1.833356e-02  -4.679289e-01  1.533893e-01  4.069054e-01  -1.650514e-03  7.478514e-01  -5.492272e-01  -4.000779e-01  -9.757790e-01  -6.433521e-01  -5.363593e-01  -1.470299e-03  -6.228585e-01  -5.804671e-02  4.547125e-02  -1.939647e-01  3.872275e-01  4.067113e-01  5.869945e-01  6.571761e-01  -1.728412e-01  -1.293128e-01  -2.422247e-01  8.284606e-02  6.368458e-01  8.548993e-02  3.827279e-01  -3.078812e-01  -6.526977e-02  -9.370277e-01  8.280717e-02  2.573397e-01  -5.770319e-02  -5.510032e-01  9.312371e-01  1.263546e+00  -9.739561e-02  2.094823e-01  -1.290198e-01  5.168993e-02  -1.672258e-01  8.698651e-01  6.696806e-01  -5.828447e-02  1.621892e-01  2.607620e-01  -4.855272e-01  1.836242e-01  -2.543743e-01  -4.628731e-01  1.319263e-01  6.312919e-02  -4.392380e-01  -4.149981e-01  5.371801e-02  3.696422e-01  -2.198850e-01  -1.856494e-01  7.042652e-02  -4.376330e-01  -1.856059e-01  2.493311e-02  -1.423680e-01  -2.047085e-01  4.294580e-01  -6.044430e-01  -3.882392e-01  4.987662e-01  6.462710e-01  5.077630e-01  -6.244025e-01  1.382360e-01  -2.399111e-01  5.380608e-01  2.619121e-01  -2.420216e-01  4.523366e-01  -1.123698e-01  -1.323263e-01  4.075110e-02  3.335251e-02  4.444772e-01  1.653330e-01  -5.677791e-01  -3.997553e-01  1.785946e-01  9.820549e-01  5.280785e-01  4.006005e-01  2.194237e-02  4.232762e-01  5.153027e-01  -1.560224e-01  -1.433376e-01  -4.499377e-01  -1.528651e-01  -2.752293e-01  1.076988e+00  4.482051e-01  -1.093925e-01  2.291252e-01  -6.617822e-01  1.459827e-01  -3.650846e-01  4.032994e-01  -2.074207e-01  5.918561e-01  5.786731e-01  -3.861630e-01  -5.524581e-01  3.707963e-01  2.748655e-01  -9.616747e-02  -8.114623e-01  -2.158516e-01  6.596494e-02  5.200171e-01  7.620402e-02  1.713067e-02  -4.747262e-01  -3.176679e-01  8.755252e-01  4.617075e-01  -1.922575e-01  1.519625e-01  -6.593934e-02  2.525402e-01  -4.511431e-01  -3.321247e-01  7.229930e-01  -1.872304e-01  5.448647e-01  -3.852689e-01  -1.905385e-01  3.929030e-01  -6.713341e-01  6.989890e-03  -4.462425e-01  4.621890e-01  -1.120225e-01  -2.569220e-01  -6.786363e-02  -1.553112e-02  -7.311214e-02  -1.755529e-01  2.586323e-01  2.282416e-01  -5.357136e-01  2.061035e-01  -6.097125e-01  4.362013e-01  3.109829e-01  -3.492945e-01  5.623326e-01  7.876996e-01  -7.313040e-01  3.146076e-01  -4.154783e-01  2.095422e-01  5.596753e-01  2.911964e-02  -3.934027e-02  5.056541e-01  -1.358815e-01  -1.636165e-01  -2.756426e-01  3.145581e-01  -2.714691e-01  -2.875407e-01  -9.117342e-02  -4.726160e-01  -8.008798e-01  -6.719231e-02  3.630996e-02  3.467733e-01  3.358957e-01  -1.898337e-01  -4.728084e-01  -4.053778e-02  2.296679e-01  -5.035248e-01  1.248837e-02  -5.859233e-02  -1.115516e-01  4.416646e-02  -3.262277e-01  -5.828905e-01  -5.444151e-01  -3.679568e-04  3.875323e-01  2.096804e-01  1.510782e+00  -4.588126e-01  -4.350501e-02  4.926899e-01  1.744338e-01  1.011802e-01  -1.068613e-01  -1.551724e+00  -4.891957e-01  -6.467225e-02  4.974930e-02  -2.337341e-01  -8.277325e-02  2.395053e-02  -2.132708e-01  3.438158e-02  -3.434638e-01  -4.687337e-01  4.778035e-03  1.797842e-01  5.176276e-01  6.012611e-02  -1.011883e-01  4.170741e-01  5.495391e-01  5.582256e-01  -2.375774e-01  6.226581e-01  -9.362526e-01  -8.055393e-02  -1.689645e-01  -6.080831e-01  2.552692e+00  4.056643e-01  7.438922e-01  -3.973958e-02  -2.072993e-01  4.861486e-01  2.237566e-03  5.298433e-01  -1.999670e-01  6.042917e-01  -6.138917e-02  7.597284e-01  3.990189e-01  -2.440450e-01  -1.957259e-01  -4.322615e-01  7.755110e-01  -7.890832e-02  7.229468e-01  5.931833e-02  4.881745e-01  -9.641369e-02  -4.136221e-02  5.760343e-01  -5.353513e-01  5.842736e-01  6.195389e-01  3.261364e-02  2.472857e-01  9.238907e-01  4.865880e-01  6.127066e-02  -3.881467e-01  -2.424934e-01  -1.857426e-01  -6.098036e-02  5.401136e-01  1.469708e-01  -1.369808e-01  3.196670e-01  -1.881512e-01  6.027887e-02  2.736544e-01  3.127126e-01  -1.330741e+00  1.001289e-01  -1.585032e-01  -2.442819e-01  -5.056575e-01  -1.915195e-01  -6.513051e-01  8.619109e-01  -2.951665e-01  2.960484e-03  5.636363e-01  3.465743e-01  2.827153e-01  -4.574906e-01  2.584644e-03  3.560188e-01  -4.439446e-01  2.122850e-01  -2.967691e-01  1.378727e-02  7.156644e-01  -1.740286e-01  4.000311e-01  2.512336e-01  -4.995345e-01  5.012364e-02  -6.447053e-01  8.355979e-01  4.988370e-03  -9.218464e-02  1.996015e-01  2.152195e-01  -2.020793e-01  -6.377457e-01  -7.455121e-01  1.545568e-02  -4.415857e-02  8.322690e-01  -7.291840e-02  -4.942616e-01  -5.891008e-02  2.838073e-01  -3.449970e-01  -1.099226e-01  -4.469161e-02  5.299706e-01  5.514929e-01  2.949953e-01  5.435697e-03  -1.610038e-01  1.328640e-01  2.754883e-01  5.293167e-01  -2.754145e-01  1.933208e-01  -4.769123e-01  -4.610656e-01  7.163768e-02  -2.410879e-01  -3.404117e-01  -2.839193e-01  5.605647e-02  -2.214483e-01  -4.165410e-01  -7.916912e-02  -6.574299e-03  3.604469e-01  2.436312e-01  7.080641e-02  -2.951735e-03  1.513880e-01  8.033477e-01  -1.123713e-02  2.651092e-01  -6.181105e-01  2.190279e-01  1.302422e+00  -4.537097e-01  3.090100e-01  -4.192791e-01  -3.830206e-01  4.879721e-01  2.041698e-01  -4.116756e-01  -8.929236e-02  -6.311044e-01  -2.808854e-01  -2.043213e-01  -3.251213e-01  2.206843e-01  -3.022305e-01  1.939210e-01  5.251019e-02  6.755407e-01  5.001521e-02  3.446383e-01  -2.020152e-02  6.315313e-01  6.890466e-01  -2.282758e-01  7.181832e-01  -2.595324e-04  -6.302602e-01  3.597103e-01  -2.307551e-02  -3.114170e-01  -3.675676e-01  5.810307e-01  3.640680e-01  -7.328780e-01  5.422746e-01  -1.760582e-02  -1.086644e-01  1.237587e+00  -1.789298e-01  7.998314e-02  1.193554e-01  -1.947008e-01  -2.450325e-01  -9.528195e-03  5.498902e-01  8.732141e-03  -1.212957e+00  9.326374e-01  -5.015614e-01  -5.449429e-01  -2.894539e-01  7.297446e-01  -2.373109e-02  1.728750e-01  9.406289e-02  4.092189e-02  -2.021043e-01  -7.202717e-04  -3.249910e-01  1.314650e+00  -2.253229e-01  -5.020927e-01  -4.289775e-02  -2.909032e-01  8.112279e-01  6.026621e-01  1.275861e-01  2.573814e-01  -4.966961e-01  -3.131050e-01  -7.645505e-02  -2.085717e-01  -3.865671e-01  -2.430686e-01  1.712540e-01  2.839012e-01  -1.192054e-01  1.011454e-01  -8.873861e-01  1.892779e-01  -1.650753e-01  -5.819322e-01  -1.239865e+00  2.162348e-01  1.447111e-02  2.709608e-01  -3.011775e-01  -1.336023e-02  2.066024e-01  -2.001073e-01  2.190053e-01  6.437913e-02  3.274407e-02  -5.076796e-01  -1.047825e+00  3.492083e-01  3.800676e-01  -1.043842e-01  -2.167963e-01  1.573273e+00  -1.819239e-01  5.200435e-01  -4.448969e-01  8.607493e-02  8.294695e-01  -8.106847e-02  -5.168389e-01  -8.094836e-02  1.251933e-01  -3.573927e-02  -7.931725e-01  1.149652e+00  -3.147545e-01  -7.797410e-02  8.020839e-02  -4.674304e-01  -4.211531e-01  -5.610602e-04  -3.139527e-01  -3.671223e-01  3.032312e-01  -4.200299e-01  -8.563186e-02  4.699214e-01  -8.608153e-02  -1.137347e-01  -1.853044e-01  -2.110306e-01  -4.665103e-01  2.179454e-01  7.299124e-01  4.208383e-01  -1.065991e+00  -2.827142e-01  3.978281e-01  7.290585e-02  -6.414644e-01  3.113469e-01  2.938787e-01  3.539344e-01  -1.297053e-01  2.647343e-01  -2.398466e-01  4.417515e-01  -4.012943e-01  2.656245e+00  -2.721519e-01  5.667174e-01  -1.120718e+00  -1.065886e-01  -5.942902e-01  1.170704e-01  -1.881109e-01  -8.115157e-01  -4.260401e-01  1.026721e-01  4.540146e-01  1.135830e-01  7.957880e-02  -7.502338e-02  -1.531368e-02  -2.675022e-02  6.091817e-01  4.908037e-01  -1.855543e-01  -1.614948e-01  2.979334e-01  -7.707528e-02  -2.125877e-01  -1.979512e-01  2.203113e-01  -2.950583e-02  -4.899831e-01  -1.000931e-01  -3.601829e-01  1.282200e-01  -9.714619e-01  2.560400e-01  1.311737e-01  6.599266e-01  -2.883128e-01  6.773318e-02  1.072825e+00  1.041739e-02  -4.234185e-01  -9.217054e-02  8.404037e-02  9.653559e-02  2.615793e-01  1.645104e-01  8.023677e-02  -1.995533e-02  -5.288240e-02  1.080771e-01  6.732936e-02  1.797480e-01  -5.626889e-01  -1.176598e-01  1.034209e-01  3.791672e-01  -7.009857e-01  -1.300734e+00  -2.449259e-01  6.238173e-01  -8.434984e-02  -4.418320e-01  -1.014620e+00  -2.437908e-01  2.420258e-02  5.732160e-01  1.254822e-01  3.839817e-03  7.930709e-01  -4.751816e-01  -1.752214e-01  -2.246950e-01  3.553146e-01  -4.899772e-03  5.667271e-02  -3.276598e-02  -6.963513e-02  -1.946229e-03  -7.378738e-01  -1.620336e-01  4.492952e-01  2.181319e-01  3.038774e-01  -1.863595e-01  -2.725276e-01  -3.919526e-02  2.368770e-01  1.516485e-01  1.136754e+00  1.971147e-01  2.398060e-01  1.596300e-01  1.761333e-01  -1.947805e-01  -2.337742e-01  8.838201e-01  1.885027e-01  5.011793e-01  -1.412847e-01  -2.504889e-02  5.682684e-01  1.155274e-01  3.403576e-03  -3.930093e-03  -3.887413e-02  6.125825e-01  -2.771858e-02  -3.431798e-01  -1.075372e+00  -1.233635e-02  2.604942e-01  -6.154880e-01  1.328496e+00  -4.338744e-01  -7.932257e-01  8.104952e-02  1.139617e+00  4.919537e-01  -2.373181e-01  8.685540e-02  -7.201883e-01  -4.514435e-01  -8.690986e-02  -3.509564e-01  -7.786175e-02  -6.789177e-01  3.289536e-03  -1.784012e-01  1.711350e-01  -2.468683e-01  3.979777e-02  -2.920435e-01  -1.612503e+00  5.217221e-01  7.914829e-01  3.704223e-02  -1.966087e-01  -1.930575e-01  -1.035523e+00  5.723933e-01  -4.735904e-01  -1.866515e-01  -3.392008e-01  -3.376930e-01  -3.018074e-01  -1.728318e-01  -3.211471e-01  9.530085e-02  -5.065893e-01  -3.285550e-01  -4.316977e-01  -2.408122e-01  1.606393e-01  1.834331e-01  -9.923900e-02  1.201227e-01  1.053470e-02  -1.248581e-02  5.007945e-01  -2.134617e-01  -1.434453e-02  -4.831325e-01  1.758959e-01  3.434399e-01  1.067919e+00  -4.751119e-02  4.757291e-01  -1.186549e-01  3.809283e-01  -1.979772e-01  2.781902e-01  8.680842e-01  1.177295e-01  -1.120734e-01  1.827262e-01  3.109549e-01  -4.190226e-01  -7.015918e-02  3.729151e-01  -1.384983e-02  2.172113e-01  -2.061256e-01  -6.704430e-01  -4.201765e-02  3.769376e-01  -3.258466e-01  -5.278659e-01  -1.182621e+00  -3.022236e-01  4.142238e-01  9.696968e-01  -7.796457e-01  3.572095e-01  -1.289667e-01  2.560064e-01  1.091644e-01  -7.745952e-01  3.691807e-01  1.154926e-01  3.258545e-01  6.993884e-01  1.411569e-01  9.399210e-02  1.002644e-02  -6.019622e-01  2.952342e-01  7.462614e-01  4.731903e-01  -2.177569e-02  1.477531e-01  -2.760250e-02  1.212357e-01  -1.057209e-01  -5.952054e-01  -1.093534e-01  1.181899e-01  -6.205987e-01  6.335234e-02  1.079692e-02  4.248166e-01  3.998129e-01  -2.719510e-01  1.005973e+00  -3.261377e-01  2.175771e-01  -2.058158e-01  4.785885e-02  -1.987388e-02  4.090630e-01  3.235525e-01  -1.915443e-01  2.653178e-01  2.112188e-01  2.644443e-02  2.152901e-01  -4.766436e-01  1.120816e-01  1.882451e-01  -4.100838e-01  5.368444e-01  -1.281920e-01  1.765052e-03  1.479571e-01  1.102009e-01  -6.335415e-01  -3.167533e-01  -2.229520e-01  1.568040e-01  2.587435e+00  -7.398295e-01  5.638534e-01  1.507892e-01  1.987473e-02  -6.093947e-02  -3.482868e-01  -1.788865e-01  -2.500134e-01  -5.401397e-01  -3.603725e-01  -1.288379e-01  -5.813335e-01  5.959517e-01  5.287709e-01  -1.197957e-01  2.358404e-01  4.761125e-01  1.839523e+00  4.335014e-02  1.541554e+00  6.052443e-02  1.449213e-01  1.957272e-01  5.697047e-02  -7.179499e-01  -1.061505e-01  -4.126403e-01  7.263736e-01  6.775311e-01  -4.276265e-01  -2.237045e-01  6.317521e-01  -3.420582e-01  -4.609430e-01  8.664653e-02  5.948951e-01  -3.145795e-01  -2.785431e-01  5.492182e-01  1.735291e-01  -5.724283e-01  1.273095e-01  6.975700e-01  -3.544310e-01  5.846594e-03  2.005208e-01  -1.876372e-01  8.511405e-01  7.346194e-02  -3.090389e-01  5.444766e-02  -2.769250e-01  3.898548e-01  -4.400164e-01  2.670435e-01  2.221329e-01  -3.662486e-01  -6.311296e-03  1.928253e-01  -1.334750e-01  2.404260e-01  -1.014796e-01  4.444828e-01  -5.235903e-01  7.193888e-01  6.409450e-01  3.963307e-03  -3.698143e-01  -3.456509e-01  2.570038e-01  6.634750e-01  -4.645278e-01  8.376202e-02  -3.087853e-01  -3.986225e-01  -3.640869e-01  3.845525e-01  -6.724555e-01  -1.225879e-01  2.614553e-01  1.159091e-01  -7.302008e-01  -3.767214e-01  2.909183e-01  -6.039820e-01  5.293500e-01  1.463073e-01  -7.013364e-02  -2.215548e-01  5.772521e-01  -7.888847e-01  5.591133e-02  -1.864856e-01  -9.787700e-01  6.809901e-01  1.756707e-01  -3.812200e-01  1.681410e-01  2.523618e-01  -4.849010e-01  -1.169857e-01  1.429152e+00  -1.274947e+00  -7.362384e-01  -2.143000e-01  2.425465e-01  -2.037282e-04  1.070797e-01  -9.094417e-02  4.876995e-02  5.946016e-01  -5.612186e-02  1.177949e-01  1.198081e-01  1.748048e-01  6.388713e-01  -1.138764e-01  2.897408e-01  5.939116e-02  -7.040300e-01  -4.629148e-02  -2.587264e-01  -1.571468e-01  5.816802e-02  2.003321e-01  1.212734e-01  -3.021638e-01  3.970124e-01  3.303323e-02  -5.176472e-01  1.939524e-01  3.732104e-01  -7.355985e-01  -7.567074e-02  -6.460083e-01  3.641004e-01  -1.094786e+00  5.716487e-02  2.550824e-01  7.741637e-01  7.565402e-02  -8.687771e-02  -6.165008e-01  7.025139e-01  5.637938e-01  7.589400e-01  1.564031e-02  1.782198e-01  -1.058769e-01  -1.061782e-01  4.048821e-01  -1.107779e+00  -4.104300e-01  9.910654e-02  -1.607807e-01  4.775504e-01  7.246546e-01  -2.368207e-01  6.704320e-02  3.034692e-01  -4.662368e-01  -1.306451e-01  6.483346e-02  1.884681e-01  -8.777092e-02  -2.113864e-02  -3.382011e-02  1.234214e+00  4.063367e-02  1.516947e-01  -4.094263e-01  -1.064391e+00  -4.419508e-01  -7.042182e-01  4.143099e-01  -3.957396e-01  -1.521166e-01  -8.599055e-01  -7.862599e-02  1.350287e-02  3.044265e-01  1.352235e-02  -2.318446e-01  1.704161e-01  -2.941324e-01  -4.592876e-01  5.502626e-01  3.554682e-01  -5.697793e-01  -7.453294e-01  1.175049e-01  9.505269e-01  8.699542e-01  -4.170868e-02  3.195693e-01  -1.829543e-01  -1.313256e-01  3.131550e-01  2.576819e-01  -2.526291e-01  -1.038718e+00  -5.974741e-01  -2.270636e-01  -3.301691e-01  1.419648e-02  -2.875406e-01  7.027119e-01  3.007365e-01  1.770087e-01  4.761099e-01  -2.967097e-01  -1.054273e-01  7.284632e-01  6.228916e-02  -3.776141e-01  -1.478400e-01  4.264160e-03  6.358166e-01  -1.253349e-01  -1.118255e-02  3.413857e-01  2.005458e-01  8.375199e-02  -4.568414e-01  -5.454245e-01  2.421716e-01  5.626355e-02  -4.962803e-01  -1.951618e-01  9.648684e-02  5.540050e-01  -4.754781e-01  6.147479e-02  -4.193726e-01  -7.819562e-02  8.206455e-02  -4.182433e-01  1.911910e-01  1.778091e-01  1.907449e-01  -1.640985e-01  -4.579638e-01  -3.047385e-01  4.579304e-01  9.456772e-01  3.843846e-01  -7.777978e-01  5.576642e-02  -1.143546e-01  -1.674808e-01  -1.946170e-01  -1.992381e-01  4.416106e-01  6.255745e-01  -8.597672e-02  -4.312898e-02  4.577212e-01  -1.982695e-01  -3.083208e-01  1.722994e-01  -2.081776e-01  3.925275e-01  2.450690e-01  3.410928e-01  -1.036630e+00  2.089894e-01  -3.349177e-01  -5.470168e-02  3.400132e-01  1.899306e-01  -5.194329e-02  -5.373318e-01  -2.213632e-01  7.795297e-01  -7.618716e-02  3.708137e-01  -8.139408e-01  -1.618768e-01  6.250837e-02  2.819676e-01  2.049105e-01  -2.661908e-01  -5.924169e-02  3.743008e-02  2.335308e-01  3.184372e-01  -2.200527e-01  3.018391e-01  -9.742049e-02  -1.077651e+00  2.693367e-01  -6.134656e-01  4.403094e-01  4.238967e-02  2.274394e-01  5.782788e-01  -2.874012e-02  7.333430e-01  1.659364e-01  -1.436011e-01  1.674877e-01  -1.989625e-01  1.420315e-01  -4.599907e-01  5.000777e-02  -3.681625e-01  4.806863e-02  7.405542e-01  -2.940313e-01  6.745207e-01  -1.351642e-01  -4.665041e-01  1.206416e-01  -2.427201e-01  -1.445705e-01  7.476511e-01  -1.466664e-01  -1.871729e-01  -3.534189e-01  -7.734273e-02  7.993326e-02  2.408415e-01  -3.793694e-01  7.674475e-02  3.357897e-01  5.060158e-01  -1.772734e-02  6.634759e-01  -7.524395e-02  -3.678425e-01  6.236832e-01  -3.600048e-01  1.111822e-01  -3.897064e-01  5.086701e-01  4.803198e-01  8.241259e-02  5.602389e-01  6.289367e-03  -4.493023e-02  1.794002e-01  7.805008e-01  -6.982123e-01  1.474279e-01  -7.917984e-02  2.563698e-01  -3.772001e-01  5.026139e-01  -3.136521e-01  1.045437e-01  -1.714022e-01  -1.243682e+00  -1.802293e-01  4.997442e-01  3.315852e-02  1.458332e-01  2.939095e-01  8.780563e-01  -1.768291e-01  2.789428e-01  -7.085555e-02  -4.670656e-01  8.942237e-02  2.681631e-01  -3.729101e-01  2.079931e-01  -1.370714e-01  -1.592198e-01  4.152941e-01  2.655802e-01  -6.139341e-01  1.312274e-01  4.580195e-01  5.131251e-01  -1.129768e+00  -9.426565e-01  1.566681e-02  -7.229480e-01  -9.557132e-01  8.126220e-01  6.649072e-01  1.171528e-01  -1.011551e-01  2.628267e-01  8.486727e-02  -4.998826e-01  -4.418106e-01  1.354625e-01  3.673131e-01  9.530927e-02  -1.039024e+00  3.548208e-01  -2.488778e+00  3.471533e-01  -9.052724e-01  -1.135509e-01  -7.062064e-04  4.625284e-01  1.067560e-01  -1.875691e-01  3.512395e-01  1.894858e-01  -4.628744e-01  -2.320055e-01  -4.094546e-01  -2.849809e-01  5.962117e-01  4.441808e-01  -1.338486e-01  -7.556908e-01  -4.718745e-01  -2.000775e-01  -3.803134e-01  -2.361016e-01  -6.949085e-02  1.006965e-01  -3.993742e-01  -3.347483e-01  6.584603e-01  -6.012415e-01  1.011712e+00  1.412112e-02  -4.372227e-01  1.423370e+00  -1.621528e-01  5.573659e-02  -1.827878e-01  1.999305e-01  3.598385e-01  4.655728e-02  -6.692716e-02  6.795441e-01  3.183271e-01  1.159172e-01  -2.800432e-01  2.168514e-01  -3.679435e-01  4.847704e-01  2.155999e-01  3.534034e-01  1.001015e-01  -1.489376e-01  4.746019e-01  6.344611e-01  -6.222279e-02  9.052565e-01  -1.274458e-01  -2.519695e-01  8.675505e-01  5.503113e-01  -7.374185e-01  4.882234e-01  3.501039e-01  9.014967e-01  3.961927e-02  3.330298e-01  -2.372110e-01  5.541289e-01  2.763911e-03  9.199017e-02  1.426563e-01  -4.116379e-01  -7.528136e-01  2.624210e-02  4.757972e-01  -4.998417e-01  -3.478030e-01  2.980800e-01  -4.321016e-01  -2.333713e-01  4.121582e-02  -1.187833e-02  1.246639e-01  2.171706e-01  4.034328e-01  -1.641041e-01  -1.740253e-01  -2.654571e-01  -4.371611e-02  8.996013e-01  -1.906152e-02  4.413517e-02  8.251845e-01  -4.744159e-02  3.631531e-01  -4.859579e-01  -1.791245e+00  -3.199372e-01  -4.985484e-01  1.237520e-01  -6.529664e-01  -1.781044e-01  1.783801e-01  -4.542938e-02  1.168891e-01  1.678491e-01  3.327007e-01  9.833276e-02  3.072569e-01  6.543095e-01  9.526165e-04  -2.810673e-02  -1.420771e-01  5.254903e-01  -6.991693e-02  -2.514839e-01  -2.465958e-01  -1.894828e+00  4.546704e-01  8.470882e-02  5.039425e-01  6.915041e-01  -3.114884e-01  4.561844e-01  1.798817e-01  -3.380722e-01  -9.977930e-01  -1.050178e-01  1.480301e+00  -6.513281e-02  2.118212e+00  2.089823e-01  -2.205476e-02  -5.217696e-01  -3.847306e-01  9.378596e-01  3.560949e-01  1.016156e+00  1.107154e-01  -1.040405e+00  2.925851e-02  -2.677166e-01  7.095548e-02  -1.404036e-01  8.559255e-01  -5.722687e-01  3.351210e-01  -2.891454e-01  -3.846837e-01  -1.164000e-01  5.781091e-01  -3.978796e-01  1.403082e-01  2.917748e-01  2.052086e-01  -4.883792e-01  -7.669299e-01  2.564072e-02  4.691043e-02  4.495961e-01  4.482883e-01  -7.324247e-01  -6.753272e-01  -4.565897e-01  -5.101575e-03  -8.183822e-01  -5.606293e-02  -2.816575e-02  9.958059e-02  -1.603894e-01  2.683471e-01  -4.623370e-02  -1.803923e-01  7.892337e-02  1.353015e-01  -1.944855e-01  -2.938116e-01  1.824136e-01  1.600306e-01  4.525100e-03  -6.395491e-02  -1.290852e-01  -3.319315e-01  -2.183505e-01  7.392053e-02  -1.683631e-01  2.792312e-01  -7.830374e-01  5.625536e-01  7.806250e-01  -2.322003e-01  8.039944e-01  -5.981215e-02  2.488079e-02  6.804332e-01  4.242664e-01  2.222120e-01  -3.770644e-01  4.679005e-01  -3.975164e-01  -1.046590e-01  -1.130610e-01  -3.719560e-02  1.581142e-01  -1.746154e-01  4.661265e-02  -4.791479e-01  2.836508e-01  -3.444759e-01  4.387402e-01  1.296159e-01  3.416755e-01  -1.287749e+00  3.993210e-01  -5.609333e-01  -1.681338e-01  -1.700517e-01  -9.542615e-01  -3.767560e-01  -8.667464e-02  -2.947502e-02  -4.794863e-01  -4.421433e-01  1.053808e+00  -4.974674e-01  -1.630218e-01  5.862666e-01  -1.077307e-01  1.620905e-01  4.566628e-02  -2.231825e-01  2.284413e-01  -6.782740e-02  -1.465439e-01  -3.653741e-01  -3.561032e-02  -6.482205e-01  -3.294479e-02  3.225441e-01  -5.346924e-02  2.918493e-01  -2.087533e+00  -3.494850e-01  -3.594245e-01  1.290046e-01  7.903239e-01  2.919524e-01  -6.854545e-02  -2.361036e-01  8.031697e-01  2.178139e-01  7.120955e-02  -4.012054e-01  -3.366944e-02  3.321714e-02  -1.592581e-01  -6.539973e-01  5.440588e-02  -2.307800e+00  2.150098e-01  -3.869812e-01  7.265667e-01  -3.312261e-02  4.131101e-01  4.983384e-02  -5.707440e-01  3.398308e-01  1.557198e+00  -1.875208e-01  1.070795e-02  -2.329035e-01  8.701996e-02  1.669311e-02  -1.080584e+00  8.314791e-04  -3.262353e-02  -3.289436e-01  1.948493e-01  -4.364342e-01  -4.106286e-01  -7.030443e-02  -6.864893e-02  -5.869737e-02  -1.036959e-01  5.871391e-01  2.369077e-01  3.302832e-01  -2.446451e-01  -1.084219e+00  6.584029e-01  2.201487e-02  -1.585241e-01  -2.747817e-02  6.203182e-01  3.226615e-02  -2.198979e-01  -6.362607e-02  3.141831e-01  4.180081e-01  3.174003e-01  -5.923315e-01  9.796233e-02  -2.135247e-01  5.548940e-01  3.703384e-01  -7.819530e-02  -4.804378e-02  -4.081064e-01  1.756046e-01  4.789875e-01  6.706301e-02  1.790330e-01  -2.256654e-01  2.594089e-01  3.227195e-01  5.087342e-01  -7.022843e-01  2.962005e-01  1.250519e-01  1.448514e-01  6.822184e-02  -1.730188e-01  2.959257e-01  2.623435e-02  5.390570e-01  3.539996e-01  -3.363705e-01  1.151458e-01  3.210601e-02  -2.897951e-01  -3.487931e-01  4.458647e-01  1.499674e-01  2.264250e-01  5.113559e-01  -5.682851e-01  -2.086368e-01  2.521274e-01  2.364467e-02  -6.610646e-01  4.291818e-01  2.088626e-01  -6.392730e-02  1.589828e-02  -1.106304e-01  5.963190e-01  2.182013e-01  1.958945e-01  -6.333075e-01  2.679829e-01  9.600712e-02  6.057031e-01  1.512951e+00  -3.597236e-01  2.267064e-01  -4.679672e-01  1.500365e-01  2.552828e-01  -2.149509e-01  2.498945e-01  2.807235e-01  -1.765036e-01  1.897108e-01  -2.637814e-02  -3.338369e-01  -1.465326e-02  -4.723965e-02  9.612260e-02  -8.859075e-01  7.802223e-02  3.752778e-02  -7.808555e-01  -3.165344e-01  1.106511e+00  -5.569801e-04  -2.209130e-02  -3.017017e-02  -1.313233e+00  1.769484e-01  -2.426763e-01  -2.596619e-01  7.803981e-02  -1.077757e+00  3.422263e-01  4.505290e-01  2.990817e-01  -7.286528e-01  1.211207e-03  -6.559387e-01  -4.559782e-01  -4.386087e-01  8.048002e-02  -1.643908e-01  -7.979282e-01  5.025536e-01  -8.307211e-01  -6.299362e-01  6.068254e-02  -4.587670e-01  -3.952073e-01  -9.927657e-02  1.225086e+00  -1.657769e-01  -2.427032e-01  -2.853290e-01  9.780635e-03  -8.102931e-01  3.451643e-01  6.026462e-01  -1.200871e-01  -1.938560e-01  -3.173250e-01  2.238578e-01  -9.655785e-01  8.469284e-02  -4.094503e-01  -3.893879e-01  4.762230e-01  4.175289e-01  -2.405039e-01  -6.368482e-01  1.220109e+00  -1.366293e-02  9.806986e-01  -7.054760e-02  9.372168e-01  -1.991910e-01  3.714652e-02  -5.466742e-01  1.912129e-01  -3.096533e-01  3.411090e-01  1.962904e-01  -5.024440e-01  -1.754586e-01  -6.183035e-02  4.166236e-01  8.384600e-01  6.146403e-02  -3.522360e-01  -2.788922e-01  -1.211761e+00  -2.530609e-01  2.657032e-01  -1.617953e+00  -2.612390e-01  2.987567e-01  4.309134e-01  -9.362659e-01  3.856301e-01  -2.489874e-02  -1.857403e-01  -8.631543e-02  -1.137774e-01  9.899306e-01  -3.324303e-01  3.120668e-01  2.878364e-01  4.012384e-01  3.199253e-01  2.551625e-01  1.053439e-01  3.873178e-01  -1.120671e-01  3.375268e-01  3.267891e-01  -3.821308e-01  -4.906149e-01  -1.025622e+00  8.487955e-01  1.638606e-01  -3.885122e-02  3.441072e-02  -5.084248e-01  8.601284e-02  9.174362e-02  -3.052336e-01  -9.964902e-01  5.388112e-03  3.497941e-01  -5.509827e-01  1.853461e-02  -3.348857e-01  3.379669e-03  1.173756e-01  5.079519e-01  -2.861796e-01  -1.424385e-01  1.535259e-01  -3.287744e-03  2.552255e-02  -7.417624e-02  -2.259252e-01  8.514263e-02  7.090332e-02  -6.558666e-01  4.530294e-01  -6.002626e-01  6.831682e-01  -6.585773e-01  3.796196e-01  -2.379234e-01  -4.714527e-02  1.805068e-01  3.367167e-01  1.001591e+00  9.757998e-01  2.510693e-01  -1.708300e-02  -1.798498e-01  -6.323479e-01  1.611970e-01  -1.643980e-01  6.193458e-01  -1.455789e+00  -2.950026e-01  2.700507e-01  -2.580417e-01  2.056864e-01  8.026946e-02  1.823932e-01  2.017422e-01  -5.561466e-01  1.637730e+00  5.367432e-02  1.148582e+00  -2.198766e-01  4.844046e-01  2.426832e-01  -9.601771e-01  2.385617e-01  -2.344455e-02  -7.979977e-01  7.329322e-01  1.736462e-01  1.597810e-01  2.138647e-01  -1.551267e-01  6.199465e-02  2.320526e-01  -4.123649e-02  2.022013e-01  1.015162e-01  5.784716e-02  -4.515922e-02  4.607134e-01  3.252178e-01  1.096390e+00  1.220272e-01  -1.107044e-01  1.649275e-01  -7.181183e-01  -9.576551e-03  -6.420123e-01  1.860010e-02  3.482514e-01  -1.505620e-01  2.141249e-01  2.482294e-01  3.165656e-02  1.198008e-01  -1.603340e-01  -6.733873e-01  -3.879999e-01  2.486524e-02  2.812502e-01  -1.254697e-01  -1.291895e-01  -4.740767e-02  1.585721e+00  -1.397072e-01  1.106484e+00  4.620709e-01  -5.230277e-01  5.484301e-03  4.137393e-01  6.473903e-01  3.649212e-01  1.659335e-01  2.367958e-01  2.897328e-01  -3.916928e-01  6.781190e-01  -7.127263e-03  -6.124189e-02  -1.162516e-01  1.056390e-01  -1.260038e-01  -4.424065e-01  1.591023e-01  -7.839305e-01  6.625554e-01  2.924622e-01  2.974289e-01  4.838769e-01  4.521511e-01  9.499905e-01  -7.121039e-02  -4.329247e-01  -3.107954e-01  2.846169e-01  -9.869580e-01  -2.721302e-01  3.781476e-01  5.727698e-01  -6.121926e-01  2.452940e-01  4.997612e-01  -5.098504e-01  1.530236e-01  -3.489330e-01  1.891167e-01  1.288816e-01  -5.686602e-01  -4.940835e-03  8.241888e-02  -3.855695e-01  1.594536e-01  -9.720663e-02  -5.210128e-02  2.610493e-01  7.131060e-01  -3.866222e-01  -1.606213e-01  3.059554e-01  1.347415e-01  1.620760e-01  7.101763e-01  -5.217472e-01  -1.317980e+00  -2.664148e-01  -2.077031e-02  3.540774e-01  1.197207e+00  4.258114e-01  6.023175e-01  2.282605e-01  -3.529932e-01  1.394363e+00  -3.323431e-01  6.416751e-01  3.776215e-01  -8.558683e-01  -4.698865e-01  1.836706e-01  1.816430e+00  -4.214453e-01  -5.117058e-03  5.484927e-01  -4.073764e-01  -3.899680e-01  4.655001e-01  1.298519e-01  4.822416e-01  5.493535e-01  2.196480e-01  4.571902e-01  3.497215e-02  -4.296212e-01  -4.796160e-01  3.005179e-01  1.063234e-01  3.489799e-01  4.744445e-01  -5.763052e-02  -2.011298e-01  5.092310e-01  -1.705310e-01  -1.128837e-01  -4.284704e-01  -2.187537e-02  -4.763905e-02  -1.242252e+00  2.318413e-01  3.197661e-01  -1.506426e-01  -6.312973e-01  8.898775e-02  1.283007e-01  -1.125599e+00  1.152819e-02  2.192297e-01  -3.932602e-01  -1.215215e-01  4.631447e-01  1.593230e-01  2.960831e-01  4.059073e-02  3.953500e-02  -2.730458e-01  2.481621e-01  4.961814e-02  -5.800896e-01  -2.190329e-01  -4.825812e-01  1.589573e+00  1.034240e-01  8.793467e-01  -1.115094e-01  6.067718e-01  1.036168e+00  2.205877e-01  -2.124121e-01  -4.348032e-01  5.472068e-01  2.894461e-02  6.181213e-01  -5.050709e-02  -2.010723e-01  -1.084301e-01  2.677769e-01  3.500842e-01  -1.988292e-01  1.581939e-01  -2.718609e-01  -8.737874e-02  -1.042487e-01  -8.168791e-01  -1.287269e-01  5.012846e-01  5.393789e-01  -5.226899e-01  3.199282e-01  1.214142e-01  -2.179144e-02  1.516778e-01  5.504719e-02  -5.602628e-01  5.975314e-01  -6.446516e-01  3.289665e-01  -4.381360e-02  -3.865218e-01  2.629522e-01  -8.272957e-02  4.058716e-01  -1.507184e-01  1.493761e-01  -1.299760e-01  3.600588e-01  2.654334e-01  -1.949322e-01  3.457672e-01  -3.736837e-01  -4.426344e-01  3.296954e-01  -3.809462e-01  -2.472497e-01  -3.492816e-01  -2.226876e-01  -4.251476e-01  -1.065294e-01  3.421173e-01  7.187386e-01  3.267625e-01  -7.299887e-02  -6.558689e-02  2.920098e-01  -1.238840e-01  -8.148408e-01  3.627564e-01  1.788575e-01  6.701875e-02  -4.630844e-02  4.518625e-01  -4.230154e-01  7.539441e-02  -3.178899e-01  -2.114777e-02  5.721083e-02  -2.152931e-01  -6.358862e-01  3.555757e-01  -5.255784e-02  -2.337629e-01  1.624968e-01  1.083926e-01  2.336538e-01  3.475328e-01  -4.808384e-01  8.713816e-03  -9.438486e-02  5.688738e-01  4.910697e-01  -4.164618e-02  -4.301197e-01  -3.134730e-01  -7.403618e-01  4.209492e-01  -4.421800e-01  -3.598650e-01  2.393148e-02  4.676139e-02  -1.137661e-01  2.628508e-01  2.797584e-01  -1.788278e-02  4.305844e-02  -6.597623e-01  4.516480e-02  1.933073e-01  6.419679e-01  1.138514e-01  7.511756e-02  3.047488e-01  1.931428e-01  -3.990175e-01  -4.209871e-01  4.385690e-01  2.853161e-01  -3.403610e-01  -3.071075e-01  -1.109734e-01  -2.871743e-01  6.971525e-01  -3.730256e-01  -3.202764e-02  1.757664e-01  -1.750409e-02  3.325042e-01  3.313960e-01  1.360324e-01  4.291033e-01  2.945545e-01  4.806787e-01  1.773291e-01  3.318081e-01  8.509868e-01  2.301185e-01  1.037274e-01  -6.759212e-01  -5.966418e-02  3.041844e-02  -3.935567e-01  -3.973508e-01  -4.256745e-02  -2.000206e-01  3.615891e-01  -8.471655e-01  -9.497266e-02  4.510136e-02  3.424270e-01  2.390256e-01  -1.102157e-02  -4.562416e-01  3.302227e-01  -5.639063e-02  -5.171377e-01  -2.662468e-01  6.659891e-02  -1.829103e-01  4.020545e-02  8.934586e-01  -7.746043e-02  4.156879e-01  -2.911990e-02  -5.453903e-02  3.225010e-01  1.423917e-02  4.775831e-01  5.790014e-01  2.215616e-01  7.463222e-02  -1.630341e+00  -7.412984e-02  -1.038583e+00  -4.339764e-02  1.259592e-02  -2.337831e-01  1.465168e-01  3.151129e-01  3.024349e-01  -2.346320e-01  5.158250e-01  -2.671324e-01  -1.353681e+00  7.302114e-02  8.689444e-01  -1.419140e-01  -3.904977e-02  -3.680405e-01  8.322456e-01  -5.912207e-01  2.897391e-01  9.289411e-01  -1.875441e-01  3.408263e-01  3.583128e-01  -1.132423e-01  5.459192e-01  3.421129e-01  -1.923327e-01  -8.015719e-02  4.125263e-02  -1.751984e-01  5.079146e-02  1.240612e+00  3.725988e-02  1.847444e+00  3.844021e-01  1.260462e-01  -3.081265e-01  -4.880602e-01  9.301852e-01  3.349315e-01  -1.606557e-01  -9.947748e-01  5.863089e-01  -2.981827e-01  5.720522e-01  -1.765238e-01  -2.145885e-01  9.081359e-01  5.326061e-01  1.062308e+00  -3.261370e-01  1.258967e-01  -1.134224e+00  -3.155576e-01  -4.736720e-01  -2.036759e-01  1.772949e-01  -7.126253e-03  -7.748481e-01  -5.075526e-01  7.490370e-02  3.225857e-01  1.984926e-01  2.026370e-01  -8.023203e-01  -4.168419e-01  7.842724e-01  -1.295973e-01  -3.192350e-01  -2.564072e-01  -2.107567e-01  1.065635e-01  -8.558192e-01  1.223524e-01  -3.812692e-01  1.082714e+00  1.338760e-01  -1.611426e-01  3.120459e-01  -4.082439e-01  3.001101e-01  1.017413e+00  -4.140880e-02  -2.943666e-01  -1.266490e-01  -1.469555e-01  -8.380057e-02  -1.797975e-01  1.058139e-01  -3.745395e-01  4.592340e-03  4.059125e-01  1.095300e+00  1.793180e-01  2.012338e-01  -3.111332e-01  -1.867635e-01  2.291889e-01  1.834983e-01  2.555514e-01  6.370069e-01  7.545841e-02  6.496039e-02  -4.464049e-01  -4.611405e-01  -1.614288e-01  -6.988047e-01  2.764143e-01  2.698076e-02  1.500887e-01  -7.095078e-01  5.329600e-02  2.129357e-01  -4.500810e-01  3.698090e-01  -7.569976e-01  -2.639547e-01  4.056403e-01  3.910393e-01  -2.638938e-01  1.044408e+00  5.417936e-01  4.832066e-01  -6.026806e-01  1.232515e-01  2.885902e-01  3.681349e-01  -1.380183e+00  4.428235e-01  1.176097e-01  -2.449261e-03  5.472163e-01  -4.513133e-01  -1.441155e-01  -2.213251e-01  8.379818e-02  -1.023826e+00  4.728505e-01  1.977602e-01  2.614902e-01  -9.393749e-01  3.494417e-01  1.411566e-01  1.139408e+00  -4.508287e-01  -1.488403e-01  6.002688e-02  8.131094e-01  8.729205e-01  -5.799854e-01  -1.511968e-01  4.502721e-01  1.014756e-01  -1.384364e-01  1.417348e-01  -9.353027e-02  -5.206108e-02  -6.643664e-01  -6.957639e-03  1.508972e-01  -8.174182e-01  -5.774634e-01  -3.411123e-01  2.807374e-01  -2.259430e-01  7.753017e-02  -3.977055e-01  -4.217882e-01  8.792003e-01  -3.180427e-01  -5.381708e-01  -7.967815e-03  -3.336756e-01  2.117161e-01  2.490263e-01  -7.996868e-01  -1.021008e+00  4.930084e-01  5.319539e-01  -6.157587e-02  4.206510e-02  6.695325e-01  -3.640513e-01  5.852905e-02  -6.269643e-01  4.197326e-03  7.657099e-01  -9.831477e-02  6.600242e-01  -3.173592e-01  -4.493201e-02  -2.794934e-01  -6.176580e-01  4.538069e-01  -4.195253e-01  7.875519e-01  -2.553740e-01  3.507406e-02  -4.081345e-01  4.244044e-02  -2.260195e-01  -9.160247e-02  8.146304e-01  1.097858e-01  2.513375e-01  2.089291e-01  -3.497634e-01  8.877723e-01  -2.187116e-02  -4.652820e-01  4.534060e-01  -3.977513e-01  -5.859531e-01  7.661569e-01  -6.367688e-01  2.960532e-01  1.066126e+00  -2.499203e-01  1.216611e-01  2.293745e-01  -5.481664e-01  -2.655244e-01  -7.549047e-02  1.096243e+00  -5.857651e-02  -1.118884e+00  -1.130854e-01  -2.676706e-01  -3.084522e-01  1.849262e-01  6.064444e-01  -3.106568e-03  5.186757e-01  -7.415457e-01  6.188658e-01  -1.465898e-01  2.628824e-01  -1.437326e-01  2.894906e-01  -2.291765e-01  2.354045e-01  2.903835e-01  -2.102140e-01  1.273808e+00  5.373274e-01  2.202898e-01  -4.998091e-01  5.763572e-01  3.311933e-01  -1.630119e-01  2.130111e-01  2.535523e-01  -1.137288e-01  -3.760520e-01  -1.104017e+00  1.004717e+00  -3.337704e-01  3.803729e-01  3.863340e-01  6.240055e-01  1.948989e-01  -9.001189e-02  -1.970365e-01  -2.276287e-02  4.704643e-01  -5.039586e-01  -1.579408e-01  8.050562e-01  6.816882e-01  -1.429901e-01  7.326591e-01  -1.002700e+00  7.776853e-01  2.268760e-01  2.279085e-01  -1.019995e-01  -8.398386e-01  2.631858e-01  7.411918e-01  -4.404144e-01  1.384966e-01  2.719380e-01  4.136651e-01  2.297093e-01  -1.059077e-01  1.338071e+00  1.660747e-01  6.161385e-01  -1.906301e-01  1.327251e+00  2.660027e-01  -4.791652e-01  3.051277e-02  4.570463e-01  7.176090e-01  2.609575e-01  -1.315340e+00  6.253262e-01  -1.102578e-01  6.302565e-01  -7.919558e-02  1.237424e-01  2.789837e-01  5.383531e-01  -1.130508e-01  -3.023080e-01  3.635147e-02  2.653272e-01  1.084832e-01  -9.424803e-01  1.638580e-01  -3.487335e-01  -9.239207e-01  7.147777e-02  -1.580474e-01  1.821955e-01  -4.058877e-01  1.735853e-01  1.928266e-01  1.775089e-03  3.323555e-01  5.153346e-01  1.189949e-01  -3.333963e-01  4.751478e-02  2.611289e-01  1.811786e-01  2.327148e-01  4.265726e-01  -4.671519e-01  5.424302e-01  2.933767e-01  -8.422693e-03  1.287458e-01  1.809980e-01  -1.406676e-01  6.105538e-02  1.087321e-01  -1.820943e-01  3.516616e-01  7.692602e-03  -9.630024e-02  -1.237021e-01  -1.515243e-01  -2.935759e-01  -1.334743e-03  2.600412e-02  4.050979e-02  -5.982460e-02  -1.302190e-01  4.865585e-01  -1.843136e+00  -3.009628e-01  1.128422e+00  6.563196e-01  -2.852615e-01  -7.188413e-01  -6.343419e-02  8.663334e-01  -2.976650e-01  2.560537e-02  -4.193021e-01  8.680835e-02  8.408193e-01  7.871660e-02  4.134206e-01  4.292355e-01  1.012447e-01  -9.207816e-03  -7.427092e-01  4.584254e-01  -6.779882e-01  -3.525833e-01  1.891185e-01  2.553813e-01  -1.927486e-01  -5.828660e-02  -3.134713e-01  2.652524e-01  -1.853051e-01  1.284565e-02  -3.171464e-01  5.503218e-01  6.581885e-01  3.233346e-01  -1.380778e-01  1.708146e-01  5.174445e-01  2.986302e-02  1.321770e-01  -3.450128e-03  1.129500e-02  -6.956747e-01  4.241597e-01  -1.913794e-01  -1.100362e+00  -7.454578e-01  1.672487e-01  5.333332e-01  -1.345203e-02  -4.633255e-01  -1.327507e-01  -1.311162e-01  1.813065e-02  5.302996e-01  3.619373e-01  5.130658e-01  -1.007670e-01  -3.797220e-01  -5.002213e-01  -1.677273e-01  -5.319159e-02  -4.842342e-01  -3.623065e-01  7.537066e-02  1.374112e-01  5.991321e-01  -1.077404e+00  9.053591e-02  -1.383041e+00  -5.270920e-01  1.877182e-01  -1.590174e-01  -1.445117e-01  -5.023484e-01  6.567047e-02  -8.149152e-01  -5.676955e-01  -3.360215e-01  1.269784e-01  2.910579e-01  -6.737695e-01  2.943391e-01  2.801569e-01  -7.297491e-01  -3.119271e-01  7.630265e-02  -8.025169e-01  6.155156e-01  6.276108e-01  -7.004837e-01  1.554334e-01  7.631284e-02  4.111194e-01  -3.513400e-01  1.245130e-01  4.869674e-01  1.836684e-01  7.702652e-01  3.712991e-01  3.784966e-01  -4.463128e-01  5.262538e-01  -6.071431e-01  2.173649e-02  -7.939880e-02  4.997554e-01  -5.374135e-01  -2.673234e-01  -3.400548e-01  -4.773321e-01  -2.015766e-01  -4.629784e-02  9.871778e-01  -2.818871e-01  -4.493186e-01  -7.347628e-01  -1.443600e-01  6.512864e-01  3.375010e-01  -1.462215e-01  1.560477e-01  -7.405668e-01  -2.397454e-01  5.106730e-01  -3.126643e-01  -3.251866e-01  -2.031984e-01  1.144102e+00  -2.245828e-01  -6.992744e-02  2.006768e-02  6.689847e-01  -9.836964e-02  -4.675101e-01  1.340421e-01  7.607054e-02  2.071233e-01  7.380940e-01  3.183936e-01  -2.911897e-01  -8.779296e-02  -4.306635e-01  3.386582e-02  2.124476e-01  2.415513e-01  -3.895754e-01  6.585188e-01  -6.984576e-01  8.358616e-02  4.628869e-01  -7.791523e-01  -1.725610e-01  2.475593e-01  -4.568707e-01  -1.085563e-01  2.236602e-01  -2.358039e-01  4.422816e-01  -1.250569e-01  1.013002e+00  -1.775058e+00  3.562441e-01  -2.893595e-01  8.055977e-01  -2.498620e-02  -4.672361e-01  4.133455e-01  -2.408330e-01  -1.367047e-01  2.364049e-01  -3.729178e-01  -1.706415e-01  -7.030939e-01  3.218744e-01  -1.672227e-01  3.148133e-01  -8.515309e-02  -1.944905e-01  8.468458e-02  -1.796705e-01  -5.000880e-01  -3.457608e-01  5.647459e-02  -5.855147e-01  3.656350e-01  1.258012e+00  -3.135518e-01  1.026945e-01  3.166253e-01  3.013206e-02  -1.217589e-01  8.742482e-03  1.232177e-01  2.065971e-01  5.937062e-02  -2.078635e-01  -2.075109e-01  -1.104969e-01  -1.609855e-01  9.800926e-01  -2.410483e-01  1.528856e+00  1.906209e-01  8.083677e-01  -6.963940e-01  6.639727e-01  3.612766e-01  -3.195161e-02  5.986965e-02  -1.356983e-01  -7.581995e-01  1.584275e-01  7.830468e-01  -6.213599e-02  1.046029e+00  -1.726888e-01  -2.097781e-01  3.304600e-01  -9.623098e-02  -3.701835e-01  -3.211545e-01  3.680403e-01  -4.310491e-01  -2.274619e-01  8.543879e-01  1.696872e-01  -1.805422e-01  -2.968089e-02  -3.227149e-02  -1.692157e+00  -4.228359e-01  6.362966e-01  2.957388e-01  3.961470e-02  5.794687e-01  -8.004952e-01  -6.345066e-02  -1.077022e-01  3.938881e-02  -2.795734e-01  -2.173401e-01  4.169835e-01  9.635945e-02  2.860250e-01  1.200002e+00  8.569978e-02  -2.577725e-01  -2.730694e-01  3.382007e-01  3.129737e-02  9.042431e-01  1.179720e-01  -3.361371e-01  3.114083e-01  -1.002054e-01  8.482999e-01  5.518870e-01  -5.085340e-01  1.146124e-02  -2.698640e-01  -2.524958e-01  9.927354e-01  -7.270333e-01  2.578112e-01  -9.373554e-02  -1.414579e-01  -1.518503e-01  -1.086573e-01  5.783990e-02  -2.934970e-01  -3.018042e-01  -3.924063e-01  -1.279677e-01  1.557043e-01  1.267381e-01  4.800240e-01  4.885668e-01  5.609738e-02  1.414572e-02  -2.406412e-01  -1.024480e-01  5.281390e-01  -2.309098e-01  -3.033495e-01  -2.303258e-01  2.772553e-01  -3.237537e-02  -8.827802e-01  7.340770e-01  -1.882471e-01  2.865444e-01  -1.002329e-01  2.617806e-01  -7.233475e-01  2.310347e-01  -1.939885e-02  -5.410601e-01  4.876236e-02  -1.321465e-01  2.217939e-01  -5.803707e-01  -3.654908e-01  2.146293e-01  -1.682381e-01  -3.161390e-01  1.759539e+00  9.183571e-02  -4.016849e-01  3.905747e-01  4.492869e-01  -3.236783e-01  1.557998e-01  4.252296e-02  -1.519902e+00  3.268821e-01  -1.791986e-01  -2.638370e-02  -1.740848e-01  -3.789397e-01  2.944241e-01  1.246094e+00  -1.899581e-01  1.507211e+00  1.599298e-01  -1.177586e-01  -1.389392e+00  -1.512101e-01  -7.371403e-02  3.344268e-01  -4.775209e-01  -4.948521e-01  -1.545215e+00  4.880468e-02  -1.355103e+00  8.567327e-02  3.130829e-03  -4.153804e-01  9.243857e-01  -6.272571e-02  4.940155e-02  4.718079e-01  -4.972817e-01  -1.072625e+00  3.291196e-01  -2.578798e-01  -5.284593e-01  3.993385e-01  2.516580e-01  -3.723775e-01  -5.350523e-01  2.022732e-01  2.670545e-01  -7.879280e-02  1.305190e-01  -8.004256e-02  2.171575e-01  2.856871e-01  7.302705e-01  -1.179722e-01  8.549485e-01  -8.869985e-02  1.881026e-02  -4.987655e-01  3.971045e-01  8.959541e-01  2.878577e-02  -2.690852e-01  -2.220221e-01  8.127501e-03  -1.039416e-01  -1.539761e-01  1.788287e-01  -7.141037e-02  -4.345206e-01  8.619986e-02  -1.497584e-01  5.334216e-02  -8.187842e-01  -3.561158e-01  -4.849756e-02  -2.418128e-01  1.415346e-01  -6.572884e-03  -5.818691e-01  -7.602760e-01  -2.365755e-01  5.719624e-01  -1.271662e-01  6.060126e-02  8.362962e-02  -7.354199e-01  8.184268e-01  4.154323e-01  2.811005e-02  -3.760173e-01  2.197448e-02  -4.658223e-02  -5.117598e-02  1.590854e-01  6.742796e-01  -6.900673e-02  -1.943787e-01  8.652957e-02  -1.736602e-01  5.920256e-01  -3.660736e-02  -4.321764e-01  1.285925e-01  -2.461249e-01  -3.035003e-01  1.170425e-01  -5.457578e-02  6.519663e-02  9.428727e-01  -6.033577e-02  5.453611e-01  9.063546e-02  3.508373e-01  8.882824e-02  -5.009655e-01  2.597254e-01  1.880066e-01  2.828337e-02  9.662614e-02  4.907639e-02  -8.342806e-02  -1.704641e-01  3.637394e-01  3.577564e-01  -2.264916e-01  3.571131e-01  -3.279123e-01  1.500950e-01  8.616962e-02  -3.889885e-01  2.083996e-01  -1.009232e+00  1.228145e+00  -1.299230e-01  -2.782246e-01  -2.681295e-01  4.141232e-01  -6.430411e-01  -8.644174e-01  -2.247621e-01  -9.052362e-02  -4.459386e-01  -6.502073e-02  -1.300349e+00  -2.767688e-01  -9.359969e-01  2.482015e-01  4.183294e-02  -5.187289e-01  -4.229988e-01  -2.281197e-01  9.491953e-02  3.400171e-01  7.054184e-01  -6.725305e-02  -3.337116e-03  -2.495461e-01  6.245184e-02  -7.311628e-02  -2.081561e-02  9.922127e-01  -1.001949e+00  -1.335126e-01  4.258709e-01  -1.051204e+00  -1.649753e-01  -1.516518e-01  6.015731e-02  5.362709e-01  -1.460098e-03  6.396099e-01  5.175867e-01  8.686218e-02  3.643916e-02  4.490428e-02  1.201286e+00  2.257750e-01  -1.934514e-01  -1.011226e-01  -5.550389e-02  2.163127e-01  -1.296082e-02  8.535128e-01  1.627749e-02  1.950593e+00  -1.601566e-01  -6.533831e-01  -3.794717e-01  6.220867e-02  -1.801858e-01  -1.196720e-01  5.884089e-02  2.037886e-01  6.571485e-01  3.299961e-01  2.069976e-01  1.934882e-01  1.918273e-01  -5.209172e-01  -1.751419e-01  -1.843700e+00  7.893012e-01  -3.157626e-01  -7.777486e-01  -1.630446e-03  1.516601e-01  -8.537346e-01  2.222938e-01  1.529670e-01  -3.147961e-02  6.661705e-02  -1.485861e-01  3.664759e-01  -7.365087e-01  7.130305e-01  -2.831749e-01  1.986840e-01  -6.938094e-01  -3.197826e-01  -2.799907e-01  -2.348081e-01  -2.491495e-02  -1.822825e-01  8.980028e-02  1.245763e-01  2.010060e-01  -3.223155e-01  7.368183e-01  -2.800973e-02  -2.795292e-01  -3.509109e-01  1.108228e-01  -1.018836e+00  2.892215e-02  -2.675988e-01  4.007654e-01  6.373578e-01  2.019229e-01  -8.009008e-01  1.756878e+00  -1.422536e-02  -1.695373e-01  5.149865e-01  2.272674e-01  -1.001716e-01  5.226917e-01  -1.314742e-01  -7.331467e-02  3.638884e-01  3.854375e-01  -1.436637e-01  7.408138e-02  -9.939278e-02  -2.338622e-01  -1.304485e-02  1.394364e-01  -3.271144e-02  -7.838727e-02  -2.783212e-01  -2.338673e-03  3.514347e-02  1.122201e-01  2.412690e-01  5.691773e-01  -6.849642e-01  6.104300e-01  1.393899e-01  1.828112e-01  8.656644e-02  4.430422e-01  -1.714470e-01  -1.051255e-01  4.255150e-01  1.567375e+00  -7.895572e-02  -2.527568e-01  -3.881063e-01  -3.236101e-01  2.169185e-01  4.933791e-01  -1.252580e+00  -4.840119e-01  -1.489422e+00  1.836767e-01  -2.731967e-01  7.878725e-02  1.040199e-01  -2.006641e-01  6.887446e-01  5.556342e-01  1.270495e-01  6.544119e-01  -1.079275e+00  -1.016948e+00  -1.891526e-01  -8.082691e-02  -1.198946e-01  3.276031e-01  1.412434e-01  -5.548764e-02  -2.936022e-01  6.039052e-03  1.446706e-01  -5.111396e-01  -7.128888e-02  5.759777e-02  5.476704e-02  -4.192273e-01  8.751910e-01  -4.369096e-01  4.100853e-01  4.663604e-02  4.543885e-01  -3.426583e-01  3.614832e-01  -4.195719e-01  -3.836004e-01  3.390739e-01  -5.096303e-01  7.594578e-03  -3.205823e-01  6.423473e-01  -4.187476e-02  -9.306351e-02  2.569828e-02  -3.812974e-01  1.638164e-01  -4.462979e-02  -7.922522e-01  2.557082e-01  -4.461606e-01  -5.102167e-01  6.123784e-01  -2.009994e-01  -3.555696e-02  -6.923754e-01  -2.250841e-01  6.993771e-01  4.332434e-01  1.065354e-01  3.049902e-01  -2.843550e-01  -8.913301e-02  -2.017757e-01  -1.274369e-01  -1.903134e-01  2.616960e-01  5.513804e-02  -1.472557e-02  -5.191935e-03  8.811075e-01  7.401146e-03  -1.736334e-01  -4.203475e-01  -2.944693e-01  1.059904e-01  -6.750244e-01  -4.694754e-01  3.508192e-01  -3.376230e-01  1.200882e-02  -3.638765e-02  2.508483e-01  5.410247e-02  2.163969e-01  2.557390e-01  3.871068e-01  1.369313e+00  4.870216e-01  5.013589e-02  -1.794437e-01  9.202245e-01  2.041895e-01  -5.516483e-01  -1.145964e-01  -2.824037e-02  -2.807405e-01  1.265781e+00  1.347542e-01  -1.298004e+00  -1.035948e+00  -2.601893e-01  -6.237648e-01  -6.104749e-01  8.748202e-01  -1.505690e-01  -4.313455e-01  -2.678399e-02  9.294702e-01  1.915861e-01  -2.492356e-01  -2.190658e-01  -1.804985e-01  -4.963276e-01  -9.875744e-02  -7.588533e-01  -5.582927e-02  -4.799692e-01  4.585690e-01  -1.200563e-01  3.889987e-01  -5.246185e-01  -1.802075e-01  -1.571731e+00  -6.338940e-01  4.334329e-01  4.661836e-01  2.502442e-01  -7.621048e-01  1.028176e-01  -3.535550e-01  1.064633e-01  -3.211287e-01  -2.447150e-01  -2.104100e-01  -8.892993e-01  9.473228e-01  -3.364172e-01  -8.368349e-03  -2.879276e-02  -2.916648e-01  -7.703155e-01  3.090519e-01  -4.776200e-02  -3.660170e-01  5.307226e-01  4.828023e-02  5.847269e-01  -3.172064e-01  5.244549e-01  5.340174e-01  2.031076e-01  1.109186e-01  -1.492250e-01  