<?xml version="1.0"?>
<MethodSetup Method="BDT::BDTG">
  <GeneralInfo>
    <Info name="TMVA Release" value="4.2.1 [262657]"/>
    <Info name="ROOT Release" value="6.24/06 [399366]"/>
    <Info name="Creator" value="pvaucell"/>
    <Info name="Date" value="Wed Nov 30 14:59:14 2022"/>
    <Info name="Host" value="Linux sbgat310.in2p3.fr 3.10.0-1160.36.2.el7.x86_64 #1 SMP Wed Jul 21 11:57:15 UTC 2021 x86_64 x86_64 x86_64 GNU/Linux"/>
    <Info name="Dir" value="/opt/sbg/cms/ui2_data1/pvaucell/LLTopAna/MVA/AnalysisCode"/>
    <Info name="Training events" value="109239"/>
    <Info name="TrainingTime" value="1.09088541e+02"/>
    <Info name="AnalysisType" value="Classification"/>
  </GeneralInfo>
  <Options>
    <Option name="V" modified="Yes">False</Option>
    <Option name="VerbosityLevel" modified="No">Default</Option>
    <Option name="VarTransform" modified="No">None</Option>
    <Option name="H" modified="Yes">False</Option>
    <Option name="CreateMVAPdfs" modified="No">False</Option>
    <Option name="IgnoreNegWeightsInTraining" modified="No">False</Option>
    <Option name="NTrees" modified="Yes">1000</Option>
    <Option name="MaxDepth" modified="Yes">4</Option>
    <Option name="MinNodeSize" modified="Yes">2.5%</Option>
    <Option name="nCuts" modified="Yes">20</Option>
    <Option name="BoostType" modified="Yes">Grad</Option>
    <Option name="AdaBoostR2Loss" modified="No">quadratic</Option>
    <Option name="UseBaggedBoost" modified="Yes">True</Option>
    <Option name="Shrinkage" modified="Yes">1.000000e-01</Option>
    <Option name="AdaBoostBeta" modified="No">5.000000e-01</Option>
    <Option name="UseRandomisedTrees" modified="Yes">False</Option>
    <Option name="UseNvars" modified="No">3</Option>
    <Option name="UsePoissonNvars" modified="No">True</Option>
    <Option name="BaggedSampleFraction" modified="No">6.000000e-01</Option>
    <Option name="UseYesNoLeaf" modified="Yes">False</Option>
    <Option name="NegWeightTreatment" modified="No">pray</Option>
    <Option name="Css" modified="No">1.000000e+00</Option>
    <Option name="Cts_sb" modified="No">1.000000e+00</Option>
    <Option name="Ctb_ss" modified="No">1.000000e+00</Option>
    <Option name="Cbb" modified="No">1.000000e+00</Option>
    <Option name="NodePurityLimit" modified="No">5.000000e-01</Option>
    <Option name="SeparationType" modified="Yes">giniindex</Option>
    <Option name="RegressionLossFunctionBDTG" modified="No">huber</Option>
    <Option name="HuberQuantile" modified="No">7.000000e-01</Option>
    <Option name="DoBoostMonitor" modified="Yes">True</Option>
    <Option name="UseFisherCuts" modified="No">False</Option>
    <Option name="MinLinCorrForFisher" modified="No">8.000000e-01</Option>
    <Option name="UseExclusiveVars" modified="No">False</Option>
    <Option name="DoPreselection" modified="No">False</Option>
    <Option name="SigToBkgFraction" modified="No">1.000000e+00</Option>
    <Option name="PruneMethod" modified="No">nopruning</Option>
    <Option name="PruneStrength" modified="No">0.000000e+00</Option>
    <Option name="PruningValFraction" modified="No">5.000000e-01</Option>
    <Option name="SkipNormalization" modified="No">False</Option>
    <Option name="nEventsMin" modified="No">0</Option>
    <Option name="UseBaggedGrad" modified="No">False</Option>
    <Option name="GradBaggingFraction" modified="Yes">6.000000e-01</Option>
    <Option name="UseNTrainEvents" modified="No">0</Option>
    <Option name="NNodesMax" modified="No">0</Option>
  </Options>
  <Variables NVar="7">
    <Variable VarIndex="0" Expression="mva_track_pt" Label="mva_track_pt" Title="mva_track_pt" Unit="" Internal="mva_track_pt" Type="F" Min="1.00000000e+00" Max="1.60500000e+03"/>
    <Variable VarIndex="1" Expression="mva_track_eta" Label="mva_track_eta" Title="mva_track_eta" Unit="" Internal="mva_track_eta" Type="F" Min="-2.94845414e+00" Max="2.93380547e+00"/>
    <Variable VarIndex="2" Expression="mva_track_nchi2" Label="mva_track_nchi2" Title="mva_track_nchi2" Unit="" Internal="mva_track_nchi2" Type="F" Min="0.00000000e+00" Max="5.00000000e+00"/>
    <Variable VarIndex="3" Expression="mva_track_nhits" Label="mva_track_nhits" Title="mva_track_nhits" Unit="" Internal="mva_track_nhits" Type="F" Min="3.00000000e+00" Max="3.10000000e+01"/>
    <Variable VarIndex="4" Expression="mva_ntrk10" Label="mva_ntrk10" Title="mva_ntrk10" Unit="" Internal="mva_ntrk10" Type="F" Min="0.00000000e+00" Max="1.35000000e+02"/>
    <Variable VarIndex="5" Expression="mva_drSig" Label="mva_drSig" Title="mva_drSig" Unit="" Internal="mva_drSig" Type="F" Min="5.00000668e+00" Max="2.19535156e+04"/>
    <Variable VarIndex="6" Expression="mva_track_isinjet" Label="mva_track_isinjet" Title="mva_track_isinjet" Unit="" Internal="mva_track_isinjet" Type="F" Min="0.00000000e+00" Max="1.00000000e+00"/>
  </Variables>
  <Spectators NSpec="0"/>
  <Classes NClass="2">
    <Class Name="Signal" Index="0"/>
    <Class Name="Background" Index="1"/>
  </Classes>
  <Transformations NTransformations="0"/>
  <MVAPdfs/>
  <Weights NTrees="1000" AnalysisType="1">
    <BinaryTree type="DecisionTree" boostWeight="1.0000000000000000e+00" itree="0">
      <Node pos="s" depth="0" NCoef="0" IVar="6" Cut="4.7619048506021500e-02" cType="1" res="2.2394335828721523e-03" rms="4.9999499320983887e-01" purity="5.0223940610885620e-01" nType="0">
        <Node pos="l" depth="1" NCoef="0" IVar="4" Cut="6.4285712242126465e+00" cType="1" res="-2.9047790169715881e-01" rms="4.0696755051612854e-01" purity="2.0952211320400238e-01" nType="0">
          <Node pos="l" depth="2" NCoef="0" IVar="4" Cut="3.1428570747375488e+00" cType="1" res="-3.6694049835205078e-01" rms="3.3963903784751892e-01" purity="1.3305950164794922e-01" nType="0">
            <Node pos="l" depth="3" NCoef="0" IVar="1" Cut="1.4929480552673340e+00" cType="1" res="-3.8564851880073547e-01" rms="3.1823769211769104e-01" purity="1.1435149610042572e-01" nType="0">
              <Node pos="l" depth="4" NCoef="0" IVar="-1" Cut="0.0000000000000000e+00" cType="1" res="-7.4377402663230896e-02" rms="3.3421555161476135e-01" purity="1.2811297178268433e-01" nType="-99"/>
              <Node pos="r" depth="4" NCoef="0" IVar="-1" Cut="0.0000000000000000e+00" cType="1" res="-8.6553953588008881e-02" rms="2.5042030215263367e-01" purity="6.7230224609375000e-02" nType="-99"/>
            </Node>
            <Node pos="r" depth="3" NCoef="0" IVar="-1" Cut="0.0000000000000000e+00" cType="1" res="-3.5547185689210892e-02" rms="4.6734347939491272e-01" purity="3.2226404547691345e-01" nType="-99"/>
          </Node>
          <Node pos="r" depth="2" NCoef="0" IVar="2" Cut="2.3809523880481720e-01" cType="1" res="9.1054230928421021e-02" rms="4.9163922667503357e-01" purity="5.9105420112609863e-01" nType="0">
            <Node pos="l" depth="3" NCoef="0" IVar="-1" Cut="0.0000000000000000e+00" cType="1" res="2.6270486414432526e-02" rms="4.8243811726570129e-01" purity="6.3135242462158203e-01" nType="-99"/>
            <Node pos="r" depth="3" NCoef="0" IVar="-1" Cut="0.0000000000000000e+00" cType="1" res="5.8375112712383270e-03" rms="4.9914735555648804e-01" purity="5.2918756008148193e-01" nType="-99"/>
          </Node>
        </Node>
        <Node pos="r" depth="1" NCoef="0" IVar="4" Cut="4.5714287757873535e+00" cType="1" res="2.4089737236499786e-01" rms="4.3814206123352051e-01" purity="7.4089735746383667e-01" nType="0">
          <Node pos="l" depth="2" NCoef="0" IVar="4" Cut="1.1428571939468384e+00" cType="1" res="5.8858491480350494e-02" rms="4.9652358889579773e-01" purity="5.5885851383209229e-01" nType="0">
            <Node pos="l" depth="3" NCoef="0" IVar="3" Cut="1.1000000000000000e+01" cType="1" res="-1.6578087583184242e-02" rms="4.9972510337829590e-01" purity="4.8342192173004150e-01" nType="0">
              <Node pos="l" depth="4" NCoef="0" IVar="-1" Cut="0.0000000000000000e+00" cType="1" res="1.7752720043063164e-02" rms="4.9205794930458069e-01" purity="5.8876359462738037e-01" nType="-99"/>
              <Node pos="r" depth="4" NCoef="0" IVar="-1" Cut="0.0000000000000000e+00" cType="1" res="-1.5861524268984795e-02" rms="4.9367022514343262e-01" purity="4.2069238424301147e-01" nType="-99"/>
            </Node>
            <Node pos="r" depth="3" NCoef="0" IVar="3" Cut="1.5857142448425293e+01" cType="1" res="2.1722283959388733e-01" rms="4.5034903287887573e-01" purity="7.1722286939620972e-01" nType="0">
              <Node pos="l" depth="4" NCoef="0" IVar="-1" Cut="0.0000000000000000e+00" cType="1" res="5.1950685679912567e-02" rms="4.2723312973976135e-01" purity="7.5975340604782104e-01" nType="-99"/>
              <Node pos="r" depth="4" NCoef="0" IVar="-1" Cut="0.0000000000000000e+00" cType="1" res="2.6291470974683762e-02" rms="4.8240953683853149e-01" purity="6.3145732879638672e-01" nType="-99"/>
            </Node>
          </Node>
          <Node pos="r" depth="2" NCoef="0" IVar="5" Cut="3.3715734863281250e+02" cType="1" res="4.1322058439254761e-01" rms="2.8151157498359680e-01" purity="9.1322052478790283e-01" nType="0">
            <Node pos="l" depth="3" NCoef="0" IVar="5" Cut="2.0827701568603516e+01" cType="1" res="3.9155793190002441e-01" rms="3.1093791127204895e-01" purity="8.9155793190002441e-01" nType="0">
              <Node pos="l" depth="4" NCoef="0" IVar="-1" Cut="0.0000000000000000e+00" cType="1" res="4.3815158307552338e-02" rms="4.4945055246353149e-01" purity="7.1907573938369751e-01" nType="-99"/>
              <Node pos="r" depth="4" NCoef="0" IVar="-1" Cut="0.0000000000000000e+00" cType="1" res="8.5007235407829285e-02" rms="2.6333299279212952e-01" purity="9.2503613233566284e-01" nType="-99"/>
            </Node>
            <Node pos="r" depth="3" NCoef="0" IVar="5" Cut="6.5349725341796875e+02" cType="1" res="4.8096102476119995e-01" rms="1.3666193187236786e-01" purity="9.8096102476119995e-01" nType="0">
              <Node pos="l" depth="4" NCoef="0" IVar="-1" Cut="0.0000000000000000e+00" cType="1" res="9.5369733870029449e-02" rms="1.5038394927978516e-01" purity="9.7684872150421143e-01" nType="-99"/>
              <Node pos="r" depth="4" NCoef="0" IVar="-1" Cut="0.0000000000000000e+00" cType="1" res="9.7227938473224640e-02" rms="1.1691102385520935e-01" purity="9.8613965511322021e-01" nType="-99"/>
            </Node>
          </Node>
        </Node>
      </Node>
    </BinaryTree>
    <BinaryTree type="DecisionTree" boostWeight="1.0000000000000000e+00" itree="1">
      <Node pos="s" depth="0" NCoef="0" IVar="6" Cut="4.7619048506021500e-02" cType="1" res="8.5919513367116451e-04" rms="4.7884234786033630e-01" purity="5.0098735094070435e-01" nType="0">
        <Node pos="l" depth="1" NCoef="0" IVar="4" Cut="6.3333334922790527e+00" cType="1" res="-2.6481419801712036e-01" rms="3.9672699570655823e-01" purity="2.0594348013401031e-01" nType="0">
          <Node pos="l" depth="2" NCoef="0" IVar="4" Cut="3.1428570747375488e+00" cType="1" res="-3.3143067359924316e-01" rms="3.3718416094779968e-01" purity="1.3190925121307373e-01" nType="0">
            <Node pos="l" depth="3" NCoef="0" IVar="1" Cut="-1.5479161739349365e+00" cType="1" res="-3.4936210513114929e-01" rms="3.1541281938552856e-01" purity="1.1218528449535370e-01" nType="0">
              <Node pos="l" depth="4" NCoef="0" IVar="-1" Cut="0.0000000000000000e+00" cType="1" res="-8.1038907170295715e-02" rms="2.3733575642108917e-01" purity="5.9918485581874847e-02" nType="-99"/>
              <Node pos="r" depth="4" NCoef="0" IVar="-1" Cut="0.0000000000000000e+00" cType="1" res="-6.7442640662193298e-02" rms="3.3158528804779053e-01" purity="1.2602253258228302e-01" nType="-99"/>
            </Node>
            <Node pos="r" depth="3" NCoef="0" IVar="-1" Cut="0.0000000000000000e+00" cType="1" res="-2.8521733358502388e-02" rms="4.7364294528961182e-01" purity="3.3980527520179749e-01" nType="-99"/>
          </Node>
          <Node pos="r" depth="2" NCoef="0" IVar="2" Cut="2.3809523880481720e-01" cType="1" res="7.9517714679241180e-02" rms="4.9169594049453735e-01" purity="5.8861678838729858e-01" nType="0">
            <Node pos="l" depth="3" NCoef="0" IVar="-1" Cut="0.0000000000000000e+00" cType="1" res="2.1698649972677231e-02" rms="4.8500046133995056e-01" purity="6.2155061960220337e-01" nType="-99"/>
            <Node pos="r" depth="3" NCoef="0" IVar="-1" Cut="0.0000000000000000e+00" cType="1" res="7.0464056916534901e-03" rms="4.9854248762130737e-01" purity="5.3814953565597534e-01" nType="-99"/>
          </Node>
        </Node>
        <Node pos="r" depth="1" NCoef="0" IVar="4" Cut="6.2380952835083008e+00" cType="1" res="2.1861077845096588e-01" rms="4.2772924900054932e-01" purity="7.4281173944473267e-01" nType="0">
          <Node pos="l" depth="2" NCoef="0" IVar="4" Cut="2.2857143878936768e+00" cType="1" res="8.4793880581855774e-02" rms="4.8548546433448792e-01" purity="5.9553581476211548e-01" nType="0">
            <Node pos="l" depth="3" NCoef="0" IVar="3" Cut="1.0142857551574707e+01" cType="1" res="6.2307924963533878e-03" rms="4.9797251820564270e-01" purity="5.0848466157913208e-01" nType="0">
              <Node pos="l" depth="4" NCoef="0" IVar="-1" Cut="0.0000000000000000e+00" cType="1" res="1.8945764750242233e-02" rms="4.8836436867713928e-01" purity="6.0526096820831299e-01" nType="-99"/>
              <Node pos="r" depth="4" NCoef="0" IVar="-1" Cut="0.0000000000000000e+00" cType="1" res="-8.2661062479019165e-03" rms="4.9659433960914612e-01" purity="4.5646986365318298e-01" nType="-99"/>
            </Node>
            <Node pos="r" depth="3" NCoef="0" IVar="4" Cut="4.1428570747375488e+00" cType="1" res="2.6599332690238953e-01" rms="4.0037906169891357e-01" purity="7.9631221294403076e-01" nType="0">
              <Node pos="l" depth="4" NCoef="0" IVar="-1" Cut="0.0000000000000000e+00" cType="1" res="4.6564109623432159e-02" rms="4.3034237623214722e-01" purity="7.5385028123855591e-01" nType="-99"/>
              <Node pos="r" depth="4" NCoef="0" IVar="-1" Cut="0.0000000000000000e+00" cType="1" res="6.1904393136501312e-02" rms="3.5580915212631226e-01" purity="8.4851610660552979e-01" nType="-99"/>
            </Node>
          </Node>
          <Node pos="r" depth="2" NCoef="0" IVar="5" Cut="3.3716940307617188e+02" cType="1" res="3.8870060443878174e-01" rms="2.5341689586639404e-01" purity="9.3000876903533936e-01" nType="0">
            <Node pos="l" depth="3" NCoef="0" IVar="5" Cut="3.6648895263671875e+01" cType="1" res="3.7325209379196167e-01" rms="2.8114533424377441e-01" purity="9.1242539882659912e-01" nType="0">
              <Node pos="l" depth="4" NCoef="0" IVar="-1" Cut="0.0000000000000000e+00" cType="1" res="5.6701585650444031e-02" rms="3.8898772001266479e-01" purity="8.1267231702804565e-01" nType="-99"/>
              <Node pos="r" depth="4" NCoef="0" IVar="-1" Cut="0.0000000000000000e+00" cType="1" res="8.1870324909687042e-02" rms="2.2038659453392029e-01" purity="9.4880932569503784e-01" nType="-99"/>
            </Node>
            <Node pos="r" depth="3" NCoef="0" IVar="2" Cut="1.9047619402408600e-01" cType="1" res="4.3669864535331726e-01" rms="1.2296923995018005e-01" purity="9.8463994264602661e-01" nType="0">
              <Node pos="l" depth="4" NCoef="0" IVar="-1" Cut="0.0000000000000000e+00" cType="1" res="8.9150153100490570e-02" rms="1.0154540836811066e-01" purity="9.8957717418670654e-01" nType="-99"/>
              <Node pos="r" depth="4" NCoef="0" IVar="-1" Cut="0.0000000000000000e+00" cType="1" res="8.6985692381858826e-02" rms="1.4373943209648132e-01" purity="9.7889029979705811e-01" nType="-99"/>
            </Node>
          </Node>
        </Node>
      </Node>
    </BinaryTree>
    <BinaryTree type="DecisionTree" boostWeight="1.0000000000000000e+00" itree="2">
      <Node pos="s" depth="0" NCoef="0" IVar="6" Cut="4.7619048506021500e-02" cType="1" res="3.1987191177904606e-03" rms="4.6118366718292236e-01" purity="5.0410062074661255e-01" nType="0">
        <Node pos="l" depth="1" NCoef="0" IVar="4" Cut="6.3333334922790527e+00" cType="1" res="-2.3548232018947601e-01" rms="3.9276719093322754e-01" purity="2.0951952040195465e-01" nType="0">
          <Node pos="l" depth="2" NCoef="0" IVar="4" Cut="2.2857143878936768e+00" cType="1" res="-2.9772043228149414e-01" rms="3.3709582686424255e-01" purity="1.3278542459011078e-01" nType="0">
            <Node pos="l" depth="3" NCoef="0" IVar="1" Cut="1.5524505376815796e+00" cType="1" res="-3.1868708133697510e-01" rms="3.1017732620239258e-01" purity="1.0816206783056259e-01" nType="0">
              <Node pos="l" depth="4" NCoef="0" IVar="-1" Cut="0.0000000000000000e+00" cType="1" res="-6.2498994171619415e-02" rms="3.2667392492294312e-01" purity="1.2175077944993973e-01" nType="-99"/>
              <Node pos="r" depth="4" NCoef="0" IVar="-1" Cut="0.0000000000000000e+00" cType="1" res="-7.5197204947471619e-02" rms="2.3068486154079437e-01" purity="5.6396014988422394e-02" nType="-99"/>
            </Node>
            <Node pos="r" depth="3" NCoef="0" IVar="1" Cut="-1.2707045674324036e-01" cType="1" res="-1.7361015081405640e-01" rms="4.4583147764205933e-01" purity="2.7854123711585999e-01" nType="0">
              <Node pos="l" depth="4" NCoef="0" IVar="-1" Cut="0.0000000000000000e+00" cType="1" res="-4.0951687842607498e-02" rms="4.3078127503395081e-01" purity="2.4952162802219391e-01" nType="-99"/>
              <Node pos="r" depth="4" NCoef="0" IVar="-1" Cut="0.0000000000000000e+00" cType="1" res="-2.9784513637423515e-02" rms="4.5749318599700928e-01" purity="3.0490431189537048e-01" nType="-99"/>
            </Node>
          </Node>
          <Node pos="r" depth="2" NCoef="0" IVar="2" Cut="2.3809523880481720e-01" cType="1" res="7.3098644614219666e-02" rms="4.9121993780136108e-01" purity="5.8997249603271484e-01" nType="0">
            <Node pos="l" depth="3" NCoef="0" IVar="-1" Cut="0.0000000000000000e+00" cType="1" res="1.9783305004239082e-02" rms="4.8472222685813904e-01" purity="6.2265545129776001e-01" nType="-99"/>
            <Node pos="r" depth="3" NCoef="0" IVar="-1" Cut="0.0000000000000000e+00" cType="1" res="7.0925503969192505e-03" rms="4.9824142456054688e-01" purity="5.4189842939376831e-01" nType="-99"/>
          </Node>
        </Node>
        <Node pos="r" depth="1" NCoef="0" IVar="4" Cut="4.5714287757873535e+00" cType="1" res="1.9676984846591949e-01" rms="4.2000135779380798e-01" purity="7.4300682544708252e-01" nType="0">
          <Node pos="l" depth="2" NCoef="0" IVar="4" Cut="1.9047619402408600e-01" cType="1" res="4.5370973646640778e-02" rms="4.9129968881607056e-01" purity="5.5601525306701660e-01" nType="0">
            <Node pos="l" depth="3" NCoef="0" IVar="3" Cut="1.1000000000000000e+01" cType="1" res="-4.8361752182245255e-02" rms="4.9465435743331909e-01" purity="4.5194593071937561e-01" nType="0">
              <Node pos="l" depth="4" NCoef="0" IVar="-1" Cut="0.0000000000000000e+00" cType="1" res="1.2859256006777287e-02" rms="4.9313828349113464e-01" purity="5.8255076408386230e-01" nType="-99"/>
              <Node pos="r" depth="4" NCoef="0" IVar="-1" Cut="0.0000000000000000e+00" cType="1" res="-2.5129642337560654e-02" rms="4.8068302869796753e-01" purity="3.6236345767974854e-01" nType="-99"/>
            </Node>
            <Node pos="r" depth="3" NCoef="0" IVar="4" Cut="2.1428570747375488e+00" cType="1" res="1.2718148529529572e-01" rms="4.7342079877853394e-01" purity="6.4684766530990601e-01" nType="0">
              <Node pos="l" depth="4" NCoef="0" IVar="-1" Cut="0.0000000000000000e+00" cType="1" res="1.6009306535124779e-02" rms="4.9024599790573120e-01" purity="5.8568042516708374e-01" nType="-99"/>
              <Node pos="r" depth="4" NCoef="0" IVar="-1" Cut="0.0000000000000000e+00" cType="1" res="4.2562428861856461e-02" rms="4.2932099103927612e-01" purity="7.5551104545593262e-01" nType="-99"/>
            </Node>
          </Node>
          <Node pos="r" depth="2" NCoef="0" IVar="5" Cut="4.3442901611328125e+02" cType="1" res="3.3462721109390259e-01" rms="2.7814066410064697e-01" purity="9.1327345371246338e-01" nType="0">
            <Node pos="l" depth="3" NCoef="0" IVar="5" Cut="4.5910583496093750e+01" cType="1" res="3.2026183605194092e-01" rms="3.0164259672164917e-01" purity="8.9641451835632324e-01" nType="0">
              <Node pos="l" depth="4" NCoef="0" IVar="-1" Cut="0.0000000000000000e+00" cType="1" res="4.4438276439905167e-02" rms="4.1200041770935059e-01" purity="7.8077864646911621e-01" nType="-99"/>
              <Node pos="r" depth="4" NCoef="0" IVar="-1" Cut="0.0000000000000000e+00" cType="1" res="7.4796698987483978e-02" rms="2.2555355727672577e-01" purity="9.4601517915725708e-01" nType="-99"/>
            </Node>
            <Node pos="r" depth="3" NCoef="0" IVar="-1" Cut="0.0000000000000000e+00" cType="1" res="8.1806257367134094e-02" rms="1.2063390016555786e-01" purity="9.8524254560470581e-01" nType="-99"/>
          </Node>
        </Node>
      </Node>
    </BinaryTree>
    <BinaryTree type="DecisionTree" boostWeight="1.0000000000000000e+00" itree="3">
      <Node pos="s" depth="0" NCoef="0" IVar="6" Cut="4.7619048506021500e-02" cType="1" res="-2.4126747157424688e-03" rms="4.4690826535224915e-01" purity="4.9798655509948730e-01" nType="0">
        <Node pos="l" depth="1" NCoef="0" IVar="4" Cut="6.3333334922790527e+00" cType="1" res="-2.1617457270622253e-01" rms="3.8565298914909363e-01" purity="2.0524863898754120e-01" nType="0">
          <Node pos="l" depth="2" NCoef="0" IVar="4" Cut="2.2857143878936768e+00" cType="1" res="-2.6736825704574585e-01" rms="3.3734107017517090e-01" purity="1.3380046188831329e-01" nType="0">
            <Node pos="l" depth="3" NCoef="0" IVar="3" Cut="1.5000000000000000e+01" cType="1" res="-2.8649994730949402e-01" rms="3.1092542409896851e-01" purity="1.0884200781583786e-01" nType="0">
              <Node pos="l" depth="4" NCoef="0" IVar="-1" Cut="0.0000000000000000e+00" cType="1" res="-5.5109806358814240e-02" rms="3.3879241347312927e-01" purity="1.3271690905094147e-01" nType="-99"/>
              <Node pos="r" depth="4" NCoef="0" IVar="-1" Cut="0.0000000000000000e+00" cType="1" res="-6.6276438534259796e-02" rms="2.6706099510192871e-01" purity="7.7492073178291321e-02" nType="-99"/>
            </Node>
            <Node pos="r" depth="3" NCoef="0" IVar="3" Cut="1.6333333969116211e+01" cType="1" res="-1.5677483379840851e-01" rms="4.4546851515769958e-01" purity="2.7807641029357910e-01" nType="0">
              <Node pos="l" depth="4" NCoef="0" IVar="-1" Cut="0.0000000000000000e+00" cType="1" res="-2.1643977612257004e-02" rms="4.6725949645042419e-01" purity="3.2959505915641785e-01" nType="-99"/>
              <Node pos="r" depth="4" NCoef="0" IVar="-1" Cut="0.0000000000000000e+00" cType="1" res="-4.3919730931520462e-02" rms="4.1106963157653809e-01" purity="2.1831035614013672e-01" nType="-99"/>
            </Node>
          </Node>
          <Node pos="r" depth="2" NCoef="0" IVar="3" Cut="1.7142856597900391e+01" cType="1" res="4.3469529598951340e-02" rms="4.9515151977539062e-01" purity="5.6761950254440308e-01" nType="0">
            <Node pos="l" depth="3" NCoef="0" IVar="-1" Cut="0.0000000000000000e+00" cType="1" res="1.3906026259064674e-02" rms="4.9111872911453247e-01" purity="5.9321737289428711e-01" nType="-99"/>
            <Node pos="r" depth="3" NCoef="0" IVar="-1" Cut="0.0000000000000000e+00" cType="1" res="-1.0592914186418056e-03" rms="4.9903377890586853e-01" purity="5.1936990022659302e-01" nType="-99"/>
          </Node>
        </Node>
        <Node pos="r" depth="1" NCoef="0" IVar="4" Cut="4.5714287757873535e+00" cType="1" res="1.7220667004585266e-01" rms="4.1661539673805237e-01" purity="7.3712038993835449e-01" nType="0">
          <Node pos="l" depth="2" NCoef="0" IVar="4" Cut="1.1428571939468384e+00" cType="1" res="3.5522289574146271e-02" rms="4.8951557278633118e-01" purity="5.5075693130493164e-01" nType="0">
            <Node pos="l" depth="3" NCoef="0" IVar="3" Cut="1.3714285850524902e+01" cType="1" res="-2.0366441458463669e-02" rms="4.9587333202362061e-01" purity="4.7793439030647278e-01" nType="0">
              <Node pos="l" depth="4" NCoef="0" IVar="-1" Cut="0.0000000000000000e+00" cType="1" res="5.4979510605335236e-03" rms="4.9624437093734741e-01" purity="5.3301614522933960e-01" nType="-99"/>
              <Node pos="r" depth="4" NCoef="0" IVar="-1" Cut="0.0000000000000000e+00" cType="1" res="-2.3889387026429176e-02" rms="4.8022982478141785e-01" purity="3.6396399140357971e-01" nType="-99"/>
            </Node>
            <Node pos="r" depth="3" NCoef="0" IVar="2" Cut="2.3809523880481720e-01" cType="1" res="1.5291933715343475e-01" rms="4.5400726795196533e-01" purity="7.0372426509857178e-01" nType="0">
              <Node pos="l" depth="4" NCoef="0" IVar="-1" Cut="0.0000000000000000e+00" cType="1" res="3.7939880043268204e-02" rms="4.3724116683006287e-01" purity="7.3901087045669556e-01" nType="-99"/>
              <Node pos="r" depth="4" NCoef="0" IVar="-1" Cut="0.0000000000000000e+00" cType="1" res="2.0729113370180130e-02" rms="4.7297626733779907e-01" purity="6.5208160877227783e-01" nType="-99"/>
            </Node>
          </Node>
          <Node pos="r" depth="2" NCoef="0" IVar="5" Cut="3.5137792968750000e+02" cType="1" res="3.0100083351135254e-01" rms="2.7772715687751770e-01" purity="9.1272586584091187e-01" nType="0">
            <Node pos="l" depth="3" NCoef="0" IVar="5" Cut="2.1498201370239258e+01" cType="1" res="2.8466379642486572e-01" rms="3.0687680840492249e-01" purity="8.9155679941177368e-01" nType="0">
              <Node pos="l" depth="4" NCoef="0" IVar="-1" Cut="0.0000000000000000e+00" cType="1" res="3.0466735363006592e-02" rms="4.4799205660820007e-01" purity="7.2204279899597168e-01" nType="-99"/>
              <Node pos="r" depth="4" NCoef="0" IVar="-1" Cut="0.0000000000000000e+00" cType="1" res="6.5620467066764832e-02" rms="2.6293811202049255e-01" purity="9.2458808422088623e-01" nType="-99"/>
            </Node>
            <Node pos="r" depth="3" NCoef="0" IVar="4" Cut="1.2285714149475098e+01" cType="1" res="3.5449901223182678e-01" rms="1.3263823091983795e-01" purity="9.8204725980758667e-01" nType="0">
              <Node pos="l" depth="4" NCoef="0" IVar="-1" Cut="0.0000000000000000e+00" cType="1" res="7.5006343424320221e-02" rms="1.4858040213584900e-01" purity="9.7737038135528564e-01" nType="-99"/>
              <Node pos="r" depth="4" NCoef="0" IVar="-1" Cut="0.0000000000000000e+00" cType="1" res="7.6955407857894897e-02" rms="1.0767271369695663e-01" purity="9.8826742172241211e-01" nType="-99"/>
            </Node>
          </Node>
        </Node>
      </Node>
    </BinaryTree>
    <BinaryTree type="DecisionTree" boostWeight="1.0000000000000000e+00" itree="4">
      <Node pos="s" depth="0" NCoef="0" IVar="6" Cut="4.7619048506021500e-02" cType="1" res="-6.1924388865008950e-04" rms="4.3419259786605835e-01" purity="4.9903458356857300e-01" nType="0">
        <Node pos="l" depth="1" NCoef="0" IVar="0" Cut="2.9536366462707520e+00" cType="1" res="-1.9487471878528595e-01" rms="3.8080263137817383e-01" purity="2.0507603883743286e-01" nType="0">
          <Node pos="l" depth="2" NCoef="0" IVar="4" Cut="6.4285712242126465e+00" cType="1" res="-2.3080937564373016e-01" rms="3.5118857026100159e-01" purity="1.6678573191165924e-01" nType="0">
            <Node pos="l" depth="3" NCoef="0" IVar="0" Cut="1.5580357313156128e+00" cType="1" res="-2.7198275923728943e-01" rms="2.9959198832511902e-01" purity="1.0227337479591370e-01" nType="0">
              <Node pos="l" depth="4" NCoef="0" IVar="-1" Cut="0.0000000000000000e+00" cType="1" res="-6.5475493669509888e-02" rms="2.4858853220939636e-01" purity="6.7826434969902039e-02" nType="-99"/>
              <Node pos="r" depth="4" NCoef="0" IVar="-1" Cut="0.0000000000000000e+00" cType="1" res="-4.2614005506038666e-02" rms="3.7635323405265808e-01" purity="1.7573396861553192e-01" nType="-99"/>
            </Node>
            <Node pos="r" depth="3" NCoef="0" IVar="0" Cut="1.5563615560531616e+00" cType="1" res="-6.7821267293766141e-04" rms="4.9857422709465027e-01" purity="5.2736574411392212e-01" nType="0">
              <Node pos="l" depth="4" NCoef="0" IVar="-1" Cut="0.0000000000000000e+00" cType="1" res="-1.5464599244296551e-02" rms="4.9666512012481689e-01" purity="4.5117038488388062e-01" nType="-99"/>
              <Node pos="r" depth="4" NCoef="0" IVar="-1" Cut="0.0000000000000000e+00" cType="1" res="2.0110508427023888e-02" rms="4.8292124271392822e-01" purity="6.2801736593246460e-01" nType="-99"/>
            </Node>
          </Node>
          <Node pos="r" depth="2" NCoef="0" IVar="-1" Cut="0.0000000000000000e+00" cType="1" res="3.4061163663864136e-02" rms="4.6901738643646240e-01" purity="5.8628982305526733e-01" nType="-99"/>
        </Node>
        <Node pos="r" depth="1" NCoef="0" IVar="4" Cut="6.2380952835083008e+00" cType="1" res="1.5972669422626495e-01" rms="4.0936690568923950e-01" purity="7.4167919158935547e-01" nType="0">
          <Node pos="l" depth="2" NCoef="0" IVar="4" Cut="1.1428571939468384e+00" cType="1" res="6.1284258961677551e-02" rms="4.7570842504501343e-01" purity="5.9517014026641846e-01" nType="0">
            <Node pos="l" depth="3" NCoef="0" IVar="3" Cut="1.3714285850524902e+01" cType="1" res="-8.8994735851883888e-03" rms="4.9546721577644348e-01" purity="4.8717397451400757e-01" nType="0">
              <Node pos="l" depth="4" NCoef="0" IVar="-1" Cut="0.0000000000000000e+00" cType="1" res="6.7944549955427647e-03" rms="4.9591115117073059e-01" purity="5.4214328527450562e-01" nType="-99"/>
              <Node pos="r" depth="4" NCoef="0" IVar="-1" Cut="0.0000000000000000e+00" cType="1" res="-1.9261389970779419e-02" rms="4.8300021886825562e-01" purity="3.7535244226455688e-01" nType="-99"/>
            </Node>
            <Node pos="r" depth="3" NCoef="0" IVar="4" Cut="2.1904761791229248e+00" cType="1" res="1.6087916493415833e-01" rms="4.2680057883262634e-01" purity="7.4842303991317749e-01" nType="0">
              <Node pos="l" depth="4" NCoef="0" IVar="-1" Cut="0.0000000000000000e+00" cType="1" res="1.9160820171236992e-02" rms="4.7859662771224976e-01" purity="6.3890069723129272e-01" nType="-99"/>
              <Node pos="r" depth="4" NCoef="0" IVar="-1" Cut="0.0000000000000000e+00" cType="1" res="3.8921602070331573e-02" rms="4.0298604965209961e-01" purity="7.8937077522277832e-01" nType="-99"/>
            </Node>
          </Node>
          <Node pos="r" depth="2" NCoef="0" IVar="5" Cut="3.2488900756835938e+02" cType="1" res="2.8259760141372681e-01" rms="2.5903734564781189e-01" purity="9.2454457283020020e-01" nType="0">
            <Node pos="l" depth="3" NCoef="0" IVar="5" Cut="2.0242698669433594e+01" cType="1" res="2.7080485224723816e-01" rms="2.8789398074150085e-01" purity="9.0551900863647461e-01" nType="0">
              <Node pos="l" depth="4" NCoef="0" IVar="-1" Cut="0.0000000000000000e+00" cType="1" res="3.6273270845413208e-02" rms="4.2541539669036865e-01" purity="7.6271986961364746e-01" nType="-99"/>
              <Node pos="r" depth="4" NCoef="0" IVar="-1" Cut="0.0000000000000000e+00" cType="1" res="6.3210688531398773e-02" rms="2.4756775796413422e-01" purity="9.3383675813674927e-01" nType="-99"/>
            </Node>
            <Node pos="r" depth="3" NCoef="0" IVar="2" Cut="1.9047619402408600e-01" cType="1" res="3.1725242733955383e-01" rms="1.3824306428432465e-01" purity="9.8045402765274048e-01" nType="0">
              <Node pos="l" depth="4" NCoef="0" IVar="-1" Cut="0.0000000000000000e+00" cType="1" res="7.2343662381172180e-02" rms="1.1506069451570511e-01" purity="9.8653137683868408e-01" nType="-99"/>
              <Node pos="r" depth="4" NCoef="0" IVar="-1" Cut="0.0000000000000000e+00" cType="1" res="6.9456093013286591e-02" rms="1.6116841137409210e-01" purity="9.7326147556304932e-01" nType="-99"/>
            </Node>
          </Node>
        </Node>
      </Node>
    </BinaryTree>
    <BinaryTree type="DecisionTree" boostWeight="1.0000000000000000e+00" itree="5">
      <Node pos="s" depth="0" NCoef="0" IVar="6" Cut="4.7619048506021500e-02" cType="1" res="-2.6570912450551987e-04" rms="4.2335176467895508e-01" purity="5.0010526180267334e-01" nType="0">
        <Node pos="l" depth="1" NCoef="0" IVar="4" Cut="6.4285712242126465e+00" cType="1" res="-1.7367842793464661e-01" rms="3.7670698761940002e-01" purity="2.0832774043083191e-01" nType="0">
          <Node pos="l" depth="2" NCoef="0" IVar="4" Cut="3.1428570747375488e+00" cType="1" res="-2.1965572237968445e-01" rms="3.3075785636901855e-01" purity="1.3177478313446045e-01" nType="0">
            <Node pos="l" depth="3" NCoef="0" IVar="1" Cut="9.7207552194595337e-01" cType="1" res="-2.3380334675312042e-01" rms="3.1015056371688843e-01" purity="1.1126738041639328e-01" nType="0">
              <Node pos="l" depth="4" NCoef="0" IVar="-1" Cut="0.0000000000000000e+00" cType="1" res="-4.8520289361476898e-02" rms="3.2904446125030518e-01" purity="1.2740698456764221e-01" nType="-99"/>
              <Node pos="r" depth="4" NCoef="0" IVar="-1" Cut="0.0000000000000000e+00" cType="1" res="-5.9368703514337540e-02" rms="2.5847244262695312e-01" purity="7.4019663035869598e-02" nType="-99"/>
            </Node>
            <Node pos="r" depth="3" NCoef="0" IVar="-1" Cut="0.0000000000000000e+00" cType="1" res="-1.7654594033956528e-02" rms="4.6345329284667969e-01" purity="3.2633572816848755e-01" nType="-99"/>
          </Node>
          <Node pos="r" depth="2" NCoef="0" IVar="1" Cut="-4.4775882363319397e-01" cType="1" res="5.1013145595788956e-02" rms="4.8985221982002258e-01" purity="5.8244299888610840e-01" nType="0">
            <Node pos="l" depth="3" NCoef="0" IVar="-1" Cut="0.0000000000000000e+00" cType="1" res="1.4132108772173524e-03" rms="4.9474745988845825e-01" purity="5.3831529617309570e-01" nType="-99"/>
            <Node pos="r" depth="3" NCoef="0" IVar="1" Cut="5.0080877542495728e-01" cType="1" res="7.3380552232265472e-02" rms="4.8581886291503906e-01" purity="6.0488468408584595e-01" nType="0">
              <Node pos="l" depth="4" NCoef="0" IVar="-1" Cut="0.0000000000000000e+00" cType="1" res="2.5643961504101753e-02" rms="4.7145324945449829e-01" purity="6.5976780652999878e-01" nType="-99"/>
              <Node pos="r" depth="4" NCoef="0" IVar="-1" Cut="0.0000000000000000e+00" cType="1" res="3.6917540710419416e-03" rms="4.9393817782402039e-01" purity="5.4916274547576904e-01" nType="-99"/>
            </Node>
          </Node>
        </Node>
        <Node pos="r" depth="1" NCoef="0" IVar="4" Cut="4.4761905670166016e+00" cType="1" res="1.4228078722953796e-01" rms="4.0603440999984741e-01" purity="7.3994845151901245e-01" nType="0">
          <Node pos="l" depth="2" NCoef="0" IVar="4" Cut="1.9047619402408600e-01" cType="1" res="3.3082753419876099e-02" rms="4.8590251803398132e-01" purity="5.5567359924316406e-01" nType="0">
            <Node pos="l" depth="3" NCoef="0" IVar="3" Cut="1.1000000000000000e+01" cType="1" res="-3.8606997579336166e-02" rms="4.9221223592758179e-01" purity="4.5447850227355957e-01" nType="0">
              <Node pos="l" depth="4" NCoef="0" IVar="-1" Cut="0.0000000000000000e+00" cType="1" res="8.6903581395745277e-03" rms="4.9446794390678406e-01" purity="5.7417172193527222e-01" nType="-99"/>
              <Node pos="r" depth="4" NCoef="0" IVar="-1" Cut="0.0000000000000000e+00" cType="1" res="-1.8641253933310509e-02" rms="4.8315086960792542e-01" purity="3.7533575296401978e-01" nType="-99"/>
            </Node>
            <Node pos="r" depth="3" NCoef="0" IVar="4" Cut="2.1428570747375488e+00" cType="1" res="9.6223972737789154e-02" rms="4.7133022546768188e-01" purity="6.4480185508728027e-01" nType="0">
              <Node pos="l" depth="4" NCoef="0" IVar="-1" Cut="0.0000000000000000e+00" cType="1" res="1.2852841056883335e-02" rms="4.8982316255569458e-01" purity="5.8393257856369019e-01" nType="-99"/>
              <Node pos="r" depth="4" NCoef="0" IVar="-1" Cut="0.0000000000000000e+00" cType="1" res="3.2049443572759628e-02" rms="4.3043744564056396e-01" purity="7.5331848859786987e-01" nType="-99"/>
            </Node>
          </Node>
          <Node pos="r" depth="2" NCoef="0" IVar="5" Cut="3.8181893920898438e+02" cType="1" res="2.4401119351387024e-01" rms="2.7756157517433167e-01" purity="9.1162151098251343e-01" nType="0">
            <Node pos="l" depth="3" NCoef="0" IVar="5" Cut="5.8832126617431641e+01" cType="1" res="2.3202560842037201e-01" rms="3.0298921465873718e-01" purity="8.9322280883789062e-01" nType="0">
              <Node pos="l" depth="4" NCoef="0" IVar="-1" Cut="0.0000000000000000e+00" cType="1" res="3.6160998046398163e-02" rms="3.9318463206291199e-01" purity="8.0355674028396606e-01" nType="-99"/>
              <Node pos="r" depth="4" NCoef="0" IVar="-1" Cut="0.0000000000000000e+00" cType="1" res="6.1705626547336578e-02" rms="2.2559902071952820e-01" purity="9.4594264030456543e-01" nType="-99"/>
            </Node>
            <Node pos="r" depth="3" NCoef="0" IVar="2" Cut="1.9047619402408600e-01" cType="1" res="2.8823223710060120e-01" rms="1.4173957705497742e-01" purity="9.7950375080108643e-01" nType="0">
              <Node pos="l" depth="4" NCoef="0" IVar="-1" Cut="0.0000000000000000e+00" cType="1" res="6.8878829479217529e-02" rms="1.1993601918220520e-01" purity="9.8555600643157959e-01" nType="-99"/>
              <Node pos="r" depth="4" NCoef="0" IVar="-1" Cut="0.0000000000000000e+00" cType="1" res="6.5980747342109680e-02" rms="1.6382995247840881e-01" purity="9.7226881980895996e-01" nType="-99"/>
            </Node>
          </Node>
        </Node>
      </Node>
    </BinaryTree>
    <BinaryTree type="DecisionTree" boostWeight="1.0000000000000000e+00" itree="6">
      <Node pos="s" depth="0" NCoef="0" IVar="6" Cut="4.7619048506021500e-02" cType="1" res="2.9798744435538538e-05" rms="4.1535666584968567e-01" purity="4.9908855557441711e-01" nType="0">
        <Node pos="l" depth="1" NCoef="0" IVar="4" Cut="6.3333334922790527e+00" cType="1" res="-1.5658384561538696e-01" rms="3.7343639135360718e-01" purity="2.0638050138950348e-01" nType="0">
          <Node pos="l" depth="2" NCoef="0" IVar="4" Cut="3.1428570747375488e+00" cType="1" res="-1.9519324600696564e-01" rms="3.3334839344024658e-01" purity="1.3456882536411285e-01" nType="0">
            <Node pos="l" depth="3" NCoef="0" IVar="1" Cut="-1.4893207550048828e+00" cType="1" res="-2.0627506077289581e-01" rms="3.1552553176879883e-01" purity="1.1593449860811234e-01" nType="0">
              <Node pos="l" depth="4" NCoef="0" IVar="-1" Cut="0.0000000000000000e+00" cType="1" res="-5.8018505573272705e-02" rms="2.4881137907505035e-01" purity="6.7856110632419586e-02" nType="-99"/>
              <Node pos="r" depth="4" NCoef="0" IVar="-1" Cut="0.0000000000000000e+00" cType="1" res="-4.4183831661939621e-02" rms="3.3112803101539612e-01" purity="1.2983202934265137e-01" nType="-99"/>
            </Node>
            <Node pos="r" depth="3" NCoef="0" IVar="-1" Cut="0.0000000000000000e+00" cType="1" res="-1.7837900668382645e-02" rms="4.6052530407905579e-01" purity="3.1847625970840454e-01" nType="-99"/>
          </Node>
          <Node pos="r" depth="2" NCoef="0" IVar="2" Cut="2.3809523880481720e-01" cType="1" res="4.4987384229898453e-02" rms="4.8884010314941406e-01" purity="5.8129334449768066e-01" nType="0">
            <Node pos="l" depth="3" NCoef="0" IVar="-1" Cut="0.0000000000000000e+00" cType="1" res="1.4422361738979816e-02" rms="4.8270869255065918e-01" purity="6.1728656291961670e-01" nType="-99"/>
            <Node pos="r" depth="3" NCoef="0" IVar="-1" Cut="0.0000000000000000e+00" cType="1" res="9.9143257830291986e-04" rms="4.9528875946998596e-01" purity="5.2685409784317017e-01" nType="-99"/>
          </Node>
        </Node>
        <Node pos="r" depth="1" NCoef="0" IVar="4" Cut="4.5238094329833984e+00" cType="1" res="1.2813085317611694e-01" rms="4.0385067462921143e-01" purity="7.3850715160369873e-01" nType="0">
          <Node pos="l" depth="2" NCoef="0" IVar="4" Cut="2.0952382087707520e+00" cType="1" res="3.4769978374242783e-02" rms="4.8394650220870972e-01" purity="5.6074476242065430e-01" nType="0">
            <Node pos="l" depth="3" NCoef="0" IVar="1" Cut="1.4263391494750977e+00" cType="1" res="7.8212870284914970e-03" rms="4.9322864413261414e-01" purity="5.1241779327392578e-01" nType="0">
              <Node pos="l" depth="4" NCoef="0" IVar="-1" Cut="0.0000000000000000e+00" cType="1" res="5.6353220716118813e-03" rms="4.9263706803321838e-01" purity="5.3567987680435181e-01" nType="-99"/>
              <Node pos="r" depth="4" NCoef="0" IVar="-1" Cut="0.0000000000000000e+00" cType="1" res="-1.9136086106300354e-02" rms="4.8332059383392334e-01" purity="3.9379826188087463e-01" nType="-99"/>
            </Node>
            <Node pos="r" depth="3" NCoef="0" IVar="-1" Cut="0.0000000000000000e+00" cType="1" res="3.1022816896438599e-02" rms="4.2529529333114624e-01" purity="7.6180541515350342e-01" nType="-99"/>
          </Node>
          <Node pos="r" depth="2" NCoef="0" IVar="4" Cut="9.2857141494750977e+00" cType="1" res="2.1729557216167450e-01" rms="2.8090515732765198e-01" purity="9.0827983617782593e-01" nType="0">
            <Node pos="l" depth="3" NCoef="0" IVar="2" Cut="2.3809523880481720e-01" cType="1" res="1.7365168035030365e-01" rms="3.3666899800300598e-01" purity="8.6093395948410034e-01" nType="0">
              <Node pos="l" depth="4" NCoef="0" IVar="-1" Cut="0.0000000000000000e+00" cType="1" res="4.6167481690645218e-02" rms="3.1023380160331726e-01" purity="8.8522619009017944e-01" nType="-99"/>
              <Node pos="r" depth="4" NCoef="0" IVar="-1" Cut="0.0000000000000000e+00" cType="1" res="3.2557707279920578e-02" rms="3.6849486827850342e-01" purity="8.2624036073684692e-01" nType="-99"/>
            </Node>
            <Node pos="r" depth="3" NCoef="0" IVar="5" Cut="3.2611294555664062e+02" cType="1" res="2.3882365226745605e-01" rms="2.4600283801555634e-01" purity="9.3163400888442993e-01" nType="0">
              <Node pos="l" depth="4" NCoef="0" IVar="-1" Cut="0.0000000000000000e+00" cType="1" res="5.3931191563606262e-02" rms="2.7092462778091431e-01" purity="9.1634225845336914e-01" nType="-99"/>
              <Node pos="r" depth="4" NCoef="0" IVar="-1" Cut="0.0000000000000000e+00" cType="1" res="6.5216764807701111e-02" rms="1.2625500559806824e-01" purity="9.8373252153396606e-01" nType="-99"/>
            </Node>
          </Node>
        </Node>
      </Node>
    </BinaryTree>
    <BinaryTree type="DecisionTree" boostWeight="1.0000000000000000e+00" itree="7">
      <Node pos="s" depth="0" NCoef="0" IVar="6" Cut="4.7619048506021500e-02" cType="1" res="1.6439218597952276e-04" rms="4.0715166926383972e-01" purity="4.9879831075668335e-01" nType="0">
        <Node pos="l" depth="1" NCoef="0" IVar="4" Cut="6.4285712242126465e+00" cType="1" res="-1.4036129415035248e-01" rms="3.7083804607391357e-01" purity="2.0796480774879456e-01" nType="0">
          <Node pos="l" depth="2" NCoef="0" IVar="4" Cut="3.1428570747375488e+00" cType="1" res="-1.7794515192508698e-01" rms="3.3048990368843079e-01" purity="1.3240922987461090e-01" nType="0">
            <Node pos="l" depth="3" NCoef="0" IVar="1" Cut="1.5510118007659912e+00" cType="1" res="-1.8931084871292114e-01" rms="3.1177628040313721e-01" purity="1.1269085109233856e-01" nType="0">
              <Node pos="l" depth="4" NCoef="0" IVar="-1" Cut="0.0000000000000000e+00" cType="1" res="-4.2152974754571915e-02" rms="3.2768365740776062e-01" purity="1.2617598474025726e-01" nType="-99"/>
              <Node pos="r" depth="4" NCoef="0" IVar="-1" Cut="0.0000000000000000e+00" cType="1" res="-5.5973682552576065e-02" rms="2.3640502989292145e-01" purity="6.0866072773933411e-02" nType="-99"/>
            </Node>
            <Node pos="r" depth="3" NCoef="0" IVar="-1" Cut="0.0000000000000000e+00" cType="1" res="-1.3063604943454266e-02" rms="4.6557933092117310e-01" purity="3.3290392160415649e-01" nType="-99"/>
          </Node>
          <Node pos="r" depth="2" NCoef="0" IVar="3" Cut="1.7142856597900391e+01" cType="1" res="4.9985624849796295e-02" rms="4.8728749155998230e-01" purity="5.9062296152114868e-01" nType="0">
            <Node pos="l" depth="3" NCoef="0" IVar="-1" Cut="0.0000000000000000e+00" cType="1" res="1.5137762762606144e-02" rms="4.8139494657516479e-01" purity="6.1878907680511475e-01" nType="-99"/>
            <Node pos="r" depth="3" NCoef="0" IVar="-1" Cut="0.0000000000000000e+00" cType="1" res="1.2037289561703801e-03" rms="4.9442288279533386e-01" purity="5.4107046127319336e-01" nType="-99"/>
          </Node>
        </Node>
        <Node pos="r" depth="1" NCoef="0" IVar="4" Cut="6.2380952835083008e+00" cType="1" res="1.1806542426347733e-01" rms="3.9875659346580505e-01" purity="7.4280768632888794e-01" nType="0">
          <Node pos="l" depth="2" NCoef="0" IVar="4" Cut="2.8571429848670959e-01" cType="1" res="4.5445207506418228e-02" rms="4.7091063857078552e-01" purity="5.9668028354644775e-01" nType="0">
            <Node pos="l" depth="3" NCoef="0" IVar="3" Cut="1.0666666984558105e+01" cType="1" res="-2.4421259760856628e-02" rms="4.9295103549957275e-01" purity="4.6687397360801697e-01" nType="0">
              <Node pos="l" depth="4" NCoef="0" IVar="-1" Cut="0.0000000000000000e+00" cType="1" res="6.4152963459491730e-03" rms="4.9512708187103271e-01" purity="5.6877493858337402e-01" nType="-99"/>
              <Node pos="r" depth="4" NCoef="0" IVar="-1" Cut="0.0000000000000000e+00" cType="1" res="-1.2972640804946423e-02" rms="4.8747387528419495e-01" purity="3.9460664987564087e-01" nType="-99"/>
            </Node>
            <Node pos="r" depth="3" NCoef="0" IVar="4" Cut="2.1904761791229248e+00" cType="1" res="9.3249924480915070e-02" rms="4.4899430871009827e-01" purity="6.8549770116806030e-01" nType="0">
              <Node pos="l" depth="4" NCoef="0" IVar="-1" Cut="0.0000000000000000e+00" cType="1" res="1.0594543069601059e-02" rms="4.8942494392395020e-01" purity="5.7963120937347412e-01" nType="-99"/>
              <Node pos="r" depth="4" NCoef="0" IVar="-1" Cut="0.0000000000000000e+00" cType="1" res="2.9972648248076439e-02" rms="4.0011793375015259e-01" purity="7.9198414087295532e-01" nType="-99"/>
            </Node>
          </Node>
          <Node pos="r" depth="2" NCoef="0" IVar="5" Cut="3.2488705444335938e+02" cType="1" res="2.0821847021579742e-01" rms="2.5774493813514709e-01" purity="9.2421478033065796e-01" nType="0">
            <Node pos="l" depth="3" NCoef="0" IVar="5" Cut="5.0697044372558594e+01" cType="1" res="1.9728505611419678e-01" rms="2.8906175494194031e-01" purity="9.0353298187255859e-01" nType="0">
              <Node pos="l" depth="4" NCoef="0" IVar="-1" Cut="0.0000000000000000e+00" cType="1" res="3.1146416440606117e-02" rms="3.8932037353515625e-01" purity="8.0986094474792480e-01" nType="-99"/>
              <Node pos="r" depth="4" NCoef="0" IVar="-1" Cut="0.0000000000000000e+00" cType="1" res="5.7398088276386261e-02" rms="2.1085557341575623e-01" purity="9.5325672626495361e-01" nType="-99"/>
            </Node>
            <Node pos="r" depth="3" NCoef="0" IVar="2" Cut="1.9047619402408600e-01" cType="1" res="2.4035397171974182e-01" rms="1.2131273746490479e-01" purity="9.8500305414199829e-01" nType="0">
              <Node pos="l" depth="4" NCoef="0" IVar="-1" Cut="0.0000000000000000e+00" cType="1" res="6.4609356224536896e-02" rms="9.4412490725517273e-02" purity="9.9098962545394897e-01" nType="-99"/>
              <Node pos="r" depth="4" NCoef="0" IVar="-1" Cut="0.0000000000000000e+00" cType="1" res="6.1552606523036957e-02" rms="1.4715234935283661e-01" purity="9.7779929637908936e-01" nType="-99"/>
            </Node>
          </Node>
        </Node>
      </Node>
    </BinaryTree>
    <BinaryTree type="DecisionTree" boostWeight="1.0000000000000000e+00" itree="8">
      <Node pos="s" depth="0" NCoef="0" IVar="6" Cut="4.7619048506021500e-02" cType="1" res="2.5439760647714138e-03" rms="4.0160629153251648e-01" purity="5.0270050764083862e-01" nType="0">
        <Node pos="l" depth="1" NCoef="0" IVar="4" Cut="6.2857141494750977e+00" cType="1" res="-1.2424550205469131e-01" rms="3.7088084220886230e-01" purity="2.1046747267246246e-01" nType="0">
          <Node pos="l" depth="2" NCoef="0" IVar="4" Cut="1.1428571939468384e+00" cType="1" res="-1.5761047601699829e-01" rms="3.3360347151756287e-01" purity="1.3550364971160889e-01" nType="0">
            <Node pos="l" depth="3" NCoef="0" IVar="3" Cut="1.2333333015441895e+01" cType="1" res="-1.7446519434452057e-01" rms="3.0529370903968811e-01" purity="1.0726167261600494e-01" nType="0">
              <Node pos="l" depth="4" NCoef="0" IVar="-1" Cut="0.0000000000000000e+00" cType="1" res="-3.4644220024347305e-02" rms="3.4814518690109253e-01" purity="1.4504034817218781e-01" nType="-99"/>
              <Node pos="r" depth="4" NCoef="0" IVar="-1" Cut="0.0000000000000000e+00" cType="1" res="-4.8980921506881714e-02" rms="2.7040350437164307e-01" purity="8.1812500953674316e-02" nType="-99"/>
            </Node>
            <Node pos="r" depth="3" NCoef="0" IVar="1" Cut="-9.2373418807983398e-01" cType="1" res="-1.0278222709894180e-01" rms="4.0767380595207214e-01" purity="2.2737446427345276e-01" nType="0">
              <Node pos="l" depth="4" NCoef="0" IVar="-1" Cut="0.0000000000000000e+00" cType="1" res="-4.0213160216808319e-02" rms="3.4820467233657837e-01" purity="1.5031918883323669e-01" nType="-99"/>
              <Node pos="r" depth="4" NCoef="0" IVar="-1" Cut="0.0000000000000000e+00" cType="1" res="-1.6862746328115463e-02" rms="4.2589953541755676e-01" purity="2.5838482379913330e-01" nType="-99"/>
            </Node>
          </Node>
          <Node pos="r" depth="2" NCoef="0" IVar="2" Cut="2.3809523880481720e-01" cType="1" res="4.5663163065910339e-02" rms="4.8656812310218811e-01" purity="5.9221541881561279e-01" nType="0">
            <Node pos="l" depth="3" NCoef="0" IVar="-1" Cut="0.0000000000000000e+00" cType="1" res="1.4830781146883965e-02" rms="4.7917005419731140e-01" purity="6.3139402866363525e-01" nType="-99"/>
            <Node pos="r" depth="3" NCoef="0" IVar="-1" Cut="0.0000000000000000e+00" cType="1" res="2.8390772058628500e-04" rms="4.9507826566696167e-01" purity="5.2901256084442139e-01" nType="-99"/>
          </Node>
        </Node>
        <Node pos="r" depth="1" NCoef="0" IVar="4" Cut="4.5238094329833984e+00" cType="1" res="1.0642783343791962e-01" rms="3.9594373106956482e-01" purity="7.4213910102844238e-01" nType="0">
          <Node pos="l" depth="2" NCoef="0" IVar="4" Cut="1.9047619402408600e-01" cType="1" res="2.7247181162238121e-02" rms="4.8118832707405090e-01" purity="5.6120449304580688e-01" nType="0">
            <Node pos="l" depth="3" NCoef="0" IVar="3" Cut="1.0666666984558105e+01" cType="1" res="-2.6883488520979881e-02" rms="4.9014449119567871e-01" purity="4.6171697974205017e-01" nType="0">
              <Node pos="l" depth="4" NCoef="0" IVar="-1" Cut="0.0000000000000000e+00" cType="1" res="9.8552405834197998e-03" rms="4.9177134037017822e-01" purity="5.8903455734252930e-01" nType="-99"/>
              <Node pos="r" depth="4" NCoef="0" IVar="-1" Cut="0.0000000000000000e+00" cType="1" res="-1.6128487884998322e-02" rms="4.8198002576828003e-01" purity="3.7280949950218201e-01" nType="-99"/>
            </Node>
            <Node pos="r" depth="3" NCoef="0" IVar="3" Cut="1.5380952835083008e+01" cType="1" res="7.4158065021038055e-02" rms="4.6825543045997620e-01" purity="6.4742267131805420e-01" nType="0">
              <Node pos="l" depth="4" NCoef="0" IVar="-1" Cut="0.0000000000000000e+00" cType="1" res="2.1358424797654152e-02" rms="4.5939686894416809e-01" purity="6.7870217561721802e-01" nType="-99"/>
              <Node pos="r" depth="4" NCoef="0" IVar="-1" Cut="0.0000000000000000e+00" cType="1" res="1.2427624315023422e-03" rms="4.8178112506866455e-01" purity="5.7335716485977173e-01" nType="-99"/>
            </Node>
          </Node>
          <Node pos="r" depth="2" NCoef="0" IVar="4" Cut="9.2857141494750977e+00" cType="1" res="1.8139222264289856e-01" rms="2.7281260490417480e-01" purity="9.1343915462493896e-01" nType="0">
            <Node pos="l" depth="3" NCoef="0" IVar="4" Cut="6.1428570747375488e+00" cType="1" res="1.5049253404140472e-01" rms="3.2379171252250671e-01" purity="8.7231767177581787e-01" nType="0">
              <Node pos="l" depth="4" NCoef="0" IVar="-1" Cut="0.0000000000000000e+00" cType="1" res="2.9431480914354324e-02" rms="3.6826363205909729e-01" purity="8.2819962501525879e-01" nType="-99"/>
              <Node pos="r" depth="4" NCoef="0" IVar="-1" Cut="0.0000000000000000e+00" cType="1" res="4.3945379555225372e-02" rms="2.8591629862785339e-01" purity="9.0396630764007568e-01" nType="-99"/>
            </Node>
            <Node pos="r" depth="3" NCoef="0" IVar="4" Cut="1.4047618865966797e+01" cType="1" res="1.9667474925518036e-01" rms="2.4223636090755463e-01" purity="9.3377727270126343e-01" nType="0">
              <Node pos="l" depth="4" NCoef="0" IVar="-1" Cut="0.0000000000000000e+00" cType="1" res="4.7131013125181198e-02" rms="2.6197221875190735e-01" purity="9.2127770185470581e-01" nType="-99"/>
              <Node pos="r" depth="4" NCoef="0" IVar="-1" Cut="0.0000000000000000e+00" cType="1" res="5.3334429860115051e-02" rms="2.2904999554157257e-01" purity="9.4123756885528564e-01" nType="-99"/>
            </Node>
          </Node>
        </Node>
      </Node>
    </BinaryTree>
    <BinaryTree type="DecisionTree" boostWeight="1.0000000000000000e+00" itree="9">
      <Node pos="s" depth="0" NCoef="0" IVar="6" Cut="4.7619048506021500e-02" cType="1" res="-2.9582093702629209e-04" rms="3.9802488684654236e-01" purity="5.0049751996994019e-01" nType="0">
        <Node pos="l" depth="1" NCoef="0" IVar="4" Cut="6.2857141494750977e+00" cType="1" res="-1.1411603540182114e-01" rms="3.6838248372077942e-01" purity="2.0786979794502258e-01" nType="0">
          <Node pos="l" depth="2" NCoef="0" IVar="4" Cut="3.1428570747375488e+00" cType="1" res="-1.4124840497970581e-01" rms="3.3350548148155212e-01" purity="1.3648237287998199e-01" nType="0">
            <Node pos="l" depth="3" NCoef="0" IVar="1" Cut="-1.8370572328567505e+00" cType="1" res="-1.5241190791130066e-01" rms="3.1424811482429504e-01" purity="1.1491343379020691e-01" nType="0">
              <Node pos="l" depth="4" NCoef="0" IVar="-1" Cut="0.0000000000000000e+00" cType="1" res="-5.6535042822360992e-02" rms="2.0100530982017517e-01" purity="4.2848810553550720e-02" nType="-99"/>
              <Node pos="r" depth="4" NCoef="0" IVar="-1" Cut="0.0000000000000000e+00" cType="1" res="-3.6570470780134201e-02" rms="3.2583537697792053e-01" purity="1.2490365654230118e-01" nType="-99"/>
            </Node>
            <Node pos="r" depth="3" NCoef="0" IVar="-1" Cut="0.0000000000000000e+00" cType="1" res="-6.8161464296281338e-03" rms="4.6914538741111755e-01" purity="3.4745770692825317e-01" nType="-99"/>
          </Node>
          <Node pos="r" depth="2" NCoef="0" IVar="3" Cut="1.7142856597900391e+01" cType="1" res="2.6545895263552666e-02" rms="4.8888990283012390e-01" purity="5.7796233892440796e-01" nType="0">
            <Node pos="l" depth="3" NCoef="0" IVar="-1" Cut="0.0000000000000000e+00" cType="1" res="1.0251913219690323e-02" rms="4.8454415798187256e-01" purity="6.0742259025573730e-01" nType="-99"/>
            <Node pos="r" depth="3" NCoef="0" IVar="-1" Cut="0.0000000000000000e+00" cType="1" res="-3.5772412084043026e-03" rms="4.9377185106277466e-01" purity="5.2351421117782593e-01" nType="-99"/>
          </Node>
        </Node>
        <Node pos="r" depth="1" NCoef="0" IVar="5" Cut="3.6906808471679688e+02" cType="1" res="9.2219896614551544e-02" rms="3.9724090695381165e-01" purity="7.3835223913192749e-01" nType="0">
          <Node pos="l" depth="2" NCoef="0" IVar="5" Cut="5.6993324279785156e+01" cType="1" res="6.3987843692302704e-02" rms="4.1785293817520142e-01" purity="6.9645273685455322e-01" nType="0">
            <Node pos="l" depth="3" NCoef="0" IVar="4" Cut="6.2380952835083008e+00" cType="1" res="-4.0810111910104752e-02" rms="4.6327221393585205e-01" purity="5.4919058084487915e-01" nType="0">
              <Node pos="l" depth="4" NCoef="0" IVar="-1" Cut="0.0000000000000000e+00" cType="1" res="-2.1286565810441971e-02" rms="4.8016810417175293e-01" purity="4.3498605489730835e-01" nType="-99"/>
              <Node pos="r" depth="4" NCoef="0" IVar="-1" Cut="0.0000000000000000e+00" cType="1" res="2.5457212701439857e-02" rms="3.8395148515701294e-01" purity="8.1509506702423096e-01" nType="-99"/>
            </Node>
            <Node pos="r" depth="3" NCoef="0" IVar="5" Cut="1.3126075744628906e+02" cType="1" res="1.6739787161350250e-01" rms="3.3701670169830322e-01" purity="8.4176450967788696e-01" nType="0">
              <Node pos="l" depth="4" NCoef="0" IVar="-1" Cut="0.0000000000000000e+00" cType="1" res="2.9267443343997002e-02" rms="3.8296526670455933e-01" purity="7.7749657630920410e-01" nType="-99"/>
              <Node pos="r" depth="4" NCoef="0" IVar="-1" Cut="0.0000000000000000e+00" cType="1" res="5.1846083253622055e-02" rms="2.8135392069816589e-01" purity="9.0193146467208862e-01" nType="-99"/>
            </Node>
          </Node>
          <Node pos="r" depth="2" NCoef="0" IVar="4" Cut="5.3333334922790527e+00" cType="1" res="2.4020190536975861e-01" rms="2.0895096659660339e-01" purity="9.5797389745712280e-01" nType="0">
            <Node pos="l" depth="3" NCoef="0" IVar="-1" Cut="0.0000000000000000e+00" cType="1" res="7.1372367441654205e-02" rms="2.7001112699508667e-01" purity="9.2041385173797607e-01" nType="-99"/>
            <Node pos="r" depth="3" NCoef="0" IVar="2" Cut="1.9047619402408600e-01" cType="1" res="1.9475664198398590e-01" rms="1.5164408087730408e-01" purity="9.7647660970687866e-01" nType="0">
              <Node pos="l" depth="4" NCoef="0" IVar="-1" Cut="0.0000000000000000e+00" cType="1" res="5.9111438691616058e-02" rms="1.2702059745788574e-01" purity="9.8372429609298706e-01" nType="-99"/>
              <Node pos="r" depth="4" NCoef="0" IVar="-1" Cut="0.0000000000000000e+00" cType="1" res="5.4823528975248337e-02" rms="1.7616049945354462e-01" purity="9.6789997816085815e-01" nType="-99"/>
            </Node>
          </Node>
        </Node>
      </Node>
    </BinaryTree>
    <BinaryTree type="DecisionTree" boostWeight="1.0000000000000000e+00" itree="10">
      <Node pos="s" depth="0" NCoef="0" IVar="6" Cut="4.7619048506021500e-02" cType="1" res="-3.7922780029475689e-04" rms="3.9049750566482544e-01" purity="4.9821880459785461e-01" nType="0">
        <Node pos="l" depth="1" NCoef="0" IVar="4" Cut="6.4285712242126465e+00" cType="1" res="-1.0397320240736008e-01" rms="3.6470964550971985e-01" purity="2.0656441152095795e-01" nType="0">
          <Node pos="l" depth="2" NCoef="0" IVar="4" Cut="2.2857143878936768e+00" cType="1" res="-1.3142538070678711e-01" rms="3.2883974909782410e-01" purity="1.3191755115985870e-01" nType="0">
            <Node pos="l" depth="3" NCoef="0" IVar="3" Cut="1.1000000000000000e+01" cType="1" res="-1.4429271221160889e-01" rms="3.0389043688774109e-01" purity="1.0616108030080795e-01" nType="0">
              <Node pos="l" depth="4" NCoef="0" IVar="-1" Cut="0.0000000000000000e+00" cType="1" res="-2.8914526104927063e-02" rms="3.5135734081268311e-01" purity="1.4753480255603790e-01" nType="-99"/>
              <Node pos="r" depth="4" NCoef="0" IVar="-1" Cut="0.0000000000000000e+00" cType="1" res="-4.1516967117786407e-02" rms="2.8680464625358582e-01" purity="9.3346521258354187e-02" nType="-99"/>
            </Node>
            <Node pos="r" depth="3" NCoef="0" IVar="3" Cut="1.6619047164916992e+01" cType="1" res="-5.5888179689645767e-02" rms="4.4060176610946655e-01" purity="2.8311997652053833e-01" nType="0">
              <Node pos="l" depth="4" NCoef="0" IVar="-1" Cut="0.0000000000000000e+00" cType="1" res="-5.1170187070965767e-03" rms="4.5723116397857666e-01" purity="3.2240390777587891e-01" nType="-99"/>
              <Node pos="r" depth="4" NCoef="0" IVar="-1" Cut="0.0000000000000000e+00" cType="1" res="-2.1738242357969284e-02" rms="4.1642904281616211e-01" purity="2.3613113164901733e-01" nType="-99"/>
            </Node>
          </Node>
          <Node pos="r" depth="2" NCoef="0" IVar="2" Cut="2.3809523880481720e-01" cType="1" res="3.7324938923120499e-02" rms="4.8704749345779419e-01" purity="5.9077650308609009e-01" nType="0">
            <Node pos="l" depth="3" NCoef="0" IVar="-1" Cut="0.0000000000000000e+00" cType="1" res="1.1041684076189995e-02" rms="4.8169595003128052e-01" purity="6.2172764539718628e-01" nType="-99"/>
            <Node pos="r" depth="3" NCoef="0" IVar="-1" Cut="0.0000000000000000e+00" cType="1" res="1.9772434607148170e-03" rms="4.9443712830543518e-01" purity="5.4020559787750244e-01" nType="-99"/>
          </Node>
        </Node>
        <Node pos="r" depth="1" NCoef="0" IVar="4" Cut="4.5714287757873535e+00" cType="1" res="8.5654579102993011e-02" rms="3.9031761884689331e-01" purity="7.4043494462966919e-01" nType="0">
          <Node pos="l" depth="2" NCoef="0" IVar="3" Cut="1.5857142448425293e+01" cType="1" res="1.8246186897158623e-02" rms="4.7563484311103821e-01" purity="5.5794608592987061e-01" nType="0">
            <Node pos="l" depth="3" NCoef="0" IVar="4" Cut="1.1428571939468384e+00" cType="1" res="4.0374055504798889e-02" rms="4.7472804784774780e-01" purity="5.8302861452102661e-01" nType="0">
              <Node pos="l" depth="4" NCoef="0" IVar="-1" Cut="0.0000000000000000e+00" cType="1" res="2.7999454177916050e-03" rms="4.8906150460243225e-01" purity="5.2016228437423706e-01" nType="-99"/>
              <Node pos="r" depth="4" NCoef="0" IVar="-1" Cut="0.0000000000000000e+00" cType="1" res="2.3370647802948952e-02" rms="4.2903152108192444e-01" purity="7.4233895540237427e-01" nType="-99"/>
            </Node>
            <Node pos="r" depth="3" NCoef="0" IVar="4" Cut="1.1428571939468384e+00" cType="1" res="-6.0046672821044922e-02" rms="4.7054794430732727e-01" purity="4.6919915080070496e-01" nType="0">
              <Node pos="l" depth="4" NCoef="0" IVar="-1" Cut="0.0000000000000000e+00" cType="1" res="-2.1324343979358673e-02" rms="4.6492928266525269e-01" purity="3.4990561008453369e-01" nType="-99"/>
              <Node pos="r" depth="4" NCoef="0" IVar="-1" Cut="0.0000000000000000e+00" cType="1" res="-1.2542267795652151e-03" rms="4.7152251005172729e-01" purity="6.1221742630004883e-01" nType="-99"/>
            </Node>
          </Node>
          <Node pos="r" depth="2" NCoef="0" IVar="5" Cut="4.3440985107421875e+02" cType="1" res="1.4923684298992157e-01" rms="2.7263897657394409e-01" purity="9.1256564855575562e-01" nType="0">
            <Node pos="l" depth="3" NCoef="0" IVar="5" Cut="2.5449333190917969e+01" cType="1" res="1.4050358533859253e-01" rms="2.9601716995239258e-01" purity="8.9590650796890259e-01" nType="0">
              <Node pos="l" depth="4" NCoef="0" IVar="-1" Cut="0.0000000000000000e+00" cType="1" res="8.1912176683545113e-03" rms="4.4090023636817932e-01" purity="7.2887295484542847e-01" nType="-99"/>
              <Node pos="r" depth="4" NCoef="0" IVar="-1" Cut="0.0000000000000000e+00" cType="1" res="4.6400569379329681e-02" rms="2.4604627490043640e-01" purity="9.3346250057220459e-01" nType="-99"/>
            </Node>
            <Node pos="r" depth="3" NCoef="0" IVar="-1" Cut="0.0000000000000000e+00" cType="1" res="5.8392047882080078e-02" rms="1.1776632815599442e-01" purity="9.8605191707611084e-01" nType="-99"/>
          </Node>
        </Node>
      </Node>
    </BinaryTree>
    <BinaryTree type="DecisionTree" boostWeight="1.0000000000000000e+00" itree="11">
      <Node pos="s" depth="0" NCoef="0" IVar="6" Cut="4.7619048506021500e-02" cType="1" res="7.9715915489941835e-04" rms="3.8728758692741394e-01" purity="5.0120455026626587e-01" nType="0">
        <Node pos="l" depth="1" NCoef="0" IVar="4" Cut="6.2857141494750977e+00" cType="1" res="-9.4788461923599243e-02" rms="3.6444759368896484e-01" purity="2.0593531429767609e-01" nType="0">
          <Node pos="l" depth="2" NCoef="0" IVar="4" Cut="3.1428570747375488e+00" cType="1" res="-1.1790665239095688e-01" rms="3.2971519231796265e-01" purity="1.3306827843189240e-01" nType="0">
            <Node pos="l" depth="3" NCoef="0" IVar="1" Cut="9.7305226325988770e-01" cType="1" res="-1.2600576877593994e-01" rms="3.1175386905670166e-01" purity="1.1287595331668854e-01" nType="0">
              <Node pos="l" depth="4" NCoef="0" IVar="-1" Cut="0.0000000000000000e+00" cType="1" res="-3.0753023922443390e-02" rms="3.3077546954154968e-01" purity="1.2943792343139648e-01" nType="-99"/>
              <Node pos="r" depth="4" NCoef="0" IVar="-1" Cut="0.0000000000000000e+00" cType="1" res="-4.4237636029720306e-02" rms="2.5947514176368713e-01" purity="7.4278078973293304e-02" nType="-99"/>
            </Node>
            <Node pos="r" depth="3" NCoef="0" IVar="-1" Cut="0.0000000000000000e+00" cType="1" res="-8.2378527149558067e-03" rms="4.6361491084098816e-01" purity="3.3146405220031738e-01" nType="-99"/>
          </Node>
          <Node pos="r" depth="2" NCoef="0" IVar="1" Cut="-4.4775882363319397e-01" cType="1" res="2.3847358301281929e-02" rms="4.8962238430976868e-01" purity="5.7986772060394287e-01" nType="0">
            <Node pos="l" depth="3" NCoef="0" IVar="-1" Cut="0.0000000000000000e+00" cType="1" res="-1.7771931597962976e-03" rms="4.9391525983810425e-01" purity="5.4311567544937134e-01" nType="-99"/>
            <Node pos="r" depth="3" NCoef="0" IVar="-1" Cut="0.0000000000000000e+00" cType="1" res="8.4155863150954247e-03" rms="4.8639270663261414e-01" purity="5.9964311122894287e-01" nType="-99"/>
          </Node>
        </Node>
        <Node pos="r" depth="1" NCoef="0" IVar="4" Cut="6.2380952835083008e+00" cType="1" res="7.9441338777542114e-02" rms="3.8783508539199829e-01" purity="7.4414080381393433e-01" nType="0">
          <Node pos="l" depth="2" NCoef="0" IVar="4" Cut="2.8571429848670959e-01" cType="1" res="2.8290428221225739e-02" rms="4.6267643570899963e-01" purity="5.9719234704971313e-01" nType="0">
            <Node pos="l" depth="3" NCoef="0" IVar="3" Cut="1.0666666984558105e+01" cType="1" res="-1.6308100894093513e-02" rms="4.8618373274803162e-01" purity="4.6942090988159180e-01" nType="0">
              <Node pos="l" depth="4" NCoef="0" IVar="-1" Cut="0.0000000000000000e+00" cType="1" res="9.1897631064057350e-03" rms="4.8970022797584534e-01" purity="5.9026962518692017e-01" nType="-99"/>
              <Node pos="r" depth="4" NCoef="0" IVar="-1" Cut="0.0000000000000000e+00" cType="1" res="-1.2210778892040253e-02" rms="4.7886341810226440e-01" purity="3.8377347588539124e-01" nType="-99"/>
            </Node>
            <Node pos="r" depth="3" NCoef="0" IVar="5" Cut="4.0319338989257812e+02" cType="1" res="5.8225385844707489e-02" rms="4.4369685649871826e-01" purity="6.8295377492904663e-01" nType="0">
              <Node pos="l" depth="4" NCoef="0" IVar="-1" Cut="0.0000000000000000e+00" cType="1" res="5.1505682058632374e-03" rms="4.6098232269287109e-01" purity="6.3876640796661377e-01" nType="-99"/>
              <Node pos="r" depth="4" NCoef="0" IVar="-1" Cut="0.0000000000000000e+00" cType="1" res="6.2627650797367096e-02" rms="2.3659460246562958e-01" purity="9.4346457719802856e-01" nType="-99"/>
            </Node>
          </Node>
          <Node pos="r" depth="2" NCoef="0" IVar="4" Cut="1.2904762268066406e+01" cType="1" res="1.4294019341468811e-01" rms="2.5321218371391296e-01" purity="9.2656290531158447e-01" nType="0">
            <Node pos="l" depth="3" NCoef="0" IVar="5" Cut="3.2491241455078125e+02" cType="1" res="1.2222303450107574e-01" rms="2.8161939978599548e-01" purity="9.0637814998626709e-01" nType="0">
              <Node pos="l" depth="4" NCoef="0" IVar="-1" Cut="0.0000000000000000e+00" cType="1" res="2.9745357111096382e-02" rms="3.2248950004577637e-01" purity="8.7480819225311279e-01" nType="-99"/>
              <Node pos="r" depth="4" NCoef="0" IVar="-1" Cut="0.0000000000000000e+00" cType="1" res="5.5149439722299576e-02" rms="1.3288927078247070e-01" purity="9.8194265365600586e-01" nType="-99"/>
            </Node>
            <Node pos="r" depth="3" NCoef="0" IVar="2" Cut="2.3809523880481720e-01" cType="1" res="1.5740528702735901e-01" rms="2.3021604120731354e-01" purity="9.4065630435943604e-01" nType="0">
              <Node pos="l" depth="4" NCoef="0" IVar="-1" Cut="0.0000000000000000e+00" cType="1" res="4.9294572323560715e-02" rms="2.1334584057331085e-01" purity="9.4930005073547363e-01" nType="-99"/>
              <Node pos="r" depth="4" NCoef="0" IVar="-1" Cut="0.0000000000000000e+00" cType="1" res="4.3348819017410278e-02" rms="2.5091269612312317e-01" purity="9.2889785766601562e-01" nType="-99"/>
            </Node>
          </Node>
        </Node>
      </Node>
    </BinaryTree>
    <BinaryTree type="DecisionTree" boostWeight="1.0000000000000000e+00" itree="12">
      <Node pos="s" depth="0" NCoef="0" IVar="6" Cut="4.7619048506021500e-02" cType="1" res="1.6264907317236066e-03" rms="3.8500499725341797e-01" purity="5.0102400779724121e-01" nType="0">
        <Node pos="l" depth="1" NCoef="0" IVar="4" Cut="6.3333334922790527e+00" cType="1" res="-8.2134410738945007e-02" rms="3.6504957079887390e-01" purity="2.0797149837017059e-01" nType="0">
          <Node pos="l" depth="2" NCoef="0" IVar="4" Cut="2.2857143878936768e+00" cType="1" res="-1.0235143452882767e-01" rms="3.3317357301712036e-01" purity="1.3678386807441711e-01" nType="0">
            <Node pos="l" depth="3" NCoef="0" IVar="3" Cut="1.2333333015441895e+01" cType="1" res="-1.1528924107551575e-01" rms="3.0731639266014099e-01" purity="1.0885805636644363e-01" nType="0">
              <Node pos="l" depth="4" NCoef="0" IVar="-1" Cut="0.0000000000000000e+00" cType="1" res="-2.4955468252301216e-02" rms="3.4706100821495056e-01" purity="1.4374761283397675e-01" nType="-99"/>
              <Node pos="r" depth="4" NCoef="0" IVar="-1" Cut="0.0000000000000000e+00" cType="1" res="-3.8769353181123734e-02" rms="2.7724838256835938e-01" purity="8.6264744400978088e-02" nType="-99"/>
            </Node>
            <Node pos="r" depth="3" NCoef="0" IVar="1" Cut="-9.1145776212215424e-02" cType="1" res="-2.7123391628265381e-02" rms="4.4796088337898254e-01" purity="2.9916107654571533e-01" nType="0">
              <Node pos="l" depth="4" NCoef="0" IVar="-1" Cut="0.0000000000000000e+00" cType="1" res="-1.2026316486299038e-02" rms="4.3219456076622009e-01" purity="2.6819697022438049e-01" nType="-99"/>
              <Node pos="r" depth="4" NCoef="0" IVar="-1" Cut="0.0000000000000000e+00" cType="1" res="-1.1412297608330846e-03" rms="4.6058675646781921e-01" purity="3.2706242799758911e-01" nType="-99"/>
            </Node>
          </Node>
          <Node pos="r" depth="2" NCoef="0" IVar="1" Cut="2.1402198076248169e-01" cType="1" res="2.4924380704760551e-02" rms="4.8733398318290710e-01" purity="5.8494400978088379e-01" nType="0">
            <Node pos="l" depth="3" NCoef="0" IVar="-1" Cut="0.0000000000000000e+00" cType="1" res="9.1230403631925583e-03" rms="4.8348343372344971e-01" purity="6.0485339164733887e-01" nType="-99"/>
            <Node pos="r" depth="3" NCoef="0" IVar="-1" Cut="0.0000000000000000e+00" cType="1" res="-4.2953211232088506e-04" rms="4.9122563004493713e-01" purity="5.5790281295776367e-01" nType="-99"/>
          </Node>
        </Node>
        <Node pos="r" depth="1" NCoef="0" IVar="4" Cut="6.2380952835083008e+00" cType="1" res="7.0085398852825165e-02" rms="3.8735166192054749e-01" purity="7.4053966999053955e-01" nType="0">
          <Node pos="l" depth="2" NCoef="0" IVar="4" Cut="2.2857143878936768e+00" cType="1" res="2.5909356772899628e-02" rms="4.5969265699386597e-01" purity="5.9638303518295288e-01" nType="0">
            <Node pos="l" depth="3" NCoef="0" IVar="3" Cut="1.3714285850524902e+01" cType="1" res="-1.8280633958056569e-03" rms="4.8395338654518127e-01" purity="5.1090812683105469e-01" nType="0">
              <Node pos="l" depth="4" NCoef="0" IVar="-1" Cut="0.0000000000000000e+00" cType="1" res="6.8572727032005787e-03" rms="4.8445883393287659e-01" purity="5.6449997425079346e-01" nType="-99"/>
              <Node pos="r" depth="4" NCoef="0" IVar="-1" Cut="0.0000000000000000e+00" cType="1" res="-1.3852257281541824e-02" rms="4.7602784633636475e-01" purity="4.1156855225563049e-01" nType="-99"/>
            </Node>
            <Node pos="r" depth="3" NCoef="0" IVar="2" Cut="2.3809523880481720e-01" cType="1" res="9.1263063251972198e-02" rms="3.8896366953849792e-01" purity="7.9777532815933228e-01" nType="0">
              <Node pos="l" depth="4" NCoef="0" IVar="-1" Cut="0.0000000000000000e+00" cType="1" res="2.7757924050092697e-02" rms="3.7035539746284485e-01" purity="8.2222431898117065e-01" nType="-99"/>
              <Node pos="r" depth="4" NCoef="0" IVar="-1" Cut="0.0000000000000000e+00" cType="1" res="1.4519684016704559e-02" rms="4.1223934292793274e-01" purity="7.6261276006698608e-01" nType="-99"/>
            </Node>
          </Node>
          <Node pos="r" depth="2" NCoef="0" IVar="5" Cut="3.3715734863281250e+02" cType="1" res="1.2601509690284729e-01" rms="2.5857898592948914e-01" purity="9.2305123805999756e-01" nType="0">
            <Node pos="l" depth="3" NCoef="0" IVar="5" Cut="2.0827701568603516e+01" cType="1" res="1.1861192435026169e-01" rms="2.8823041915893555e-01" purity="9.0350204706192017e-01" nType="0">
              <Node pos="l" depth="4" NCoef="0" IVar="-1" Cut="0.0000000000000000e+00" cType="1" res="9.7958454862236977e-03" rms="4.3017050623893738e-01" purity="7.5340187549591064e-01" nType="-99"/>
              <Node pos="r" depth="4" NCoef="0" IVar="-1" Cut="0.0000000000000000e+00" cType="1" res="4.1933260858058929e-02" rms="2.4739563465118408e-01" purity="9.3351811170578003e-01" nType="-99"/>
            </Node>
            <Node pos="r" depth="3" NCoef="0" IVar="2" Cut="1.9047619402408600e-01" cType="1" res="1.4913803339004517e-01" rms="1.2456178665161133e-01" purity="9.8411071300506592e-01" nType="0">
              <Node pos="l" depth="4" NCoef="0" IVar="-1" Cut="0.0000000000000000e+00" cType="1" res="5.6340936571359634e-02" rms="9.5349289476871490e-02" purity="9.9080812931060791e-01" nType="-99"/>
              <Node pos="r" depth="4" NCoef="0" IVar="-1" Cut="0.0000000000000000e+00" cType="1" res="5.1595058292150497e-02" rms="1.5171205997467041e-01" purity="9.7624242305755615e-01" nType="-99"/>
            </Node>
          </Node>
        </Node>
      </Node>
    </BinaryTree>
    <BinaryTree type="DecisionTree" boostWeight="1.0000000000000000e+00" itree="13">
      <Node pos="s" depth="0" NCoef="0" IVar="6" Cut="4.7619048506021500e-02" cType="1" res="-3.6174984415993094e-05" rms="3.8073915243148804e-01" purity="5.0081318616867065e-01" nType="0">
        <Node pos="l" depth="1" NCoef="0" IVar="4" Cut="6.4285712242126465e+00" cType="1" res="-7.7129118144512177e-02" rms="3.6180901527404785e-01" purity="2.0664796233177185e-01" nType="0">
          <Node pos="l" depth="2" NCoef="0" IVar="1" Cut="-1.8283028602600098e+00" cType="1" res="-9.7883760929107666e-02" rms="3.2762974500656128e-01" purity="1.3107393682003021e-01" nType="0">
            <Node pos="l" depth="3" NCoef="0" IVar="-1" Cut="0.0000000000000000e+00" cType="1" res="-4.6425808221101761e-02" rms="2.3296365141868591e-01" purity="5.9596866369247437e-02" nType="-99"/>
            <Node pos="r" depth="3" NCoef="0" IVar="0" Cut="2.8422617912292480e+00" cType="1" res="-8.9986763894557953e-02" rms="3.3783149719238281e-01" purity="1.4091187715530396e-01" nType="0">
              <Node pos="l" depth="4" NCoef="0" IVar="-1" Cut="0.0000000000000000e+00" cType="1" res="-3.4012198448181152e-02" rms="3.0536183714866638e-01" purity="1.0919326543807983e-01" nType="-99"/>
              <Node pos="r" depth="4" NCoef="0" IVar="-1" Cut="0.0000000000000000e+00" cType="1" res="5.5426865816116333e-02" rms="4.8838466405868530e-01" purity="4.8376610875129700e-01" nType="-99"/>
            </Node>
          </Node>
          <Node pos="r" depth="2" NCoef="0" IVar="3" Cut="1.5857142448425293e+01" cType="1" res="2.8156643733382225e-02" rms="4.8700654506683350e-01" purity="5.9002578258514404e-01" nType="0">
            <Node pos="l" depth="3" NCoef="0" IVar="-1" Cut="0.0000000000000000e+00" cType="1" res="8.1499398220330477e-04" rms="4.9022918939590454e-01" purity="5.7273668050765991e-01" nType="-99"/>
            <Node pos="r" depth="3" NCoef="0" IVar="-1" Cut="0.0000000000000000e+00" cType="1" res="8.9301466941833496e-03" rms="4.8424094915390015e-01" purity="6.0131216049194336e-01" nType="-99"/>
          </Node>
        </Node>
        <Node pos="r" depth="1" NCoef="0" IVar="4" Cut="6.2380952835083008e+00" cType="1" res="6.3278906047344208e-02" rms="3.8420924544334412e-01" purity="7.4240601062774658e-01" nType="0">
          <Node pos="l" depth="2" NCoef="0" IVar="4" Cut="2.8571429848670959e-01" cType="1" res="2.0611826330423355e-02" rms="4.5931127667427063e-01" purity="5.9360837936401367e-01" nType="0">
            <Node pos="l" depth="3" NCoef="0" IVar="3" Cut="1.0666666984558105e+01" cType="1" res="-2.8331521898508072e-02" rms="4.8380574584007263e-01" purity="4.5582476258277893e-01" nType="0">
              <Node pos="l" depth="4" NCoef="0" IVar="-1" Cut="0.0000000000000000e+00" cType="1" res="6.1840810813009739e-03" rms="4.9103254079818726e-01" purity="5.8280968666076660e-01" nType="-99"/>
              <Node pos="r" depth="4" NCoef="0" IVar="-1" Cut="0.0000000000000000e+00" cType="1" res="-1.4162724837660789e-02" rms="4.7437778115272522e-01" purity="3.6713662743568420e-01" nType="-99"/>
            </Node>
            <Node pos="r" depth="3" NCoef="0" IVar="3" Cut="1.3285714149475098e+01" cType="1" res="5.4409261792898178e-02" rms="4.3842685222625732e-01" purity="6.8875372409820557e-01" nType="0">
              <Node pos="l" depth="4" NCoef="0" IVar="-1" Cut="0.0000000000000000e+00" cType="1" res="1.9370365887880325e-02" rms="4.3454310297966003e-01" purity="7.1952867507934570e-01" nType="-99"/>
              <Node pos="r" depth="4" NCoef="0" IVar="-1" Cut="0.0000000000000000e+00" cType="1" res="5.5137942545115948e-03" rms="4.3975794315338135e-01" purity="6.6076457500457764e-01" nType="-99"/>
            </Node>
          </Node>
          <Node pos="r" depth="2" NCoef="0" IVar="2" Cut="2.3809523880481720e-01" cType="1" res="1.1589756608009338e-01" rms="2.5392362475395203e-01" purity="9.2590874433517456e-01" nType="0">
            <Node pos="l" depth="3" NCoef="0" IVar="4" Cut="1.1142857551574707e+01" cType="1" res="1.2839883565902710e-01" rms="2.3107765614986420e-01" purity="9.3980056047439575e-01" nType="0">
              <Node pos="l" depth="4" NCoef="0" IVar="-1" Cut="0.0000000000000000e+00" cType="1" res="3.8088932633399963e-02" rms="2.5477498769760132e-01" purity="9.2562055587768555e-01" nType="-99"/>
              <Node pos="r" depth="4" NCoef="0" IVar="-1" Cut="0.0000000000000000e+00" cType="1" res="4.4722836464643478e-02" rms="2.1693041920661926e-01" purity="9.4745558500289917e-01" nType="-99"/>
            </Node>
            <Node pos="r" depth="3" NCoef="0" IVar="5" Cut="3.2611489868164062e+02" cType="1" res="9.8695807158946991e-02" rms="2.8144764900207520e-01" purity="9.0679377317428589e-01" nType="0">
              <Node pos="l" depth="4" NCoef="0" IVar="-1" Cut="0.0000000000000000e+00" cType="1" res="2.6914875954389572e-02" rms="3.1512457132339478e-01" purity="8.8122475147247314e-01" nType="-99"/>
              <Node pos="r" depth="4" NCoef="0" IVar="-1" Cut="0.0000000000000000e+00" cType="1" res="4.9519896507263184e-02" rms="1.5634819865226746e-01" purity="9.7485178709030151e-01" nType="-99"/>
            </Node>
          </Node>
        </Node>
      </Node>
    </BinaryTree>
    <BinaryTree type="DecisionTree" boostWeight="1.0000000000000000e+00" itree="14">
      <Node pos="s" depth="0" NCoef="0" IVar="6" Cut="4.7619048506021500e-02" cType="1" res="-4.4112923205830157e-04" rms="3.7981361150741577e-01" purity="5.0081157684326172e-01" nType="0">
        <Node pos="l" depth="1" NCoef="0" IVar="4" Cut="6.2857141494750977e+00" cType="1" res="-6.8247221410274506e-02" rms="3.6212831735610962e-01" purity="2.0902757346630096e-01" nType="0">
          <Node pos="l" depth="2" NCoef="0" IVar="4" Cut="2.8571429848670959e-01" cType="1" res="-8.5878878831863403e-02" rms="3.2815453410148621e-01" purity="1.3349030911922455e-01" nType="0">
            <Node pos="l" depth="3" NCoef="0" IVar="3" Cut="1.0714285850524902e+01" cType="1" res="-1.0543132573366165e-01" rms="2.9067412018775940e-01" purity="9.7598522901535034e-02" nType="0">
              <Node pos="l" depth="4" NCoef="0" IVar="-1" Cut="0.0000000000000000e+00" cType="1" res="-1.9636252894997597e-02" rms="3.5286700725555420e-01" purity="1.5145187079906464e-01" nType="-99"/>
              <Node pos="r" depth="4" NCoef="0" IVar="-1" Cut="0.0000000000000000e+00" cType="1" res="-3.7462882697582245e-02" rms="2.6478606462478638e-01" purity="7.9170778393745422e-02" nType="-99"/>
            </Node>
            <Node pos="r" depth="3" NCoef="0" IVar="3" Cut="1.6333333969116211e+01" cType="1" res="-5.5926147848367691e-02" rms="3.7647554278373718e-01" purity="1.8847356736660004e-01" nType="0">
              <Node pos="l" depth="4" NCoef="0" IVar="-1" Cut="0.0000000000000000e+00" cType="1" res="-9.0069612488150597e-03" rms="3.9580190181732178e-01" purity="2.1697615087032318e-01" nType="-99"/>
              <Node pos="r" depth="4" NCoef="0" IVar="-1" Cut="0.0000000000000000e+00" cType="1" res="-2.4619886651635170e-02" rms="3.4616324305534363e-01" purity="1.4984759688377380e-01" nType="-99"/>
            </Node>
          </Node>
          <Node pos="r" depth="2" NCoef="0" IVar="1" Cut="-3.3700284361839294e-01" cType="1" res="1.9133975729346275e-02" rms="4.8804175853729248e-01" purity="5.8338463306427002e-01" nType="0">
            <Node pos="l" depth="3" NCoef="0" IVar="-1" Cut="0.0000000000000000e+00" cType="1" res="-2.7195587754249573e-03" rms="4.9278238415718079e-01" purity="5.4598474502563477e-01" nType="-99"/>
            <Node pos="r" depth="3" NCoef="0" IVar="-1" Cut="0.0000000000000000e+00" cType="1" res="7.8880805522203445e-03" rms="4.8413199186325073e-01" purity="6.0580694675445557e-01" nType="-99"/>
          </Node>
        </Node>
        <Node pos="r" depth="1" NCoef="0" IVar="5" Cut="4.3440502929687500e+02" cType="1" res="5.4860685020685196e-02" rms="3.8490515947341919e-01" purity="7.3878699541091919e-01" nType="0">
          <Node pos="l" depth="2" NCoef="0" IVar="5" Cut="4.5877147674560547e+01" cType="1" res="3.5376533865928650e-02" rms="4.0366411209106445e-01" purity="7.0271152257919312e-01" nType="0">
            <Node pos="l" depth="3" NCoef="0" IVar="4" Cut="6.2380952835083008e+00" cType="1" res="-6.6698938608169556e-02" rms="4.5808941125869751e-01" purity="5.3094828128814697e-01" nType="0">
              <Node pos="l" depth="4" NCoef="0" IVar="-1" Cut="0.0000000000000000e+00" cType="1" res="-2.3732889443635941e-02" rms="4.7633901238441467e-01" purity="4.1849285364151001e-01" nType="-99"/>
              <Node pos="r" depth="4" NCoef="0" IVar="-1" Cut="0.0000000000000000e+00" cType="1" res="1.4684755355119705e-02" rms="3.8307446241378784e-01" purity="8.1561660766601562e-01" nType="-99"/>
            </Node>
            <Node pos="r" depth="3" NCoef="0" IVar="5" Cut="1.0135430145263672e+02" cType="1" res="1.1006686836481094e-01" rms="3.3974054455757141e-01" purity="8.2839351892471313e-01" nType="0">
              <Node pos="l" depth="4" NCoef="0" IVar="-1" Cut="0.0000000000000000e+00" cType="1" res="1.3277145102620125e-02" rms="4.0085747838020325e-01" purity="7.2598880529403687e-01" nType="-99"/>
              <Node pos="r" depth="4" NCoef="0" IVar="-1" Cut="0.0000000000000000e+00" cType="1" res="4.2405236512422562e-02" rms="2.8891280293464661e-01" purity="8.9298629760742188e-01" nType="-99"/>
            </Node>
          </Node>
          <Node pos="r" depth="2" NCoef="0" IVar="4" Cut="8.0000000000000000e+00" cType="1" res="1.7817731201648712e-01" rms="1.9214051961898804e-01" purity="9.6711164712905884e-01" nType="0">
            <Node pos="l" depth="3" NCoef="0" IVar="-1" Cut="0.0000000000000000e+00" cType="1" res="6.1962824314832687e-02" rms="2.4977235496044159e-01" purity="9.3966591358184814e-01" nType="-99"/>
            <Node pos="r" depth="3" NCoef="0" IVar="-1" Cut="0.0000000000000000e+00" cType="1" res="5.3658649325370789e-02" rms="1.0042835026979446e-01" purity="9.8980969190597534e-01" nType="-99"/>
          </Node>
        </Node>
      </Node>
    </BinaryTree>
    <BinaryTree type="DecisionTree" boostWeight="1.0000000000000000e+00" itree="15">
      <Node pos="s" depth="0" NCoef="0" IVar="6" Cut="4.7619048506021500e-02" cType="1" res="-1.3769344659522176e-03" rms="3.7747168540954590e-01" purity="4.9702888727188110e-01" nType="0">
        <Node pos="l" depth="1" NCoef="0" IVar="4" Cut="6.4285712242126465e+00" cType="1" res="-6.0739357024431229e-02" rms="3.5948032140731812e-01" purity="2.0792680978775024e-01" nType="0">
          <Node pos="l" depth="2" NCoef="0" IVar="1" Cut="1.8133751153945923e+00" cType="1" res="-7.8782670199871063e-02" rms="3.2639214396476746e-01" purity="1.3232627511024475e-01" nType="0">
            <Node pos="l" depth="3" NCoef="0" IVar="1" Cut="-9.0768146514892578e-01" cType="1" res="-6.9796897470951080e-02" rms="3.3816114068031311e-01" purity="1.4377123117446899e-01" nType="0">
              <Node pos="l" depth="4" NCoef="0" IVar="-1" Cut="0.0000000000000000e+00" cType="1" res="-3.4165330231189728e-02" rms="2.8282544016838074e-01" purity="9.3538217246532440e-02" nType="-99"/>
              <Node pos="r" depth="4" NCoef="0" IVar="-1" Cut="0.0000000000000000e+00" cType="1" res="-1.4084267430007458e-02" rms="3.6385411024093628e-01" purity="1.7215032875537872e-01" nType="-99"/>
            </Node>
            <Node pos="r" depth="3" NCoef="0" IVar="-1" Cut="0.0000000000000000e+00" cType="1" res="-4.4945113360881805e-02" rms="2.2353255748748779e-01" purity="5.5647671222686768e-02" nType="-99"/>
          </Node>
          <Node pos="r" depth="2" NCoef="0" IVar="1" Cut="4.4051289558410645e-01" cType="1" res="3.2471518963575363e-02" rms="4.8589444160461426e-01" purity="5.9847557544708252e-01" nType="0">
            <Node pos="l" depth="3" NCoef="0" IVar="-1" Cut="0.0000000000000000e+00" cType="1" res="1.0348253883421421e-02" rms="4.8146408796310425e-01" purity="6.1774379014968872e-01" nType="-99"/>
            <Node pos="r" depth="3" NCoef="0" IVar="-1" Cut="0.0000000000000000e+00" cType="1" res="-3.9264187216758728e-04" rms="4.9232718348503113e-01" purity="5.6205087900161743e-01" nType="-99"/>
          </Node>
        </Node>
        <Node pos="r" depth="1" NCoef="0" IVar="4" Cut="4.5714287757873535e+00" cType="1" res="4.7403495758771896e-02" rms="3.8484397530555725e-01" purity="7.3459541797637939e-01" nType="0">
          <Node pos="l" depth="2" NCoef="0" IVar="3" Cut="1.3285714149475098e+01" cType="1" res="5.0767352804541588e-03" rms="4.6924111247062683e-01" purity="5.5164313316345215e-01" nType="0">
            <Node pos="l" depth="3" NCoef="0" IVar="4" Cut="1.9047619402408600e-01" cType="1" res="3.1603191047906876e-02" rms="4.7242343425750732e-01" purity="5.8785575628280640e-01" nType="0">
              <Node pos="l" depth="4" NCoef="0" IVar="-1" Cut="0.0000000000000000e+00" cType="1" res="-5.9353624237701297e-04" rms="4.8865464329719543e-01" purity="5.0406861305236816e-01" nType="-99"/>
              <Node pos="r" depth="4" NCoef="0" IVar="-1" Cut="0.0000000000000000e+00" cType="1" res="1.6009319573640823e-02" rms="4.4795474410057068e-01" purity="6.9118130207061768e-01" nType="-99"/>
            </Node>
            <Node pos="r" depth="3" NCoef="0" IVar="4" Cut="2.0952382087707520e+00" cType="1" res="-3.4753043204545975e-02" rms="4.6156769990921021e-01" purity="4.9726948142051697e-01" nType="0">
              <Node pos="l" depth="4" NCoef="0" IVar="-1" Cut="0.0000000000000000e+00" cType="1" res="-1.1689306236803532e-02" rms="4.6955469250679016e-01" purity="4.1799962520599365e-01" nType="-99"/>
              <Node pos="r" depth="4" NCoef="0" IVar="-1" Cut="0.0000000000000000e+00" cType="1" res="6.1194803565740585e-03" rms="4.3300500512123108e-01" purity="7.1607899665832520e-01" nType="-99"/>
            </Node>
          </Node>
          <Node pos="r" depth="2" NCoef="0" IVar="4" Cut="9.3333330154418945e+00" cType="1" res="8.7977640330791473e-02" rms="2.7503383159637451e-01" purity="9.0997219085693359e-01" nType="0">
            <Node pos="l" depth="3" NCoef="0" IVar="2" Cut="2.3809523880481720e-01" cType="1" res="6.6168665885925293e-02" rms="3.2164853811264038e-01" purity="8.6916887760162354e-01" nType="0">
              <Node pos="l" depth="4" NCoef="0" IVar="-1" Cut="0.0000000000000000e+00" cType="1" res="2.6465572416782379e-02" rms="3.0331003665924072e-01" purity="8.8691115379333496e-01" nType="-99"/>
              <Node pos="r" depth="4" NCoef="0" IVar="-1" Cut="0.0000000000000000e+00" cType="1" res="1.3974258676171303e-02" rms="3.4538325667381287e-01" purity="8.4336990118026733e-01" nType="-99"/>
            </Node>
            <Node pos="r" depth="3" NCoef="0" IVar="2" Cut="2.3809523880481720e-01" cType="1" res="9.8572231829166412e-02" rms="2.4857284128665924e-01" purity="9.2979401350021362e-01" nType="0">
              <Node pos="l" depth="4" NCoef="0" IVar="-1" Cut="0.0000000000000000e+00" cType="1" res="3.8670253008604050e-02" rms="2.3262023925781250e-01" purity="9.3928629159927368e-01" nType="-99"/>
              <Node pos="r" depth="4" NCoef="0" IVar="-1" Cut="0.0000000000000000e+00" cType="1" res="3.1348425894975662e-02" rms="2.6852861046791077e-01" purity="9.1678357124328613e-01" nType="-99"/>
            </Node>
          </Node>
        </Node>
      </Node>
    </BinaryTree>
    <BinaryTree type="DecisionTree" boostWeight="1.0000000000000000e+00" itree="16">
      <Node pos="s" depth="0" NCoef="0" IVar="6" Cut="4.7619048506021500e-02" cType="1" res="1.0618653614073992e-03" rms="3.7625759840011597e-01" purity="5.0105440616607666e-01" nType="0">
        <Node pos="l" depth="1" NCoef="0" IVar="4" Cut="6.4285712242126465e+00" cType="1" res="-5.7210069149732590e-02" rms="3.6039489507675171e-01" purity="2.0748180150985718e-01" nType="0">
          <Node pos="l" depth="2" NCoef="0" IVar="1" Cut="1.5332674980163574e+00" cType="1" res="-7.0209018886089325e-02" rms="3.2736226916313171e-01" purity="1.3331855833530426e-01" nType="0">
            <Node pos="l" depth="3" NCoef="0" IVar="1" Cut="-1.0277500152587891e+00" cType="1" res="-5.8995459228754044e-02" rms="3.4431084990501404e-01" purity="1.4984242618083954e-01" nType="0">
              <Node pos="l" depth="4" NCoef="0" IVar="-1" Cut="0.0000000000000000e+00" cType="1" res="-3.2127801328897476e-02" rms="2.8275924921035767e-01" purity="9.1902509331703186e-02" nType="-99"/>
              <Node pos="r" depth="4" NCoef="0" IVar="-1" Cut="0.0000000000000000e+00" cType="1" res="-1.0830074548721313e-02" rms="3.7346157431602478e-01" purity="1.8331567943096161e-01" nType="-99"/>
            </Node>
            <Node pos="r" depth="3" NCoef="0" IVar="1" Cut="1.8002694845199585e+00" cType="1" res="-1.1292552947998047e-01" rms="2.4798578023910522e-01" purity="7.0373088121414185e-02" nType="0">
              <Node pos="l" depth="4" NCoef="0" IVar="-1" Cut="0.0000000000000000e+00" cType="1" res="-3.1926568597555161e-02" rms="2.7922782301902771e-01" purity="9.0612694621086121e-02" nType="-99"/>
              <Node pos="r" depth="4" NCoef="0" IVar="-1" Cut="0.0000000000000000e+00" cType="1" res="-4.1692852973937988e-02" rms="2.2870050370693207e-01" purity="5.9379503130912781e-02" nType="-99"/>
            </Node>
          </Node>
          <Node pos="r" depth="2" NCoef="0" IVar="2" Cut="2.3809523880481720e-01" cType="1" res="7.6019219122827053e-03" rms="4.8796930909156799e-01" purity="5.7725524902343750e-01" nType="0">
            <Node pos="l" depth="3" NCoef="0" IVar="-1" Cut="0.0000000000000000e+00" cType="1" res="7.2965207509696484e-03" rms="4.8095986247062683e-01" purity="6.2165045738220215e-01" nType="-99"/>
            <Node pos="r" depth="3" NCoef="0" IVar="-1" Cut="0.0000000000000000e+00" cType="1" res="-6.9711124524474144e-03" rms="4.9546074867248535e-01" purity="5.0984394550323486e-01" nType="-99"/>
          </Node>
        </Node>
        <Node pos="r" depth="1" NCoef="0" IVar="5" Cut="5.2593145751953125e+02" cType="1" res="4.8841368407011032e-02" rms="3.8220927119255066e-01" purity="7.4176639318466187e-01" nType="0">
          <Node pos="l" depth="2" NCoef="0" IVar="5" Cut="5.4573589324951172e+01" cType="1" res="3.6323383450508118e-02" rms="3.9610886573791504e-01" purity="7.1571195125579834e-01" nType="0">
            <Node pos="l" depth="3" NCoef="0" IVar="4" Cut="1.2476190567016602e+01" cType="1" res="-5.1252823323011398e-02" rms="4.5383644104003906e-01" purity="5.4944413900375366e-01" nType="0">
              <Node pos="l" depth="4" NCoef="0" IVar="-1" Cut="0.0000000000000000e+00" cType="1" res="-1.7449876293540001e-02" rms="4.7188889980316162e-01" purity="4.7675994038581848e-01" nType="-99"/>
              <Node pos="r" depth="4" NCoef="0" IVar="-1" Cut="0.0000000000000000e+00" cType="1" res="2.3356640711426735e-02" rms="3.3573672175407410e-01" purity="8.6722320318222046e-01" nType="-99"/>
            </Node>
            <Node pos="r" depth="3" NCoef="0" IVar="5" Cut="1.6670344543457031e+02" cType="1" res="1.0962115973234177e-01" rms="3.2255980372428894e-01" purity="8.5487145185470581e-01" nType="0">
              <Node pos="l" depth="4" NCoef="0" IVar="-1" Cut="0.0000000000000000e+00" cType="1" res="2.2195424884557724e-02" rms="3.6590242385864258e-01" purity="7.9597854614257812e-01" nType="-99"/>
              <Node pos="r" depth="4" NCoef="0" IVar="-1" Cut="0.0000000000000000e+00" cType="1" res="4.7051161527633667e-02" rms="2.5311169028282166e-01" purity="9.2911946773529053e-01" nType="-99"/>
            </Node>
          </Node>
          <Node pos="r" depth="2" NCoef="0" IVar="4" Cut="8.3809528350830078e+00" cType="1" res="1.5427856147289276e-01" rms="2.0621876418590546e-01" purity="9.6121937036514282e-01" nType="0">
            <Node pos="l" depth="3" NCoef="0" IVar="-1" Cut="0.0000000000000000e+00" cType="1" res="5.7352423667907715e-02" rms="2.4988184869289398e-01" purity="9.4003564119338989e-01" nType="-99"/>
            <Node pos="r" depth="3" NCoef="0" IVar="-1" Cut="0.0000000000000000e+00" cType="1" res="4.8991572111845016e-02" rms="1.2526065111160278e-01" purity="9.8407942056655884e-01" nType="-99"/>
          </Node>
        </Node>
      </Node>
    </BinaryTree>
    <BinaryTree type="DecisionTree" boostWeight="1.0000000000000000e+00" itree="17">
      <Node pos="s" depth="0" NCoef="0" IVar="4" Cut="6.2857141494750977e+00" cType="1" res="-7.3279684875160456e-04" rms="3.7269183993339539e-01" purity="4.9979630112648010e-01" nType="0">
        <Node pos="l" depth="1" NCoef="0" IVar="0" Cut="1.4535714149475098e+01" cType="1" res="-3.2224576920270920e-02" rms="3.8934269547462463e-01" purity="3.3701589703559875e-01" nType="0">
          <Node pos="l" depth="2" NCoef="0" IVar="0" Cut="2.9319195747375488e+00" cType="1" res="-4.2279321700334549e-02" rms="3.8732057809829712e-01" purity="3.1441873311996460e-01" nType="0">
            <Node pos="l" depth="3" NCoef="0" IVar="0" Cut="1.6438802480697632e+00" cType="1" res="-1.0359497368335724e-01" rms="3.5520157217979431e-01" purity="1.9493959844112396e-01" nType="0">
              <Node pos="l" depth="4" NCoef="0" IVar="-1" Cut="0.0000000000000000e+00" cType="1" res="-4.0794715285301208e-02" rms="3.1608337163925171e-01" purity="1.2871989607810974e-01" nType="-99"/>
              <Node pos="r" depth="4" NCoef="0" IVar="-1" Cut="0.0000000000000000e+00" cType="1" res="-8.5572302341461182e-03" rms="4.1339787840843201e-01" purity="3.2695630192756653e-01" nType="-99"/>
            </Node>
            <Node pos="r" depth="3" NCoef="0" IVar="0" Cut="4.5889716148376465e+00" cType="1" res="1.5796218812465668e-01" rms="4.1896024346351624e-01" purity="7.0460754632949829e-01" nType="0">
              <Node pos="l" depth="4" NCoef="0" IVar="-1" Cut="0.0000000000000000e+00" cType="1" res="2.1837288513779640e-02" rms="4.4661074876785278e-01" purity="5.9614861011505127e-01" nType="-99"/>
              <Node pos="r" depth="4" NCoef="0" IVar="-1" Cut="0.0000000000000000e+00" cType="1" res="4.8085611313581467e-02" rms="3.8863578438758850e-01" purity="7.8948128223419189e-01" nType="-99"/>
            </Node>
          </Node>
          <Node pos="r" depth="2" NCoef="0" IVar="-1" Cut="0.0000000000000000e+00" cType="1" res="4.2437285184860229e-02" rms="3.7017390131950378e-01" purity="8.1825536489486694e-01" nType="-99"/>
        </Node>
        <Node pos="r" depth="1" NCoef="0" IVar="5" Cut="3.5136901855468750e+02" cType="1" res="6.6736355423927307e-02" rms="3.2409578561782837e-01" purity="8.4854304790496826e-01" nType="0">
          <Node pos="l" depth="2" NCoef="0" IVar="5" Cut="2.1489301681518555e+01" cType="1" res="4.4963233172893524e-02" rms="3.5070794820785522e-01" purity="8.1232702732086182e-01" nType="0">
            <Node pos="l" depth="3" NCoef="0" IVar="5" Cut="1.0495157241821289e+01" cType="1" res="-1.6238105297088623e-01" rms="4.5317170023918152e-01" purity="5.0938433408737183e-01" nType="0">
              <Node pos="l" depth="4" NCoef="0" IVar="-1" Cut="0.0000000000000000e+00" cType="1" res="-5.9558719396591187e-02" rms="4.3749031424522400e-01" purity="3.9477345347404480e-01" nType="-99"/>
              <Node pos="r" depth="4" NCoef="0" IVar="-1" Cut="0.0000000000000000e+00" cType="1" res="-1.8036831170320511e-02" rms="4.4939091801643372e-01" purity="6.1471617221832275e-01" nType="-99"/>
            </Node>
            <Node pos="r" depth="3" NCoef="0" IVar="5" Cut="6.8608734130859375e+01" cType="1" res="9.9537253379821777e-02" rms="2.9499551653862000e-01" purity="8.9206302165985107e-01" nType="0">
              <Node pos="l" depth="4" NCoef="0" IVar="-1" Cut="0.0000000000000000e+00" cType="1" res="8.6200479418039322e-03" rms="3.7079474329948425e-01" purity="7.9197388887405396e-01" nType="-99"/>
              <Node pos="r" depth="4" NCoef="0" IVar="-1" Cut="0.0000000000000000e+00" cType="1" res="4.6913575381040573e-02" rms="2.4139864742755890e-01" purity="9.4177085161209106e-01" nType="-99"/>
            </Node>
          </Node>
          <Node pos="r" depth="2" NCoef="0" IVar="2" Cut="1.9047619402408600e-01" cType="1" res="1.4834038913249969e-01" rms="1.7116324603557587e-01" purity="9.8427832126617432e-01" nType="0">
            <Node pos="l" depth="3" NCoef="0" IVar="-1" Cut="0.0000000000000000e+00" cType="1" res="6.2051780521869659e-02" rms="1.5309841930866241e-01" purity="9.9013513326644897e-01" nType="-99"/>
            <Node pos="r" depth="3" NCoef="0" IVar="-1" Cut="0.0000000000000000e+00" cType="1" res="5.8175325393676758e-02" rms="1.8894326686859131e-01" purity="9.7783207893371582e-01" nType="-99"/>
          </Node>
        </Node>
      </Node>
    </BinaryTree>
    <BinaryTree type="DecisionTree" boostWeight="1.0000000000000000e+00" itree="18">
      <Node pos="s" depth="0" NCoef="0" IVar="4" Cut="6.4285712242126465e+00" cType="1" res="1.5911561204120517e-03" rms="3.6787962913513184e-01" purity="5.0197398662567139e-01" nType="0">
        <Node pos="l" depth="1" NCoef="0" IVar="4" Cut="3.1428570747375488e+00" cType="1" res="-2.5929642841219902e-02" rms="3.8578689098358154e-01" purity="3.4114375710487366e-01" nType="0">
          <Node pos="l" depth="2" NCoef="0" IVar="6" Cut="4.7619048506021500e-02" cType="1" res="-3.9261277765035629e-02" rms="3.8137274980545044e-01" purity="2.8802719712257385e-01" nType="0">
            <Node pos="l" depth="3" NCoef="0" IVar="1" Cut="-1.7790982723236084e+00" cType="1" res="-6.2252152711153030e-02" rms="3.0765491724014282e-01" purity="1.1368418484926224e-01" nType="0">
              <Node pos="l" depth="4" NCoef="0" IVar="-1" Cut="0.0000000000000000e+00" cType="1" res="-4.1530817747116089e-02" rms="2.0906808972358704e-01" purity="4.7013301402330399e-02" nType="-99"/>
