<?xml version="1.0"?>
<MethodSetup Method="BDT::BDTG">
  <GeneralInfo>
    <Info name="TMVA Release" value="4.2.1 [262657]"/>
    <Info name="ROOT Release" value="6.24/06 [399366]"/>
    <Info name="Creator" value="pvaucell"/>
    <Info name="Date" value="Tue Aug 23 11:06:46 2022"/>
    <Info name="Host" value="Linux sbgat310.in2p3.fr 3.10.0-1160.36.2.el7.x86_64 #1 SMP Wed Jul 21 11:57:15 UTC 2021 x86_64 x86_64 x86_64 GNU/Linux"/>
    <Info name="Dir" value="/opt/sbg/cms/ui2_data1/pvaucell/LLTopAna/MVA/AnalysisCode"/>
    <Info name="Training events" value="168767"/>
    <Info name="TrainingTime" value="1.83130031e+02"/>
    <Info name="AnalysisType" value="Classification"/>
  </GeneralInfo>
  <Options>
    <Option name="V" modified="Yes">False</Option>
    <Option name="VerbosityLevel" modified="No">Default</Option>
    <Option name="VarTransform" modified="No">None</Option>
    <Option name="H" modified="Yes">False</Option>
    <Option name="CreateMVAPdfs" modified="No">False</Option>
    <Option name="IgnoreNegWeightsInTraining" modified="No">False</Option>
    <Option name="NTrees" modified="Yes">1000</Option>
    <Option name="MaxDepth" modified="Yes">4</Option>
    <Option name="MinNodeSize" modified="Yes">2.5%</Option>
    <Option name="nCuts" modified="Yes">20</Option>
    <Option name="BoostType" modified="Yes">Grad</Option>
    <Option name="AdaBoostR2Loss" modified="No">quadratic</Option>
    <Option name="UseBaggedBoost" modified="Yes">True</Option>
    <Option name="Shrinkage" modified="Yes">1.000000e-01</Option>
    <Option name="AdaBoostBeta" modified="No">5.000000e-01</Option>
    <Option name="UseRandomisedTrees" modified="Yes">False</Option>
    <Option name="UseNvars" modified="No">3</Option>
    <Option name="UsePoissonNvars" modified="No">True</Option>
    <Option name="BaggedSampleFraction" modified="No">6.000000e-01</Option>
    <Option name="UseYesNoLeaf" modified="Yes">False</Option>
    <Option name="NegWeightTreatment" modified="No">pray</Option>
    <Option name="Css" modified="No">1.000000e+00</Option>
    <Option name="Cts_sb" modified="No">1.000000e+00</Option>
    <Option name="Ctb_ss" modified="No">1.000000e+00</Option>
    <Option name="Cbb" modified="No">1.000000e+00</Option>
    <Option name="NodePurityLimit" modified="No">5.000000e-01</Option>
    <Option name="SeparationType" modified="Yes">giniindex</Option>
    <Option name="RegressionLossFunctionBDTG" modified="No">huber</Option>
    <Option name="HuberQuantile" modified="No">7.000000e-01</Option>
    <Option name="DoBoostMonitor" modified="Yes">True</Option>
    <Option name="UseFisherCuts" modified="No">False</Option>
    <Option name="MinLinCorrForFisher" modified="No">8.000000e-01</Option>
    <Option name="UseExclusiveVars" modified="No">False</Option>
    <Option name="DoPreselection" modified="No">False</Option>
    <Option name="SigToBkgFraction" modified="No">1.000000e+00</Option>
    <Option name="PruneMethod" modified="No">nopruning</Option>
    <Option name="PruneStrength" modified="No">0.000000e+00</Option>
    <Option name="PruningValFraction" modified="No">5.000000e-01</Option>
    <Option name="SkipNormalization" modified="No">False</Option>
    <Option name="nEventsMin" modified="No">0</Option>
    <Option name="UseBaggedGrad" modified="No">False</Option>
    <Option name="GradBaggingFraction" modified="Yes">6.000000e-01</Option>
    <Option name="UseNTrainEvents" modified="No">0</Option>
    <Option name="NNodesMax" modified="No">0</Option>
  </Options>
  <Variables NVar="8">
    <Variable VarIndex="0" Expression="mva_track_pt" Label="mva_track_pt" Title="mva_track_pt" Unit="" Internal="mva_track_pt" Type="F" Min="1.00000191e+00" Max="4.59388477e+03"/>
    <Variable VarIndex="1" Expression="mva_track_eta" Label="mva_track_eta" Title="mva_track_eta" Unit="" Internal="mva_track_eta" Type="F" Min="-2.49993014e+00" Max="2.49976158e+00"/>
    <Variable VarIndex="2" Expression="mva_track_nchi2" Label="mva_track_nchi2" Title="mva_track_nchi2" Unit="" Internal="mva_track_nchi2" Type="F" Min="5.23474730e-09" Max="4.99952650e+00"/>
    <Variable VarIndex="3" Expression="mva_track_nhits" Label="mva_track_nhits" Title="mva_track_nhits" Unit="" Internal="mva_track_nhits" Type="F" Min="3.00000000e+00" Max="3.40000000e+01"/>
    <Variable VarIndex="4" Expression="mva_track_algo" Label="mva_track_algo" Title="mva_track_algo" Unit="" Internal="mva_track_algo" Type="F" Min="2.00000000e+00" Max="2.40000000e+01"/>
    <Variable VarIndex="5" Expression="mva_ntrk10" Label="mva_ntrk10" Title="mva_ntrk10" Unit="" Internal="mva_ntrk10" Type="F" Min="0.00000000e+00" Max="7.00000000e+01"/>
    <Variable VarIndex="6" Expression="mva_drSig" Label="mva_drSig" Title="mva_drSig" Unit="" Internal="mva_drSig" Type="F" Min="5.00006390e+00" Max="1.46512197e+04"/>
    <Variable VarIndex="7" Expression="mva_track_isinjet" Label="mva_track_isinjet" Title="mva_track_isinjet" Unit="" Internal="mva_track_isinjet" Type="F" Min="0.00000000e+00" Max="1.00000000e+00"/>
  </Variables>
  <Spectators NSpec="0"/>
  <Classes NClass="2">
    <Class Name="Signal" Index="0"/>
    <Class Name="Background" Index="1"/>
  </Classes>
  <Transformations NTransformations="0"/>
  <MVAPdfs/>
  <Weights NTrees="1000" AnalysisType="1">
    <BinaryTree type="DecisionTree" boostWeight="1.0000000000000000e+00" itree="0">
      <Node pos="s" depth="0" NCoef="0" IVar="5" Cut="3.3333332538604736e+00" cType="1" res="-3.7156320177018642e-03" rms="4.9998620152473450e-01" purity="4.9628436565399170e-01" nType="0">
        <Node pos="l" depth="1" NCoef="0" IVar="7" Cut="4.7619048506021500e-02" cType="1" res="-2.6853698492050171e-01" rms="4.2176756262779236e-01" purity="2.3146301507949829e-01" nType="0">
          <Node pos="l" depth="2" NCoef="0" IVar="4" Cut="9.3333330154418945e+00" cType="1" res="-3.8796713948249817e-01" rms="3.1540688872337341e-01" purity="1.1203286796808243e-01" nType="0">
            <Node pos="l" depth="3" NCoef="0" IVar="4" Cut="8.3333330154418945e+00" cType="1" res="-4.4788587093353271e-01" rms="2.2225718200206757e-01" purity="5.2114140242338181e-02" nType="0">
              <Node pos="l" depth="4" NCoef="0" IVar="-1" Cut="0.0000000000000000e+00" cType="1" res="-9.6180744469165802e-02" rms="1.3686347007751465e-01" purity="1.9096275791525841e-02" nType="-99"/>
              <Node pos="r" depth="4" NCoef="0" IVar="-1" Cut="0.0000000000000000e+00" cType="1" res="-8.4714129567146301e-02" rms="2.6568385958671570e-01" purity="7.6429374516010284e-02" nType="-99"/>
            </Node>
            <Node pos="r" depth="3" NCoef="0" IVar="5" Cut="1.4285714924335480e-01" cType="1" res="-3.1564143300056458e-01" rms="3.8777631521224976e-01" purity="1.8435855209827423e-01" nType="0">
              <Node pos="l" depth="4" NCoef="0" IVar="-1" Cut="0.0000000000000000e+00" cType="1" res="-6.9806143641471863e-02" rms="3.5801893472671509e-01" purity="1.5096928179264069e-01" nType="-99"/>
              <Node pos="r" depth="4" NCoef="0" IVar="-1" Cut="0.0000000000000000e+00" cType="1" res="-4.2207382619380951e-02" rms="4.5328071713447571e-01" purity="2.8896310925483704e-01" nType="-99"/>
            </Node>
          </Node>
          <Node pos="r" depth="2" NCoef="0" IVar="3" Cut="8.9523811340332031e+00" cType="1" res="-1.1175860464572906e-01" rms="4.8734998703002930e-01" purity="3.8824138045310974e-01" nType="0">
            <Node pos="l" depth="3" NCoef="0" IVar="-1" Cut="0.0000000000000000e+00" cType="1" res="-6.3564822077751160e-02" rms="3.8598939776420593e-01" purity="1.8217587471008301e-01" nType="-99"/>
            <Node pos="r" depth="3" NCoef="0" IVar="5" Cut="1.1428571939468384e+00" cType="1" res="-8.0657497048377991e-02" rms="4.9345147609710693e-01" purity="4.1934248805046082e-01" nType="0">
              <Node pos="l" depth="4" NCoef="0" IVar="-1" Cut="0.0000000000000000e+00" cType="1" res="-2.4120524525642395e-02" rms="4.8523706197738647e-01" purity="3.7939739227294922e-01" nType="-99"/>
              <Node pos="r" depth="4" NCoef="0" IVar="-1" Cut="0.0000000000000000e+00" cType="1" res="6.0781529173254967e-03" rms="4.9907556176185608e-01" purity="5.3039073944091797e-01" nType="-99"/>
            </Node>
          </Node>
        </Node>
        <Node pos="r" depth="1" NCoef="0" IVar="3" Cut="7.1428570747375488e+00" cType="1" res="2.2400675714015961e-01" rms="4.4701337814331055e-01" purity="7.2400677204132080e-01" nType="0">
          <Node pos="l" depth="2" NCoef="0" IVar="-1" Cut="0.0000000000000000e+00" cType="1" res="-4.1178457438945770e-02" rms="4.5564061403274536e-01" purity="2.9410773515701294e-01" nType="-99"/>
          <Node pos="r" depth="2" NCoef="0" IVar="7" Cut="4.7619048506021500e-02" cType="1" res="2.5655943155288696e-01" rms="4.2915877699851990e-01" purity="7.5655943155288696e-01" nType="0">
            <Node pos="l" depth="3" NCoef="0" IVar="5" Cut="7.1428570747375488e+00" cType="1" res="1.1628361046314240e-01" rms="4.8629015684127808e-01" purity="6.1628365516662598e-01" nType="0">
              <Node pos="l" depth="4" NCoef="0" IVar="-1" Cut="0.0000000000000000e+00" cType="1" res="-1.9384013488888741e-02" rms="4.9051657319068909e-01" purity="4.0307992696762085e-01" nType="-99"/>
              <Node pos="r" depth="4" NCoef="0" IVar="-1" Cut="0.0000000000000000e+00" cType="1" res="4.0224961936473846e-02" rms="4.5776501297950745e-01" purity="7.0112478733062744e-01" nType="-99"/>
            </Node>
            <Node pos="r" depth="3" NCoef="0" IVar="5" Cut="7.0952382087707520e+00" cType="1" res="2.9604357481002808e-01" rms="4.0293696522712708e-01" purity="7.9604357481002808e-01" nType="0">
              <Node pos="l" depth="4" NCoef="0" IVar="-1" Cut="0.0000000000000000e+00" cType="1" res="4.0972284972667694e-02" rms="4.5610502362251282e-01" purity="7.0486140251159668e-01" nType="-99"/>
              <Node pos="r" depth="4" NCoef="0" IVar="-1" Cut="0.0000000000000000e+00" cType="1" res="6.3376761972904205e-02" rms="3.8676172494888306e-01" purity="8.1688386201858521e-01" nType="-99"/>
            </Node>
          </Node>
        </Node>
      </Node>
    </BinaryTree>
    <BinaryTree type="DecisionTree" boostWeight="1.0000000000000000e+00" itree="1">
      <Node pos="s" depth="0" NCoef="0" IVar="5" Cut="3.3333332538604736e+00" cType="1" res="1.8854980589821935e-03" rms="4.8339530825614929e-01" purity="5.0167614221572876e-01" nType="0">
        <Node pos="l" depth="1" NCoef="0" IVar="7" Cut="4.7619048506021500e-02" cType="1" res="-2.3807904124259949e-01" rms="4.1796568036079407e-01" purity="2.3516301810741425e-01" nType="0">
          <Node pos="l" depth="2" NCoef="0" IVar="4" Cut="9.3333330154418945e+00" cType="1" res="-3.4574303030967712e-01" rms="3.1765037775039673e-01" purity="1.1554753780364990e-01" nType="0">
            <Node pos="l" depth="3" NCoef="0" IVar="4" Cut="8.3333330154418945e+00" cType="1" res="-4.0437355637550354e-01" rms="2.1970245242118835e-01" purity="5.1022455096244812e-02" nType="0">
              <Node pos="l" depth="4" NCoef="0" IVar="-1" Cut="0.0000000000000000e+00" cType="1" res="-8.7736003100872040e-02" rms="1.3079543411731720e-01" purity="1.7410574480891228e-02" nType="-99"/>
              <Node pos="r" depth="4" NCoef="0" IVar="-1" Cut="0.0000000000000000e+00" cType="1" res="-7.7167801558971405e-02" rms="2.6284313201904297e-01" purity="7.4660740792751312e-02" nType="-99"/>
            </Node>
            <Node pos="r" depth="3" NCoef="0" IVar="5" Cut="1.4285714924335480e-01" cType="1" res="-2.7445358037948608e-01" rms="3.9450770616531372e-01" purity="1.9400422275066376e-01" nType="0">
              <Node pos="l" depth="4" NCoef="0" IVar="-1" Cut="0.0000000000000000e+00" cType="1" res="-6.1848193407058716e-02" rms="3.6419117450714111e-01" purity="1.5741455554962158e-01" nType="-99"/>
              <Node pos="r" depth="4" NCoef="0" IVar="-1" Cut="0.0000000000000000e+00" cType="1" res="-3.3895708620548248e-02" rms="4.6238300204277039e-01" purity="3.0973184108734131e-01" nType="-99"/>
            </Node>
          </Node>
          <Node pos="r" depth="2" NCoef="0" IVar="3" Cut="8.1428575515747070e+00" cType="1" res="-9.8338887095451355e-02" rms="4.8569718003273010e-01" purity="3.9041531085968018e-01" nType="0">
            <Node pos="l" depth="3" NCoef="0" IVar="-1" Cut="0.0000000000000000e+00" cType="1" res="-6.0007825493812561e-02" rms="3.7513145804405212e-01" purity="1.6943024098873138e-01" nType="-99"/>
            <Node pos="r" depth="3" NCoef="0" IVar="5" Cut="1.1428571939468384e+00" cType="1" res="-6.7082077264785767e-02" rms="4.9345356225967407e-01" purity="4.2486718297004700e-01" nType="0">
              <Node pos="l" depth="4" NCoef="0" IVar="-1" Cut="0.0000000000000000e+00" cType="1" res="-2.0770275965332985e-02" rms="4.8639389872550964e-01" purity="3.8415107131004333e-01" nType="-99"/>
              <Node pos="r" depth="4" NCoef="0" IVar="-1" Cut="0.0000000000000000e+00" cType="1" res="6.9021210074424744e-03" rms="4.9858814477920532e-01" purity="5.3754836320877075e-01" nType="-99"/>
            </Node>
          </Node>
        </Node>
        <Node pos="r" depth="1" NCoef="0" IVar="3" Cut="8.3333330154418945e+00" cType="1" res="2.0615588128566742e-01" rms="4.3946582078933716e-01" purity="7.2854614257812500e-01" nType="0">
          <Node pos="l" depth="2" NCoef="0" IVar="-1" Cut="0.0000000000000000e+00" cType="1" res="-2.8697842732071877e-02" rms="4.7211155295372009e-01" purity="3.4314572811126709e-01" nType="-99"/>
          <Node pos="r" depth="2" NCoef="0" IVar="7" Cut="4.7619048506021500e-02" cType="1" res="2.3838503658771515e-01" rms="4.2200255393981934e-01" purity="7.6409828662872314e-01" nType="0">
            <Node pos="l" depth="3" NCoef="0" IVar="4" Cut="7.2380952835083008e+00" cType="1" res="1.0377984493970871e-01" rms="4.8285087943077087e-01" purity="6.1543011665344238e-01" nType="0">
              <Node pos="l" depth="4" NCoef="0" IVar="-1" Cut="0.0000000000000000e+00" cType="1" res="-1.3878783211112022e-02" rms="4.9153032898902893e-01" purity="4.4259062409400940e-01" nType="-99"/>
              <Node pos="r" depth="4" NCoef="0" IVar="-1" Cut="0.0000000000000000e+00" cType="1" res="4.0117815136909485e-02" rms="4.4987925887107849e-01" purity="7.1184974908828735e-01" nType="-99"/>
            </Node>
            <Node pos="r" depth="3" NCoef="0" IVar="5" Cut="7.1428570747375488e+00" cType="1" res="2.7595689892768860e-01" rms="3.9528316259384155e-01" purity="8.0559551715850830e-01" nType="0">
              <Node pos="l" depth="4" NCoef="0" IVar="-1" Cut="0.0000000000000000e+00" cType="1" res="3.8108509033918381e-02" rms="4.5343849062919617e-01" purity="7.1069771051406860e-01" nType="-99"/>
              <Node pos="r" depth="4" NCoef="0" IVar="-1" Cut="0.0000000000000000e+00" cType="1" res="5.9184521436691284e-02" rms="3.7877964973449707e-01" purity="8.2638323307037354e-01" nType="-99"/>
            </Node>
          </Node>
        </Node>
      </Node>
    </BinaryTree>
    <BinaryTree type="DecisionTree" boostWeight="1.0000000000000000e+00" itree="2">
      <Node pos="s" depth="0" NCoef="0" IVar="5" Cut="3.3333332538604736e+00" cType="1" res="8.7531021563336253e-04" rms="4.6944808959960938e-01" purity="5.0082749128341675e-01" nType="0">
        <Node pos="l" depth="1" NCoef="0" IVar="7" Cut="4.7619048506021500e-02" cType="1" res="-2.1580187976360321e-01" rms="4.1196241974830627e-01" purity="2.3376859724521637e-01" nType="0">
          <Node pos="l" depth="2" NCoef="0" IVar="4" Cut="9.3333330154418945e+00" cType="1" res="-3.1387335062026978e-01" rms="3.1291559338569641e-01" purity="1.1315681040287018e-01" nType="0">
            <Node pos="l" depth="3" NCoef="0" IVar="5" Cut="1.4285714924335480e-01" cType="1" res="-3.6585047841072083e-01" rms="2.1617703139781952e-01" purity="4.9417555332183838e-02" nType="0">
              <Node pos="l" depth="4" NCoef="0" IVar="-1" Cut="0.0000000000000000e+00" cType="1" res="-7.8842572867870331e-02" rms="1.8065178394317627e-01" purity="3.3886309713125229e-02" nType="-99"/>
              <Node pos="r" depth="4" NCoef="0" IVar="-1" Cut="0.0000000000000000e+00" cType="1" res="-7.0361316204071045e-02" rms="2.5625929236412048e-01" purity="7.1441993117332458e-02" nType="-99"/>
            </Node>
            <Node pos="r" depth="3" NCoef="0" IVar="5" Cut="1.4285714924335480e-01" cType="1" res="-2.5107517838478088e-01" rms="3.9057391881942749e-01" purity="1.9016580283641815e-01" nType="0">
              <Node pos="l" depth="4" NCoef="0" IVar="-1" Cut="0.0000000000000000e+00" cType="1" res="-5.7532407343387604e-02" rms="3.5884383320808411e-01" purity="1.5181742608547211e-01" nType="-99"/>
              <Node pos="r" depth="4" NCoef="0" IVar="-1" Cut="0.0000000000000000e+00" cType="1" res="-3.0726246535778046e-02" rms="4.6219548583030701e-01" purity="3.0927687883377075e-01" nType="-99"/>
            </Node>
          </Node>
          <Node pos="r" depth="2" NCoef="0" IVar="3" Cut="8.3333330154418945e+00" cType="1" res="-8.8083103299140930e-02" rms="4.8412463068962097e-01" purity="3.9084169268608093e-01" nType="0">
            <Node pos="l" depth="3" NCoef="0" IVar="-1" Cut="0.0000000000000000e+00" cType="1" res="-5.2711348980665207e-02" rms="3.8331335783004761e-01" purity="1.7895346879959106e-01" nType="-99"/>
            <Node pos="r" depth="3" NCoef="0" IVar="5" Cut="1.1428571939468384e+00" cType="1" res="-6.1525911092758179e-02" rms="4.9260467290878296e-01" purity="4.2365506291389465e-01" nType="0">
              <Node pos="l" depth="4" NCoef="0" IVar="-1" Cut="0.0000000000000000e+00" cType="1" res="-1.8677810207009315e-02" rms="4.8644566535949707e-01" purity="3.8436853885650635e-01" nType="-99"/>
              <Node pos="r" depth="4" NCoef="0" IVar="-1" Cut="0.0000000000000000e+00" cType="1" res="5.4313712753355503e-03" rms="4.9886691570281982e-01" purity="5.3364205360412598e-01" nType="-99"/>
            </Node>
          </Node>
        </Node>
        <Node pos="r" depth="1" NCoef="0" IVar="3" Cut="8.3333330154418945e+00" cType="1" res="1.8550451099872589e-01" rms="4.3527334928512573e-01" purity="7.2838658094406128e-01" nType="0">
          <Node pos="l" depth="2" NCoef="0" IVar="-1" Cut="0.0000000000000000e+00" cType="1" res="-2.5979448109865189e-02" rms="4.7149014472961426e-01" purity="3.4298533201217651e-01" nType="-99"/>
          <Node pos="r" depth="2" NCoef="0" IVar="5" Cut="7.1428570747375488e+00" cType="1" res="2.1444244682788849e-01" rms="4.2011427879333496e-01" purity="7.6380860805511475e-01" nType="0">
            <Node pos="l" depth="3" NCoef="0" IVar="7" Cut="4.7619048506021500e-02" cType="1" res="8.5209310054779053e-02" rms="4.8062160611152649e-01" purity="6.1321204900741577e-01" nType="0">
              <Node pos="l" depth="4" NCoef="0" IVar="-1" Cut="0.0000000000000000e+00" cType="1" res="-2.0512387156486511e-02" rms="4.8424559831619263e-01" purity="3.9879101514816284e-01" nType="-99"/>
              <Node pos="r" depth="4" NCoef="0" IVar="-1" Cut="0.0000000000000000e+00" cType="1" res="3.3345766365528107e-02" rms="4.5597589015960693e-01" purity="7.0514863729476929e-01" nType="-99"/>
            </Node>
            <Node pos="r" depth="3" NCoef="0" IVar="4" Cut="6.1904764175415039e+00" cType="1" res="2.4738132953643799e-01" rms="3.9656400680541992e-01" purity="8.0219262838363647e-01" nType="0">
              <Node pos="l" depth="4" NCoef="0" IVar="-1" Cut="0.0000000000000000e+00" cType="1" res="3.0536597594618797e-02" rms="4.5054340362548828e-01" purity="6.9889235496520996e-01" nType="-99"/>
              <Node pos="r" depth="4" NCoef="0" IVar="-1" Cut="0.0000000000000000e+00" cType="1" res="5.2510417997837067e-02" rms="3.8782563805580139e-01" purity="8.1480288505554199e-01" nType="-99"/>
            </Node>
          </Node>
        </Node>
      </Node>
    </BinaryTree>
    <BinaryTree type="DecisionTree" boostWeight="1.0000000000000000e+00" itree="3">
      <Node pos="s" depth="0" NCoef="0" IVar="5" Cut="3.3333332538604736e+00" cType="1" res="1.0691377246985212e-04" rms="4.5778220891952515e-01" purity="5.0034612417221069e-01" nType="0">
        <Node pos="l" depth="1" NCoef="0" IVar="7" Cut="4.7619048506021500e-02" cType="1" res="-1.9572605192661285e-01" rms="4.0726953744888306e-01" purity="2.3288570344448090e-01" nType="0">
          <Node pos="l" depth="2" NCoef="0" IVar="4" Cut="9.3333330154418945e+00" cType="1" res="-2.8462764620780945e-01" rms="3.0966359376907349e-01" purity="1.1149135977029800e-01" nType="0">
            <Node pos="l" depth="3" NCoef="0" IVar="3" Cut="1.1285714149475098e+01" cType="1" res="-3.2897296547889709e-01" rms="2.1770966053009033e-01" purity="5.0252180546522141e-02" nType="0">
              <Node pos="l" depth="4" NCoef="0" IVar="-1" Cut="0.0000000000000000e+00" cType="1" res="-7.6752692461013794e-02" rms="1.2928962707519531e-01" purity="1.7088070511817932e-02" nType="-99"/>
              <Node pos="r" depth="4" NCoef="0" IVar="-1" Cut="0.0000000000000000e+00" cType="1" res="-6.5753757953643799e-02" rms="2.5467684864997864e-01" purity="7.0186160504817963e-02" nType="-99"/>
            </Node>
            <Node pos="r" depth="3" NCoef="0" IVar="5" Cut="1.4285714924335480e-01" cType="1" res="-2.3140966892242432e-01" rms="3.8587078452110291e-01" purity="1.8498341739177704e-01" nType="0">
              <Node pos="l" depth="4" NCoef="0" IVar="-1" Cut="0.0000000000000000e+00" cType="1" res="-5.3304623812437057e-02" rms="3.5639610886573792e-01" purity="1.4931234717369080e-01" nType="-99"/>
              <Node pos="r" depth="4" NCoef="0" IVar="-1" Cut="0.0000000000000000e+00" cType="1" res="-3.0747888609766960e-02" rms="4.5594805479049683e-01" purity="2.9478943347930908e-01" nType="-99"/>
            </Node>
          </Node>
          <Node pos="r" depth="2" NCoef="0" IVar="3" Cut="9.4285717010498047e+00" cType="1" res="-8.1372313201427460e-02" rms="4.8232403397560120e-01" purity="3.8903468847274780e-01" nType="0">
            <Node pos="l" depth="3" NCoef="0" IVar="-1" Cut="0.0000000000000000e+00" cType="1" res="-4.0432192385196686e-02" rms="4.2386040091514587e-01" purity="2.4264697730541229e-01" nType="-99"/>
            <Node pos="r" depth="3" NCoef="0" IVar="5" Cut="1.1428571939468384e+00" cType="1" res="-4.3711341917514801e-02" rms="4.9379226565361023e-01" purity="4.3607997894287109e-01" nType="0">
              <Node pos="l" depth="4" NCoef="0" IVar="-1" Cut="0.0000000000000000e+00" cType="1" res="-1.4731646515429020e-02" rms="4.8882856965065002e-01" purity="3.9489704370498657e-01" nType="-99"/>
              <Node pos="r" depth="4" NCoef="0" IVar="-1" Cut="0.0000000000000000e+00" cType="1" res="6.3837715424597263e-03" rms="4.9830687046051025e-01" purity="5.4111278057098389e-01" nType="-99"/>
            </Node>
          </Node>
        </Node>
        <Node pos="r" depth="1" NCoef="0" IVar="3" Cut="8.5238094329833984e+00" cType="1" res="1.6685184836387634e-01" rms="4.3163901567459106e-01" purity="7.2807937860488892e-01" nType="0">
          <Node pos="l" depth="2" NCoef="0" IVar="-1" Cut="0.0000000000000000e+00" cType="1" res="-2.6073371991515160e-02" rms="4.6757861971855164e-01" purity="3.2988485693931580e-01" nType="-99"/>
          <Node pos="r" depth="2" NCoef="0" IVar="5" Cut="7.1428570747375488e+00" cType="1" res="1.9438387453556061e-01" rms="4.1760656237602234e-01" purity="7.6509141921997070e-01" nType="0">
            <Node pos="l" depth="3" NCoef="0" IVar="7" Cut="4.7619048506021500e-02" cType="1" res="8.0835983157157898e-02" rms="4.7681832313537598e-01" purity="6.1712956428527832e-01" nType="0">
              <Node pos="l" depth="4" NCoef="0" IVar="-1" Cut="0.0000000000000000e+00" cType="1" res="-1.6415311023592949e-02" rms="4.8617759346961975e-01" purity="4.0903586149215698e-01" nType="-99"/>
              <Node pos="r" depth="4" NCoef="0" IVar="-1" Cut="0.0000000000000000e+00" cType="1" res="3.0715472996234894e-02" rms="4.5485135912895203e-01" purity="7.0763009786605835e-01" nType="-99"/>
            </Node>
            <Node pos="r" depth="3" NCoef="0" IVar="4" Cut="1.0380952835083008e+01" cType="1" res="2.2352494299411774e-01" rms="3.9578437805175781e-01" purity="8.0306458473205566e-01" nType="0">
              <Node pos="l" depth="4" NCoef="0" IVar="-1" Cut="0.0000000000000000e+00" cType="1" res="4.8253621906042099e-02" rms="3.8696157932281494e-01" purity="8.1415992975234985e-01" nType="-99"/>
              <Node pos="r" depth="4" NCoef="0" IVar="-1" Cut="0.0000000000000000e+00" cType="1" res="2.7474401518702507e-02" rms="4.4900774955749512e-01" purity="7.1617114543914795e-01" nType="-99"/>
            </Node>
          </Node>
        </Node>
      </Node>
    </BinaryTree>
    <BinaryTree type="DecisionTree" boostWeight="1.0000000000000000e+00" itree="4">
      <Node pos="s" depth="0" NCoef="0" IVar="5" Cut="6.6666665077209473e+00" cType="1" res="-2.0640504080802202e-03" rms="4.4809880852699280e-01" purity="4.9759998917579651e-01" nType="0">
        <Node pos="l" depth="1" NCoef="0" IVar="7" Cut="4.7619048506021500e-02" cType="1" res="-1.5021453797817230e-01" rms="4.2067626118659973e-01" purity="2.7788382768630981e-01" nType="0">
          <Node pos="l" depth="2" NCoef="0" IVar="4" Cut="9.3333330154418945e+00" cType="1" res="-2.4889300763607025e-01" rms="3.2592451572418213e-01" purity="1.3010849058628082e-01" nType="0">
            <Node pos="l" depth="3" NCoef="0" IVar="4" Cut="8.3333330154418945e+00" cType="1" res="-2.9513546824455261e-01" rms="2.4127954244613647e-01" purity="6.6009245812892914e-02" nType="0">
              <Node pos="l" depth="4" NCoef="0" IVar="-1" Cut="0.0000000000000000e+00" cType="1" res="-7.2196587920188904e-02" rms="1.7763645946979523e-01" purity="3.3326387405395508e-02" nType="-99"/>
              <Node pos="r" depth="4" NCoef="0" IVar="-1" Cut="0.0000000000000000e+00" cType="1" res="-5.7545315474271774e-02" rms="2.8171855211257935e-01" purity="9.4582833349704742e-02" nType="-99"/>
            </Node>
            <Node pos="r" depth="3" NCoef="0" IVar="5" Cut="2.8571429848670959e-01" cType="1" res="-1.9074127078056335e-01" rms="4.0066421031951904e-01" purity="2.1071584522724152e-01" nType="0">
              <Node pos="l" depth="4" NCoef="0" IVar="-1" Cut="0.0000000000000000e+00" cType="1" res="-4.8644565045833588e-02" rms="3.5864523053169250e-01" purity="1.5161286294460297e-01" nType="-99"/>
              <Node pos="r" depth="4" NCoef="0" IVar="-1" Cut="0.0000000000000000e+00" cType="1" res="-2.1094972267746925e-02" rms="4.7022974491119385e-01" purity="3.4310182929039001e-01" nType="-99"/>
            </Node>
          </Node>
          <Node pos="r" depth="2" NCoef="0" IVar="5" Cut="2.2857143878936768e+00" cType="1" res="-3.9368391036987305e-02" rms="4.8291629552841187e-01" purity="4.4388076663017273e-01" nType="0">
            <Node pos="l" depth="3" NCoef="0" IVar="4" Cut="9.3333330154418945e+00" cType="1" res="-9.4246737658977509e-02" rms="4.7634005546569824e-01" purity="3.6290183663368225e-01" nType="0">
              <Node pos="l" depth="4" NCoef="0" IVar="-1" Cut="0.0000000000000000e+00" cType="1" res="-3.7485912442207336e-02" rms="4.4218435883522034e-01" purity="2.7492663264274597e-01" nType="-99"/>
              <Node pos="r" depth="4" NCoef="0" IVar="-1" Cut="0.0000000000000000e+00" cType="1" res="-1.2617272324860096e-02" rms="4.8367434740066528e-01" purity="3.9365887641906738e-01" nType="-99"/>
            </Node>
            <Node pos="r" depth="3" NCoef="0" IVar="4" Cut="9.3333330154418945e+00" cType="1" res="9.0839877724647522e-02" rms="4.7336652874946594e-01" purity="6.3601714372634888e-01" nType="0">
              <Node pos="l" depth="4" NCoef="0" IVar="-1" Cut="0.0000000000000000e+00" cType="1" res="-2.1015712991356850e-03" rms="4.8811325430870056e-01" purity="5.2736914157867432e-01" nType="-99"/>
              <Node pos="r" depth="4" NCoef="0" IVar="-1" Cut="0.0000000000000000e+00" cType="1" res="3.0923051759600639e-02" rms="4.5328137278556824e-01" purity="7.0202648639678955e-01" nType="-99"/>
            </Node>
          </Node>
        </Node>
        <Node pos="r" depth="1" NCoef="0" IVar="3" Cut="8.3333330154418945e+00" cType="1" res="1.7810678482055664e-01" rms="4.1305181384086609e-01" purity="7.6480424404144287e-01" nType="0">
          <Node pos="l" depth="2" NCoef="0" IVar="-1" Cut="0.0000000000000000e+00" cType="1" res="-6.6512878984212875e-03" rms="4.9045899510383606e-01" purity="4.1436088085174561e-01" nType="-99"/>
          <Node pos="r" depth="2" NCoef="0" IVar="7" Cut="4.7619048506021500e-02" cType="1" res="1.9591186940670013e-01" rms="4.0079385042190552e-01" purity="7.9438334703445435e-01" nType="0">
            <Node pos="l" depth="3" NCoef="0" IVar="4" Cut="7.2380952835083008e+00" cType="1" res="1.2356702983379364e-01" rms="4.5401802659034729e-01" purity="6.9418424367904663e-01" nType="0">
              <Node pos="l" depth="4" NCoef="0" IVar="-1" Cut="0.0000000000000000e+00" cType="1" res="-1.2879151618108153e-03" rms="4.9212718009948730e-01" purity="5.4701483249664307e-01" nType="-99"/>
              <Node pos="r" depth="4" NCoef="0" IVar="-1" Cut="0.0000000000000000e+00" cType="1" res="4.0078479796648026e-02" rms="4.1483080387115479e-01" purity="7.7477091550827026e-01" nType="-99"/>
            </Node>
            <Node pos="r" depth="3" NCoef="0" IVar="0" Cut="1.2209488868713379e+01" cType="1" res="2.1494665741920471e-01" rms="3.8330876827239990e-01" purity="8.2074689865112305e-01" nType="0">
              <Node pos="l" depth="4" NCoef="0" IVar="-1" Cut="0.0000000000000000e+00" cType="1" res="4.7196671366691589e-02" rms="3.7425741553306580e-01" purity="8.3123379945755005e-01" nType="-99"/>
              <Node pos="r" depth="4" NCoef="0" IVar="-1" Cut="0.0000000000000000e+00" cType="1" res="3.2948303967714310e-02" rms="4.2552468180656433e-01" purity="7.6254618167877197e-01" nType="-99"/>
            </Node>
          </Node>
        </Node>
      </Node>
    </BinaryTree>
    <BinaryTree type="DecisionTree" boostWeight="1.0000000000000000e+00" itree="5">
      <Node pos="s" depth="0" NCoef="0" IVar="5" Cut="3.3333332538604736e+00" cType="1" res="-1.1166775366291404e-03" rms="4.3985053896903992e-01" purity="4.9870619177818298e-01" nType="0">
        <Node pos="l" depth="1" NCoef="0" IVar="7" Cut="4.7619048506021500e-02" cType="1" res="-1.5838275849819183e-01" rms="4.0143612027168274e-01" purity="2.3401309549808502e-01" nType="0">
          <Node pos="l" depth="2" NCoef="0" IVar="4" Cut="9.3333330154418945e+00" cType="1" res="-2.3361885547637939e-01" rms="3.0605685710906982e-01" purity="1.1022623628377914e-01" nType="0">
            <Node pos="l" depth="3" NCoef="0" IVar="4" Cut="8.3333330154418945e+00" cType="1" res="-2.6964688301086426e-01" rms="2.1502275764942169e-01" purity="4.9097832292318344e-02" nType="0">
              <Node pos="l" depth="4" NCoef="0" IVar="-1" Cut="0.0000000000000000e+00" cType="1" res="-6.7785367369651794e-02" rms="1.3983064889907837e-01" purity="1.9995609298348427e-02" nType="-99"/>
              <Node pos="r" depth="4" NCoef="0" IVar="-1" Cut="0.0000000000000000e+00" cType="1" res="-5.8177243918180466e-02" rms="2.5430917739868164e-01" purity="6.9753780961036682e-02" nType="-99"/>
            </Node>
            <Node pos="r" depth="3" NCoef="0" IVar="5" Cut="1.4285714924335480e-01" cType="1" res="-1.9077906012535095e-01" rms="3.8301011919975281e-01" purity="1.8291208148002625e-01" nType="0">
              <Node pos="l" depth="4" NCoef="0" IVar="-1" Cut="0.0000000000000000e+00" cType="1" res="-4.6117138117551804e-02" rms="3.5342192649841309e-01" purity="1.4631518721580505e-01" nType="-99"/>
              <Node pos="r" depth="4" NCoef="0" IVar="-1" Cut="0.0000000000000000e+00" cType="1" res="-2.5498760864138603e-02" rms="4.5693033933639526e-01" purity="2.9698604345321655e-01" nType="-99"/>
            </Node>
          </Node>
          <Node pos="r" depth="2" NCoef="0" IVar="3" Cut="8.3333330154418945e+00" cType="1" res="-6.0691211372613907e-02" rms="4.8153725266456604e-01" purity="3.9474618434906006e-01" nType="0">
            <Node pos="l" depth="3" NCoef="0" IVar="-1" Cut="0.0000000000000000e+00" cType="1" res="-4.3426565825939178e-02" rms="3.8308095932006836e-01" purity="1.7974138259887695e-01" nType="-99"/>
            <Node pos="r" depth="3" NCoef="0" IVar="4" Cut="9.3333330154418945e+00" cType="1" res="-3.9431340992450714e-02" rms="4.9073779582977295e-01" purity="4.2626771330833435e-01" nType="0">
              <Node pos="l" depth="4" NCoef="0" IVar="-1" Cut="0.0000000000000000e+00" cType="1" res="-2.4330709129571915e-02" rms="4.7016596794128418e-01" purity="3.3935368061065674e-01" nType="-99"/>
              <Node pos="r" depth="4" NCoef="0" IVar="-1" Cut="0.0000000000000000e+00" cType="1" res="-1.8980957102030516e-03" rms="4.9478235840797424e-01" purity="4.5844742655754089e-01" nType="-99"/>
            </Node>
          </Node>
        </Node>
        <Node pos="r" depth="1" NCoef="0" IVar="3" Cut="7.0000000000000000e+00" cType="1" res="1.3401506841182709e-01" rms="4.2629244923591614e-01" purity="7.2614520788192749e-01" nType="0">
          <Node pos="l" depth="2" NCoef="0" IVar="-1" Cut="0.0000000000000000e+00" cType="1" res="-3.0876288190484047e-02" rms="4.4618800282478333e-01" purity="2.7972891926765442e-01" nType="-99"/>
          <Node pos="r" depth="2" NCoef="0" IVar="7" Cut="4.7619048506021500e-02" cType="1" res="1.5325994789600372e-01" rms="4.1796204447746277e-01" purity="7.5625008344650269e-01" nType="0">
            <Node pos="l" depth="3" NCoef="0" IVar="4" Cut="8.2857141494750977e+00" cType="1" res="6.4103558659553528e-02" rms="4.6554300189018250e-01" purity="6.1614745855331421e-01" nType="0">
              <Node pos="l" depth="4" NCoef="0" IVar="-1" Cut="0.0000000000000000e+00" cType="1" res="-1.5873169526457787e-02" rms="4.7494256496429443e-01" purity="4.4735080003738403e-01" nType="-99"/>
              <Node pos="r" depth="4" NCoef="0" IVar="-1" Cut="0.0000000000000000e+00" cType="1" res="3.2594621181488037e-02" rms="4.3460455536842346e-01" purity="7.2720438241958618e-01" nType="-99"/>
            </Node>
            <Node pos="r" depth="3" NCoef="0" IVar="5" Cut="1.3428571701049805e+01" cType="1" res="1.7841842770576477e-01" rms="3.9994227886199951e-01" purity="7.9578471183776855e-01" nType="0">
              <Node pos="l" depth="4" NCoef="0" IVar="-1" Cut="0.0000000000000000e+00" cType="1" res="3.1223155558109283e-02" rms="4.2518222332000732e-01" purity="7.5636166334152222e-01" nType="-99"/>
              <Node pos="r" depth="4" NCoef="0" IVar="-1" Cut="0.0000000000000000e+00" cType="1" res="4.3604265898466110e-02" rms="3.7549912929534912e-01" purity="8.2898181676864624e-01" nType="-99"/>
            </Node>
          </Node>
        </Node>
      </Node>
    </BinaryTree>
    <BinaryTree type="DecisionTree" boostWeight="1.0000000000000000e+00" itree="6">
      <Node pos="s" depth="0" NCoef="0" IVar="5" Cut="6.5714287757873535e+00" cType="1" res="-9.3406107043847442e-04" rms="4.3327131867408752e-01" purity="4.9869981408119202e-01" nType="0">
        <Node pos="l" depth="1" NCoef="0" IVar="7" Cut="4.7619048506021500e-02" cType="1" res="-1.2113940715789795e-01" rms="4.1419798135757446e-01" purity="2.8098574280738831e-01" nType="0">
          <Node pos="l" depth="2" NCoef="0" IVar="4" Cut="9.3333330154418945e+00" cType="1" res="-1.9891090691089630e-01" rms="3.2886758446693420e-01" purity="1.3634930551052094e-01" nType="0">
            <Node pos="l" depth="3" NCoef="0" IVar="4" Cut="8.3333330154418945e+00" cType="1" res="-2.4554604291915894e-01" rms="2.3678754270076752e-01" purity="6.3101880252361298e-02" nType="0">
              <Node pos="l" depth="4" NCoef="0" IVar="-1" Cut="0.0000000000000000e+00" cType="1" res="-6.5929703414440155e-02" rms="1.7546275258064270e-01" purity="3.0999939888715744e-02" nType="-99"/>
              <Node pos="r" depth="4" NCoef="0" IVar="-1" Cut="0.0000000000000000e+00" cType="1" res="-5.1301322877407074e-02" rms="2.7663365006446838e-01" purity="9.1229692101478577e-02" nType="-99"/>
            </Node>
            <Node pos="r" depth="3" NCoef="0" IVar="5" Cut="1.1428571939468384e+00" cType="1" res="-1.4286850392818451e-01" rms="4.0619191527366638e-01" purity="2.2437222301959991e-01" nType="0">
              <Node pos="l" depth="4" NCoef="0" IVar="-1" Cut="0.0000000000000000e+00" cType="1" res="-3.8974691182374954e-02" rms="3.7570619583129883e-01" purity="1.7186424136161804e-01" nType="-99"/>
              <Node pos="r" depth="4" NCoef="0" IVar="-1" Cut="0.0000000000000000e+00" cType="1" res="-4.0873375837691128e-04" rms="4.9040436744689941e-01" purity="4.4481590390205383e-01" nType="-99"/>
            </Node>
          </Node>
          <Node pos="r" depth="2" NCoef="0" IVar="5" Cut="2.2857143878936768e+00" cType="1" res="-3.2796647399663925e-02" rms="4.7844505310058594e-01" purity="4.4528216123580933e-01" nType="0">
            <Node pos="l" depth="3" NCoef="0" IVar="4" Cut="9.3333330154418945e+00" cType="1" res="-7.6258361339569092e-02" rms="4.7503256797790527e-01" purity="3.6503088474273682e-01" nType="0">
              <Node pos="l" depth="4" NCoef="0" IVar="-1" Cut="0.0000000000000000e+00" cType="1" res="-3.1335256993770599e-02" rms="4.4078063964843750e-01" purity="2.7527040243148804e-01" nType="-99"/>
              <Node pos="r" depth="4" NCoef="0" IVar="-1" Cut="0.0000000000000000e+00" cType="1" res="-1.0039104148745537e-02" rms="4.8366171121597290e-01" purity="3.9666721224784851e-01" nType="-99"/>
            </Node>
            <Node pos="r" depth="3" NCoef="0" IVar="4" Cut="9.3333330154418945e+00" cType="1" res="6.8161740899085999e-02" rms="4.7104927897453308e-01" purity="6.3170003890991211e-01" nType="0">
              <Node pos="l" depth="4" NCoef="0" IVar="-1" Cut="0.0000000000000000e+00" cType="1" res="-3.2822876237332821e-03" rms="4.8443159461021423e-01" purity="5.2583551406860352e-01" nType="-99"/>
              <Node pos="r" depth="4" NCoef="0" IVar="-1" Cut="0.0000000000000000e+00" cType="1" res="2.4536481127142906e-02" rms="4.5531257987022400e-01" purity="6.9559818506240845e-01" nType="-99"/>
            </Node>
          </Node>
        </Node>
        <Node pos="r" depth="1" NCoef="0" IVar="3" Cut="7.0000000000000000e+00" cType="1" res="1.4581245183944702e-01" rms="4.1022291779518127e-01" purity="7.6448482275009155e-01" nType="0">
          <Node pos="l" depth="2" NCoef="0" IVar="-1" Cut="0.0000000000000000e+00" cType="1" res="-1.2452117167413235e-02" rms="4.8006895184516907e-01" purity="3.6023661494255066e-01" nType="-99"/>
          <Node pos="r" depth="2" NCoef="0" IVar="4" Cut="6.1904764175415039e+00" cType="1" res="1.5800006687641144e-01" rms="4.0242713689804077e-01" purity="7.8834164142608643e-01" nType="0">
            <Node pos="l" depth="3" NCoef="0" IVar="-1" Cut="0.0000000000000000e+00" cType="1" res="1.3672318309545517e-02" rms="4.4878405332565308e-01" purity="6.7221987247467041e-01" nType="-99"/>
            <Node pos="r" depth="3" NCoef="0" IVar="4" Cut="1.0238095283508301e+01" cType="1" res="1.6958418488502502e-01" rms="3.9477124810218811e-01" purity="8.0271768569946289e-01" nType="0">
              <Node pos="l" depth="4" NCoef="0" IVar="-1" Cut="0.0000000000000000e+00" cType="1" res="3.9571862667798996e-02" rms="3.8435164093971252e-01" purity="8.1646120548248291e-01" nType="-99"/>
              <Node pos="r" depth="4" NCoef="0" IVar="-1" Cut="0.0000000000000000e+00" cType="1" res="1.5194597654044628e-02" rms="4.5374026894569397e-01" purity="6.9925475120544434e-01" nType="-99"/>
            </Node>
          </Node>
        </Node>
      </Node>
    </BinaryTree>
    <BinaryTree type="DecisionTree" boostWeight="1.0000000000000000e+00" itree="7">
      <Node pos="s" depth="0" NCoef="0" IVar="5" Cut="3.3333332538604736e+00" cType="1" res="1.7039646627381444e-04" rms="4.2690175771713257e-01" purity="5.0008398294448853e-01" nType="0">
        <Node pos="l" depth="1" NCoef="0" IVar="7" Cut="4.7619048506021500e-02" cType="1" res="-1.2893159687519073e-01" rms="3.9668923616409302e-01" purity="2.3406481742858887e-01" nType="0">
          <Node pos="l" depth="2" NCoef="0" IVar="4" Cut="9.3333330154418945e+00" cType="1" res="-1.8968647718429565e-01" rms="3.0591234564781189e-01" purity="1.1147703975439072e-01" nType="0">
            <Node pos="l" depth="3" NCoef="0" IVar="5" Cut="1.4285714924335480e-01" cType="1" res="-2.1975122392177582e-01" rms="2.1524293720722198e-01" purity="4.9376856535673141e-02" nType="0">
              <Node pos="l" depth="4" NCoef="0" IVar="-1" Cut="0.0000000000000000e+00" cType="1" res="-5.8864492923021317e-02" rms="1.9344076514244080e-01" purity="3.9184503257274628e-02" nType="-99"/>
              <Node pos="r" depth="4" NCoef="0" IVar="-1" Cut="0.0000000000000000e+00" cType="1" res="-5.1582816988229752e-02" rms="2.4172258377075195e-01" purity="6.3935428857803345e-02" nType="-99"/>
            </Node>
            <Node pos="r" depth="3" NCoef="0" IVar="3" Cut="1.0142857551574707e+01" cType="1" res="-1.5355826914310455e-01" rms="3.8467353582382202e-01" purity="1.8610160052776337e-01" nType="0">
              <Node pos="l" depth="4" NCoef="0" IVar="-1" Cut="0.0000000000000000e+00" cType="1" res="-4.6148061752319336e-02" rms="3.3314472436904907e-01" purity="1.2732365727424622e-01" nType="-99"/>
              <Node pos="r" depth="4" NCoef="0" IVar="-1" Cut="0.0000000000000000e+00" cType="1" res="-2.9085125774145126e-02" rms="4.0413060784339905e-01" purity="2.1318352222442627e-01" nType="-99"/>
            </Node>
          </Node>
          <Node pos="r" depth="2" NCoef="0" IVar="3" Cut="9.6666669845581055e+00" cType="1" res="-5.0479520112276077e-02" rms="4.7833001613616943e-01" purity="3.9236098527908325e-01" nType="0">
            <Node pos="l" depth="3" NCoef="0" IVar="-1" Cut="0.0000000000000000e+00" cType="1" res="-3.3711485564708710e-02" rms="4.1661038994789124e-01" purity="2.3573200404644012e-01" nType="-99"/>
            <Node pos="r" depth="3" NCoef="0" IVar="5" Cut="1.1428571939468384e+00" cType="1" res="-1.4927696436643600e-02" rms="4.9151158332824707e-01" purity="4.4323158264160156e-01" nType="0">
              <Node pos="l" depth="4" NCoef="0" IVar="-1" Cut="0.0000000000000000e+00" cType="1" res="-8.0947401002049446e-03" rms="4.8829871416091919e-01" purity="3.9926862716674805e-01" nType="-99"/>
              <Node pos="r" depth="4" NCoef="0" IVar="-1" Cut="0.0000000000000000e+00" cType="1" res="9.1861281543970108e-03" rms="4.9402216076850891e-01" purity="5.5043983459472656e-01" nType="-99"/>
            </Node>
          </Node>
        </Node>
        <Node pos="r" depth="1" NCoef="0" IVar="7" Cut="4.7619048506021500e-02" cType="1" res="1.1016306281089783e-01" rms="4.2088735103607178e-01" purity="7.2672772407531738e-01" nType="0">
          <Node pos="l" depth="2" NCoef="0" IVar="4" Cut="8.2857141494750977e+00" cType="1" res="1.4590311329811811e-03" rms="4.5592406392097473e-01" purity="5.4364752769470215e-01" nType="0">
            <Node pos="l" depth="3" NCoef="0" IVar="5" Cut="1.0095237731933594e+01" cType="1" res="-1.2860077619552612e-01" rms="4.3938434123992920e-01" purity="3.6142331361770630e-01" nType="0">
              <Node pos="l" depth="4" NCoef="0" IVar="-1" Cut="0.0000000000000000e+00" cType="1" res="-6.4145751297473907e-02" rms="3.0576729774475098e-01" purity="1.1736232787370682e-01" nType="-99"/>
              <Node pos="r" depth="4" NCoef="0" IVar="-1" Cut="0.0000000000000000e+00" cType="1" res="8.6486725194845349e-05" rms="4.7499445080757141e-01" purity="5.3834003210067749e-01" nType="-99"/>
            </Node>
            <Node pos="r" depth="3" NCoef="0" IVar="5" Cut="1.0190476417541504e+01" cType="1" res="1.1726490408182144e-01" rms="4.3883857131004333e-01" purity="7.0590084791183472e-01" nType="0">
              <Node pos="l" depth="4" NCoef="0" IVar="-1" Cut="0.0000000000000000e+00" cType="1" res="1.4373372308909893e-02" rms="4.7324234247207642e-01" purity="6.0874873399734497e-01" nType="-99"/>
              <Node pos="r" depth="4" NCoef="0" IVar="-1" Cut="0.0000000000000000e+00" cType="1" res="3.3260885626077652e-02" rms="4.0639945864677429e-01" purity="7.8121685981750488e-01" nType="-99"/>
            </Node>
          </Node>
          <Node pos="r" depth="2" NCoef="0" IVar="5" Cut="1.3428571701049805e+01" cType="1" res="1.4524808526039124e-01" rms="4.0272328257560730e-01" purity="7.8581815958023071e-01" nType="0">
            <Node pos="l" depth="3" NCoef="0" IVar="4" Cut="8.2857141494750977e+00" cType="1" res="1.1397523432970047e-01" rms="4.2627328634262085e-01" purity="7.4447602033615112e-01" nType="0">
              <Node pos="l" depth="4" NCoef="0" IVar="-1" Cut="0.0000000000000000e+00" cType="1" res="5.5467607453465462e-03" rms="4.5979583263397217e-01" purity="6.2959533929824829e-01" nType="-99"/>
              <Node pos="r" depth="4" NCoef="0" IVar="-1" Cut="0.0000000000000000e+00" cType="1" res="2.9314158484339714e-02" rms="4.1520732641220093e-01" purity="7.7166825532913208e-01" nType="-99"/>
            </Node>
            <Node pos="r" depth="3" NCoef="0" IVar="2" Cut="1.1874405145645142e+00" cType="1" res="1.7153915762901306e-01" rms="3.7981536984443665e-01" purity="8.2057458162307739e-01" nType="0">
              <Node pos="l" depth="4" NCoef="0" IVar="-1" Cut="0.0000000000000000e+00" cType="1" res="4.0966354310512543e-02" rms="3.6950433254241943e-01" purity="8.3286327123641968e-01" nType="-99"/>
              <Node pos="r" depth="4" NCoef="0" IVar="-1" Cut="0.0000000000000000e+00" cType="1" res="3.0740903690457344e-02" rms="4.0425801277160645e-01" purity="7.8766453266143799e-01" nType="-99"/>
            </Node>
          </Node>
        </Node>
      </Node>
    </BinaryTree>
    <BinaryTree type="DecisionTree" boostWeight="1.0000000000000000e+00" itree="8">
      <Node pos="s" depth="0" NCoef="0" IVar="5" Cut="6.6666665077209473e+00" cType="1" res="-4.3382387957535684e-04" rms="4.2222890257835388e-01" purity="4.9894395470619202e-01" nType="0">
        <Node pos="l" depth="1" NCoef="0" IVar="7" Cut="4.7619048506021500e-02" cType="1" res="-9.7563847899436951e-02" rms="4.0913757681846619e-01" purity="2.8325650095939636e-01" nType="0">
          <Node pos="l" depth="2" NCoef="0" IVar="4" Cut="8.2857141494750977e+00" cType="1" res="-1.6468714177608490e-01" rms="3.2330763339996338e-01" purity="1.3288477063179016e-01" nType="0">
            <Node pos="l" depth="3" NCoef="0" IVar="3" Cut="7.1428570747375488e+00" cType="1" res="-2.2662623226642609e-01" rms="1.7715246975421906e-01" purity="3.3080440014600754e-02" nType="0">
              <Node pos="l" depth="4" NCoef="0" IVar="-1" Cut="0.0000000000000000e+00" cType="1" res="-6.3702538609504700e-02" rms="1.1780505627393723e-01" purity="1.3343961909413338e-02" nType="-99"/>
              <Node pos="r" depth="4" NCoef="0" IVar="-1" Cut="0.0000000000000000e+00" cType="1" res="-5.6870549917221069e-02" rms="2.0844334363937378e-01" purity="4.6854421496391296e-02" nType="-99"/>
            </Node>
            <Node pos="r" depth="3" NCoef="0" IVar="5" Cut="1.1428571939468384e+00" cType="1" res="-1.4381518959999084e-01" rms="3.5699775815010071e-01" purity="1.6651637852191925e-01" nType="0">
              <Node pos="l" depth="4" NCoef="0" IVar="-1" Cut="0.0000000000000000e+00" cType="1" res="-4.1602626442909241e-02" rms="3.2068464159965515e-01" purity="1.2019739300012589e-01" nType="-99"/>
              <Node pos="r" depth="4" NCoef="0" IVar="-1" Cut="0.0000000000000000e+00" cType="1" res="-1.1875851778313518e-03" rms="4.8164245486259460e-01" purity="4.0618437528610229e-01" nType="-99"/>
            </Node>
          </Node>
          <Node pos="r" depth="2" NCoef="0" IVar="5" Cut="2.2857143878936768e+00" cType="1" res="-2.2269235923886299e-02" rms="4.7664350271224976e-01" purity="4.5193389058113098e-01" nType="0">
            <Node pos="l" depth="3" NCoef="0" IVar="3" Cut="9.6666669845581055e+00" cType="1" res="-5.8510951697826385e-02" rms="4.7585263848304749e-01" purity="3.6994689702987671e-01" nType="0">
              <Node pos="l" depth="4" NCoef="0" IVar="-1" Cut="0.0000000000000000e+00" cType="1" res="-2.7884559705853462e-02" rms="4.2588678002357483e-01" purity="2.4752700328826904e-01" nType="-99"/>
              <Node pos="r" depth="4" NCoef="0" IVar="-1" Cut="0.0000000000000000e+00" cType="1" res="-6.9073312915861607e-03" rms="4.8936122655868530e-01" purity="4.1176941990852356e-01" nType="-99"/>
            </Node>
            <Node pos="r" depth="3" NCoef="0" IVar="4" Cut="9.3333330154418945e+00" cType="1" res="6.2458775937557220e-02" rms="4.6765434741973877e-01" purity="6.4360797405242920e-01" nType="0">
              <Node pos="l" depth="4" NCoef="0" IVar="-1" Cut="0.0000000000000000e+00" cType="1" res="-2.7481429278850555e-03" rms="4.8453068733215332e-01" purity="5.3753197193145752e-01" nType="-99"/>
              <Node pos="r" depth="4" NCoef="0" IVar="-1" Cut="0.0000000000000000e+00" cType="1" res="2.2520247846841812e-02" rms="4.5147669315338135e-01" purity="7.0618164539337158e-01" nType="-99"/>
            </Node>
          </Node>
        </Node>
        <Node pos="r" depth="1" NCoef="0" IVar="3" Cut="7.1428570747375488e+00" cType="1" res="1.1879586428403854e-01" rms="4.0723553299903870e-01" purity="7.6370596885681152e-01" nType="0">
          <Node pos="l" depth="2" NCoef="0" IVar="-1" Cut="0.0000000000000000e+00" cType="1" res="-1.0268491692841053e-02" rms="4.7674176096916199e-01" purity="3.7642273306846619e-01" nType="-99"/>
          <Node pos="r" depth="2" NCoef="0" IVar="4" Cut="1.0380952835083008e+01" cType="1" res="1.3071507215499878e-01" rms="3.9918631315231323e-01" purity="7.9103523492813110e-01" nType="0">
            <Node pos="l" depth="3" NCoef="0" IVar="4" Cut="6.1904764175415039e+00" cType="1" res="1.4117309451103210e-01" rms="3.9080664515495300e-01" purity="8.0234074592590332e-01" nType="0">
              <Node pos="l" depth="4" NCoef="0" IVar="-1" Cut="0.0000000000000000e+00" cType="1" res="1.0256424546241760e-02" rms="4.4393685460090637e-01" purity="6.7048257589340210e-01" nType="-99"/>
              <Node pos="r" depth="4" NCoef="0" IVar="-1" Cut="0.0000000000000000e+00" cType="1" res="3.4867554903030396e-02" rms="3.8104653358459473e-01" purity="8.2061207294464111e-01" nType="-99"/>
            </Node>
            <Node pos="r" depth="3" NCoef="0" IVar="-1" Cut="0.0000000000000000e+00" cType="1" res="9.8195075988769531e-03" rms="4.5348790287971497e-01" purity="6.9768399000167847e-01" nType="-99"/>
          </Node>
        </Node>
      </Node>
    </BinaryTree>
    <BinaryTree type="DecisionTree" boostWeight="1.0000000000000000e+00" itree="9">
      <Node pos="s" depth="0" NCoef="0" IVar="5" Cut="6.6666665077209473e+00" cType="1" res="-5.9525234973989427e-05" rms="4.1778793931007385e-01" purity="4.9933731555938721e-01" nType="0">
        <Node pos="l" depth="1" NCoef="0" IVar="7" Cut="4.7619048506021500e-02" cType="1" res="-8.7390683591365814e-02" rms="4.0669080615043640e-01" purity="2.8355696797370911e-01" nType="0">
          <Node pos="l" depth="2" NCoef="0" IVar="4" Cut="9.3333330154418945e+00" cType="1" res="-1.4689972996711731e-01" rms="3.2220834493637085e-01" purity="1.3474278151988983e-01" nType="0">
            <Node pos="l" depth="3" NCoef="0" IVar="4" Cut="8.3333330154418945e+00" cType="1" res="-1.7794659733772278e-01" rms="2.4098789691925049e-01" purity="6.7824207246303558e-02" nType="0">
              <Node pos="l" depth="4" NCoef="0" IVar="-1" Cut="0.0000000000000000e+00" cType="1" res="-5.6962136179208755e-02" rms="1.7809952795505524e-01" purity="3.3441048115491867e-02" nType="-99"/>
              <Node pos="r" depth="4" NCoef="0" IVar="-1" Cut="0.0000000000000000e+00" cType="1" res="-4.1584350168704987e-02" rms="2.8265756368637085e-01" purity="9.7729913890361786e-02" nType="-99"/>
            </Node>
            <Node pos="r" depth="3" NCoef="0" IVar="5" Cut="1.1428571939468384e+00" cType="1" res="-1.0827947407960892e-01" rms="3.9752861857414246e-01" purity="2.1798509359359741e-01" nType="0">
              <Node pos="l" depth="4" NCoef="0" IVar="-1" Cut="0.0000000000000000e+00" cType="1" res="-3.2282479107379913e-02" rms="3.6774733662605286e-01" purity="1.6319146752357483e-01" nType="-99"/>
              <Node pos="r" depth="4" NCoef="0" IVar="-1" Cut="0.0000000000000000e+00" cType="1" res="3.0133654945529997e-04" rms="4.8782417178153992e-01" purity="4.4609850645065308e-01" nType="-99"/>
            </Node>
          </Node>
          <Node pos="r" depth="2" NCoef="0" IVar="3" Cut="8.3333330154418945e+00" cType="1" res="-2.0039835944771767e-02" rms="4.7596958279609680e-01" purity="4.5198115706443787e-01" nType="0">
            <Node pos="l" depth="3" NCoef="0" IVar="-1" Cut="0.0000000000000000e+00" cType="1" res="-3.7599120289087296e-02" rms="3.8307687640190125e-01" purity="1.8024459481239319e-01" nType="-99"/>
            <Node pos="r" depth="3" NCoef="0" IVar="5" Cut="2.2857143878936768e+00" cType="1" res="-4.4636227539740503e-04" rms="4.8345446586608887e-01" purity="4.8769024014472961e-01" nType="0">
              <Node pos="l" depth="4" NCoef="0" IVar="-1" Cut="0.0000000000000000e+00" cType="1" res="-6.6631739027798176e-03" rms="4.8746412992477417e-01" purity="4.0520727634429932e-01" nType="-99"/>
              <Node pos="r" depth="4" NCoef="0" IVar="-1" Cut="0.0000000000000000e+00" cType="1" res="1.4643108472228050e-02" rms="4.6694484353065491e-01" purity="6.6748148202896118e-01" nType="-99"/>
            </Node>
          </Node>
        </Node>
        <Node pos="r" depth="1" NCoef="0" IVar="3" Cut="1.1000000000000000e+01" cType="1" res="1.0684870183467865e-01" rms="4.0617898106575012e-01" purity="7.6348924636840820e-01" nType="0">
          <Node pos="l" depth="2" NCoef="0" IVar="-1" Cut="0.0000000000000000e+00" cType="1" res="-4.3701343238353729e-03" rms="4.7103095054626465e-01" purity="4.8601731657981873e-01" nType="-99"/>
          <Node pos="r" depth="2" NCoef="0" IVar="4" Cut="1.0380952835083008e+01" cType="1" res="1.2266103923320770e-01" rms="3.9453992247581482e-01" purity="7.9788905382156372e-01" nType="0">
            <Node pos="l" depth="3" NCoef="0" IVar="4" Cut="6.1904764175415039e+00" cType="1" res="1.3345284759998322e-01" rms="3.8501560688018799e-01" purity="8.1063759326934814e-01" nType="0">
              <Node pos="l" depth="4" NCoef="0" IVar="-1" Cut="0.0000000000000000e+00" cType="1" res="1.1137695983052254e-02" rms="4.4119414687156677e-01" purity="6.8205618858337402e-01" nType="-99"/>
              <Node pos="r" depth="4" NCoef="0" IVar="-1" Cut="0.0000000000000000e+00" cType="1" res="3.3684697002172470e-02" rms="3.7497586011886597e-01" purity="8.2875329256057739e-01" nType="-99"/>
            </Node>
            <Node pos="r" depth="3" NCoef="0" IVar="-1" Cut="0.0000000000000000e+00" cType="1" res="7.8791733831167221e-03" rms="4.5516309142112732e-01" purity="6.9472998380661011e-01" nType="-99"/>
          </Node>
        </Node>
      </Node>
    </BinaryTree>
    <BinaryTree type="DecisionTree" boostWeight="1.0000000000000000e+00" itree="10">
      <Node pos="s" depth="0" NCoef="0" IVar="5" Cut="6.6666665077209473e+00" cType="1" res="1.2759630335494876e-03" rms="4.1440716385841370e-01" purity="5.0123012065887451e-01" nType="0">
        <Node pos="l" depth="1" NCoef="0" IVar="7" Cut="4.7619048506021500e-02" cType="1" res="-7.9287461936473846e-02" rms="4.0556767582893372e-01" purity="2.8194156289100647e-01" nType="0">
          <Node pos="l" depth="2" NCoef="0" IVar="4" Cut="9.3333330154418945e+00" cType="1" res="-1.2903958559036255e-01" rms="3.2640594244003296e-01" purity="1.3848553597927094e-01" nType="0">
            <Node pos="l" depth="3" NCoef="0" IVar="4" Cut="8.3333330154418945e+00" cType="1" res="-1.6124297678470612e-01" rms="2.3969630897045135e-01" purity="6.7168675363063812e-02" nType="0">
              <Node pos="l" depth="4" NCoef="0" IVar="-1" Cut="0.0000000000000000e+00" cType="1" res="-5.5194612592458725e-02" rms="1.7429645359516144e-01" purity="3.1604219228029251e-02" nType="-99"/>
              <Node pos="r" depth="4" NCoef="0" IVar="-1" Cut="0.0000000000000000e+00" cType="1" res="-3.9117787033319473e-02" rms="2.8227102756500244e-01" purity="9.7633443772792816e-02" nType="-99"/>
            </Node>
            <Node pos="r" depth="3" NCoef="0" IVar="3" Cut="1.0714285850524902e+01" cType="1" res="-8.9751668274402618e-02" rms="4.0449637174606323e-01" purity="2.2549162805080414e-01" nType="0">
              <Node pos="l" depth="4" NCoef="0" IVar="-1" Cut="0.0000000000000000e+00" cType="1" res="-3.7968117743730545e-02" rms="3.4149104356765747e-01" purity="1.3364192843437195e-01" nType="-99"/>
              <Node pos="r" depth="4" NCoef="0" IVar="-1" Cut="0.0000000000000000e+00" cType="1" res="-1.4489453285932541e-02" rms="4.2571830749511719e-01" purity="2.6489576697349548e-01" nType="-99"/>
            </Node>
          </Node>
          <Node pos="r" depth="2" NCoef="0" IVar="3" Cut="8.3333330154418945e+00" cType="1" res="-2.1444490179419518e-02" rms="4.7500410676002502e-01" purity="4.4872689247131348e-01" nType="0">
            <Node pos="l" depth="3" NCoef="0" IVar="-1" Cut="0.0000000000000000e+00" cType="1" res="-3.6241620779037476e-02" rms="3.7853518128395081e-01" purity="1.7316806316375732e-01" nType="-99"/>
            <Node pos="r" depth="3" NCoef="0" IVar="5" Cut="2.8571429848670959e-01" cType="1" res="-3.3014642540365458e-03" rms="4.8338106274604797e-01" purity="4.8505258560180664e-01" nType="0">
              <Node pos="l" depth="4" NCoef="0" IVar="-1" Cut="0.0000000000000000e+00" cType="1" res="-1.1996649205684662e-02" rms="4.7968602180480957e-01" purity="3.6490458250045776e-01" nType="-99"/>
              <Node pos="r" depth="4" NCoef="0" IVar="-1" Cut="0.0000000000000000e+00" cType="1" res="6.1101517640054226e-03" rms="4.8258212208747864e-01" purity="5.5644869804382324e-01" nType="-99"/>
            </Node>
          </Node>
        </Node>
        <Node pos="r" depth="1" NCoef="0" IVar="7" Cut="4.7619048506021500e-02" cType="1" res="9.8964847624301910e-02" rms="4.0386751294136047e-01" purity="7.6713311672210693e-01" nType="0">
          <Node pos="l" depth="2" NCoef="0" IVar="4" Cut="8.2857141494750977e+00" cType="1" res="1.5015578828752041e-02" rms="4.4671019911766052e-01" purity="6.1864787340164185e-01" nType="0">
            <Node pos="l" depth="3" NCoef="0" IVar="-1" Cut="0.0000000000000000e+00" cType="1" res="-1.8359946087002754e-02" rms="4.6063163876533508e-01" purity="4.5052164793014526e-01" nType="-99"/>
            <Node pos="r" depth="3" NCoef="0" IVar="-1" Cut="0.0000000000000000e+00" cType="1" res="2.2680031135678291e-02" rms="4.1585198044776917e-01" purity="7.5756531953811646e-01" nType="-99"/>
          </Node>
          <Node pos="r" depth="2" NCoef="0" IVar="5" Cut="2.5000000000000000e+01" cType="1" res="1.2230733036994934e-01" rms="3.8790708780288696e-01" purity="8.0842018127441406e-01" nType="0">
            <Node pos="l" depth="3" NCoef="0" IVar="2" Cut="1.1874405145645142e+00" cType="1" res="1.1195995658636093e-01" rms="3.9341557025909424e-01" purity="7.9962688684463501e-01" nType="0">
              <Node pos="l" depth="4" NCoef="0" IVar="-1" Cut="0.0000000000000000e+00" cType="1" res="2.9470266774296761e-02" rms="3.8276484608650208e-01" purity="8.1269955635070801e-01" nType="-99"/>
              <Node pos="r" depth="4" NCoef="0" IVar="-1" Cut="0.0000000000000000e+00" cType="1" res="1.8448797985911369e-02" rms="4.1905552148818970e-01" purity="7.6423573493957520e-01" nType="-99"/>
            </Node>
            <Node pos="r" depth="3" NCoef="0" IVar="4" Cut="7.2380952835083008e+00" cType="1" res="1.6184788942337036e-01" rms="3.6339059472084045e-01" purity="8.4202188253402710e-01" nType="0">
              <Node pos="l" depth="4" NCoef="0" IVar="-1" Cut="0.0000000000000000e+00" cType="1" res="4.0789477527141571e-02" rms="3.4966337680816650e-01" purity="8.5340017080307007e-01" nType="-99"/>
              <Node pos="r" depth="4" NCoef="0" IVar="-1" Cut="0.0000000000000000e+00" cType="1" res="3.4717172384262085e-02" rms="3.7823665142059326e-01" purity="8.2878935337066650e-01" nType="-99"/>
            </Node>
          </Node>
        </Node>
      </Node>
    </BinaryTree>
    <BinaryTree type="DecisionTree" boostWeight="1.0000000000000000e+00" itree="11">
      <Node pos="s" depth="0" NCoef="0" IVar="5" Cut="3.3333332538604736e+00" cType="1" res="-1.1518035316839814e-03" rms="4.1103056073188782e-01" purity="4.9928861856460571e-01" nType="0">
        <Node pos="l" depth="1" NCoef="0" IVar="7" Cut="4.7619048506021500e-02" cType="1" res="-8.8222436606884003e-02" rms="3.9119228720664978e-01" purity="2.3309066891670227e-01" nType="0">
          <Node pos="l" depth="2" NCoef="0" IVar="4" Cut="9.3333330154418945e+00" cType="1" res="-1.2917508184909821e-01" rms="3.0332913994789124e-01" purity="1.1080081015825272e-01" nType="0">
            <Node pos="l" depth="3" NCoef="0" IVar="5" Cut="1.4285714924335480e-01" cType="1" res="-1.5172569453716278e-01" rms="2.1101236343383789e-01" purity="4.7863863408565521e-02" nType="0">
              <Node pos="l" depth="4" NCoef="0" IVar="-1" Cut="0.0000000000000000e+00" cType="1" res="-5.2790284156799316e-02" rms="1.7689073085784912e-01" purity="3.2595694065093994e-02" nType="-99"/>
              <Node pos="r" depth="4" NCoef="0" IVar="-1" Cut="0.0000000000000000e+00" cType="1" res="-3.9883404970169067e-02" rms="2.4919590353965759e-01" purity="6.9597251713275909e-02" nType="-99"/>
            </Node>
            <Node pos="r" depth="3" NCoef="0" IVar="1" Cut="1.0744062662124634e+00" cType="1" res="-1.0246256738901138e-01" rms="3.8332527875900269e-01" purity="1.8535335361957550e-01" nType="0">
              <Node pos="l" depth="4" NCoef="0" IVar="-1" Cut="0.0000000000000000e+00" cType="1" res="-1.9697209820151329e-02" rms="3.9950832724571228e-01" purity="2.0758228003978729e-01" nType="-99"/>
              <Node pos="r" depth="4" NCoef="0" IVar="-1" Cut="0.0000000000000000e+00" cType="1" res="-4.2629674077033997e-02" rms="3.1642767786979675e-01" purity="1.1489311605691910e-01" nType="-99"/>
            </Node>
          </Node>
          <Node pos="r" depth="2" NCoef="0" IVar="2" Cut="1.1900475025177002e+00" cType="1" res="-3.5710655152797699e-02" rms="4.7578388452529907e-01" purity="3.8989755511283875e-01" nType="0">
            <Node pos="l" depth="3" NCoef="0" IVar="4" Cut="9.3333330154418945e+00" cType="1" res="-1.0932820849120617e-02" rms="4.8060181736946106e-01" purity="4.1608679294586182e-01" nType="0">
              <Node pos="l" depth="4" NCoef="0" IVar="-1" Cut="0.0000000000000000e+00" cType="1" res="-1.7362397164106369e-02" rms="4.5344454050064087e-01" purity="3.2383775711059570e-01" nType="-99"/>
              <Node pos="r" depth="4" NCoef="0" IVar="-1" Cut="0.0000000000000000e+00" cType="1" res="3.6010281182825565e-03" rms="4.8807063698768616e-01" purity="4.5266661047935486e-01" nType="-99"/>
            </Node>
            <Node pos="r" depth="3" NCoef="0" IVar="5" Cut="1.4285714924335480e-01" cType="1" res="-9.3760341405868530e-02" rms="4.5909368991851807e-01" purity="3.2854127883911133e-01" nType="0">
              <Node pos="l" depth="4" NCoef="0" IVar="-1" Cut="0.0000000000000000e+00" cType="1" res="-2.4893164634704590e-02" rms="4.4306769967079163e-01" purity="2.7870577573776245e-01" nType="-99"/>
              <Node pos="r" depth="4" NCoef="0" IVar="-1" Cut="0.0000000000000000e+00" cType="1" res="-1.4096642844378948e-02" rms="4.7398436069488525e-01" purity="3.8078847527503967e-01" nType="-99"/>
            </Node>
          </Node>
        </Node>
        <Node pos="r" depth="1" NCoef="0" IVar="3" Cut="8.3333330154418945e+00" cType="1" res="7.3492400348186493e-02" rms="4.1293880343437195e-01" purity="7.2749572992324829e-01" nType="0">
          <Node pos="l" depth="2" NCoef="0" IVar="-1" Cut="0.0000000000000000e+00" cType="1" res="-1.7270222306251526e-02" rms="4.4655442237854004e-01" purity="3.3740586042404175e-01" nType="-99"/>
          <Node pos="r" depth="2" NCoef="0" IVar="4" Cut="6.1904764175415039e+00" cType="1" res="8.7436810135841370e-02" rms="4.0689566731452942e-01" purity="7.6252985000610352e-01" nType="0">
            <Node pos="l" depth="3" NCoef="0" IVar="-1" Cut="0.0000000000000000e+00" cType="1" res="-1.5536838909611106e-03" rms="4.3326121568679810e-01" purity="5.9848761558532715e-01" nType="-99"/>
            <Node pos="r" depth="3" NCoef="0" IVar="4" Cut="1.0238095283508301e+01" cType="1" res="9.8732486367225647e-02" rms="4.0214356780052185e-01" purity="7.8216093778610229e-01" nType="0">
              <Node pos="l" depth="4" NCoef="0" IVar="-1" Cut="0.0000000000000000e+00" cType="1" res="2.6824165135622025e-02" rms="3.9204609394073486e-01" purity="7.9925245046615601e-01" nType="-99"/>
              <Node pos="r" depth="4" NCoef="0" IVar="-1" Cut="0.0000000000000000e+00" cType="1" res="-1.6159780789166689e-03" rms="4.5739182829856873e-01" purity="6.5386509895324707e-01" nType="-99"/>
            </Node>
          </Node>
        </Node>
      </Node>
    </BinaryTree>
    <BinaryTree type="DecisionTree" boostWeight="1.0000000000000000e+00" itree="12">
      <Node pos="s" depth="0" NCoef="0" IVar="5" Cut="1.0000000000000000e+01" cType="1" res="-4.7723218449391425e-04" rms="4.0940669178962708e-01" purity="4.9831327795982361e-01" nType="0">
        <Node pos="l" depth="1" NCoef="0" IVar="6" Cut="4.9504708862304688e+02" cType="1" res="-5.5824834853410721e-02" rms="4.0587484836578369e-01" purity="3.2928544282913208e-01" nType="0">
          <Node pos="l" depth="2" NCoef="0" IVar="6" Cut="7.4981040954589844e+01" cType="1" res="-7.4479602277278900e-02" rms="3.9754462242126465e-01" purity="2.9780295491218567e-01" nType="0">
            <Node pos="l" depth="3" NCoef="0" IVar="7" Cut="4.7619048506021500e-02" cType="1" res="-1.4161595702171326e-01" rms="3.5307452082633972e-01" purity="1.9202624261379242e-01" nType="0">
              <Node pos="l" depth="4" NCoef="0" IVar="-1" Cut="0.0000000000000000e+00" cType="1" res="-4.9555607140064240e-02" rms="2.4933551251888275e-01" purity="6.8432696163654327e-02" nType="-99"/>
              <Node pos="r" depth="4" NCoef="0" IVar="-1" Cut="0.0000000000000000e+00" cType="1" res="-2.0469024777412415e-02" rms="4.5643121004104614e-01" purity="3.6457678675651550e-01" nType="-99"/>
            </Node>
            <Node pos="r" depth="3" NCoef="0" IVar="6" Cut="1.1497979736328125e+02" cType="1" res="9.2939488589763641e-02" rms="4.4945883750915527e-01" purity="5.6158024072647095e-01" nType="0">
              <Node pos="l" depth="4" NCoef="0" IVar="-1" Cut="0.0000000000000000e+00" cType="1" res="2.0859811920672655e-03" rms="4.4129508733749390e-01" purity="4.2415851354598999e-01" nType="-99"/>
              <Node pos="r" depth="4" NCoef="0" IVar="-1" Cut="0.0000000000000000e+00" cType="1" res="3.0205922201275826e-02" rms="4.4777479767799377e-01" purity="6.2725746631622314e-01" nType="-99"/>
            </Node>
          </Node>
          <Node pos="r" depth="2" NCoef="0" IVar="-1" Cut="0.0000000000000000e+00" cType="1" res="4.5005526393651962e-02" rms="4.3147769570350647e-01" purity="7.6223534345626831e-01" nType="-99"/>
        </Node>
        <Node pos="r" depth="1" NCoef="0" IVar="7" Cut="4.7619048506021500e-02" cType="1" res="9.1775961220264435e-02" rms="3.9849299192428589e-01" purity="7.8004825115203857e-01" nType="0">
          <Node pos="l" depth="2" NCoef="0" IVar="4" Cut="8.2857141494750977e+00" cType="1" res="3.7969578057527542e-02" rms="4.3897977471351624e-01" purity="6.5801823139190674e-01" nType="0">
            <Node pos="l" depth="3" NCoef="0" IVar="-1" Cut="0.0000000000000000e+00" cType="1" res="-6.9072227925062180e-03" rms="4.6922835707664490e-01" purity="5.1277458667755127e-01" nType="-99"/>
            <Node pos="r" depth="3" NCoef="0" IVar="-1" Cut="0.0000000000000000e+00" cType="1" res="2.3415643721818924e-02" rms="4.0091016888618469e-01" purity="7.8383630514144897e-01" nType="-99"/>
          </Node>
          <Node pos="r" depth="2" NCoef="0" IVar="5" Cut="2.1428571701049805e+01" cType="1" res="1.0608720779418945e-01" rms="3.8575050234794617e-01" purity="8.1250536441802979e-01" nType="0">
            <Node pos="l" depth="3" NCoef="0" IVar="2" Cut="1.3944333791732788e+00" cType="1" res="8.8970884680747986e-02" rms="3.9442414045333862e-01" purity="7.9857230186462402e-01" nType="0">
              <Node pos="l" depth="4" NCoef="0" IVar="-1" Cut="0.0000000000000000e+00" cType="1" res="2.4044098332524300e-02" rms="3.8727647066116333e-01" purity="8.0791610479354858e-01" nType="-99"/>
              <Node pos="r" depth="4" NCoef="0" IVar="-1" Cut="0.0000000000000000e+00" cType="1" res="1.2501249089837074e-02" rms="4.2474001646041870e-01" purity="7.5415086746215820e-01" nType="-99"/>
            </Node>
            <Node pos="r" depth="3" NCoef="0" IVar="2" Cut="1.1802754402160645e+00" cType="1" res="1.3778156042098999e-01" rms="3.6705040931701660e-01" purity="8.3830517530441284e-01" nType="0">
              <Node pos="l" depth="4" NCoef="0" IVar="-1" Cut="0.0000000000000000e+00" cType="1" res="3.5876464098691940e-02" rms="3.5835209488868713e-01" purity="8.4812486171722412e-01" nType="-99"/>
              <Node pos="r" depth="4" NCoef="0" IVar="-1" Cut="0.0000000000000000e+00" cType="1" res="2.8274333104491234e-02" rms="3.8724181056022644e-01" purity="8.1363362073898315e-01" nType="-99"/>
            </Node>
          </Node>
        </Node>
      </Node>
    </BinaryTree>
    <BinaryTree type="DecisionTree" boostWeight="1.0000000000000000e+00" itree="13">
      <Node pos="s" depth="0" NCoef="0" IVar="5" Cut="9.8571424484252930e+00" cType="1" res="1.5231685247272253e-03" rms="4.0450856089591980e-01" purity="5.0086861848831177e-01" nType="0">
        <Node pos="l" depth="1" NCoef="0" IVar="7" Cut="4.7619048506021500e-02" cType="1" res="-4.9051240086555481e-02" rms="4.0217936038970947e-01" purity="3.3124610781669617e-01" nType="0">
          <Node pos="l" depth="2" NCoef="0" IVar="4" Cut="8.2857141494750977e+00" cType="1" res="-9.8297365009784698e-02" rms="3.2292512059211731e-01" purity="1.5401513874530792e-01" nType="0">
            <Node pos="l" depth="3" NCoef="0" IVar="5" Cut="2.1428570747375488e+00" cType="1" res="-1.5803715586662292e-01" rms="1.9770766794681549e-01" purity="4.3718609958887100e-02" nType="0">
              <Node pos="l" depth="4" NCoef="0" IVar="-1" Cut="0.0000000000000000e+00" cType="1" res="-5.2645433694124222e-02" rms="1.2851163744926453e-01" purity="1.6972377896308899e-02" nType="-99"/>
              <Node pos="r" depth="4" NCoef="0" IVar="-1" Cut="0.0000000000000000e+00" cType="1" res="-5.0757698714733124e-02" rms="2.6862618327140808e-01" purity="8.4871143102645874e-02" nType="-99"/>
            </Node>
            <Node pos="r" depth="3" NCoef="0" IVar="5" Cut="1.2857142686843872e+00" cType="1" res="-7.6527819037437439e-02" rms="3.5533460974693298e-01" purity="1.9420786201953888e-01" nType="0">
              <Node pos="l" depth="4" NCoef="0" IVar="-1" Cut="0.0000000000000000e+00" cType="1" res="-3.0563948675990105e-02" rms="3.1499055027961731e-01" purity="1.1850782483816147e-01" nType="-99"/>
              <Node pos="r" depth="4" NCoef="0" IVar="-1" Cut="0.0000000000000000e+00" cType="1" res="7.6139713637530804e-03" rms="4.6469002962112427e-01" purity="4.8855695128440857e-01" nType="-99"/>
            </Node>
          </Node>
          <Node pos="r" depth="2" NCoef="0" IVar="5" Cut="1.2857142686843872e+00" cType="1" res="-1.6158491780515760e-04" rms="4.6260353922843933e-01" purity="5.0719410181045532e-01" nType="0">
            <Node pos="l" depth="3" NCoef="0" IVar="1" Cut="1.0703902244567871e+00" cType="1" res="-4.1969612240791321e-02" rms="4.6894472837448120e-01" purity="3.5375702381134033e-01" nType="0">
              <Node pos="l" depth="4" NCoef="0" IVar="-1" Cut="0.0000000000000000e+00" cType="1" res="-5.0143697299063206e-03" rms="4.7409221529960632e-01" purity="3.7210351228713989e-01" nType="-99"/>
              <Node pos="r" depth="4" NCoef="0" IVar="-1" Cut="0.0000000000000000e+00" cType="1" res="-2.4061854928731918e-02" rms="4.4068887829780579e-01" purity="2.8124666213989258e-01" nType="-99"/>
            </Node>
            <Node pos="r" depth="3" NCoef="0" IVar="3" Cut="1.2000000000000000e+01" cType="1" res="3.8581203669309616e-02" rms="4.5321875810623169e-01" purity="6.4938169717788696e-01" nType="0">
              <Node pos="l" depth="4" NCoef="0" IVar="-1" Cut="0.0000000000000000e+00" cType="1" res="-8.1167016178369522e-03" rms="4.6262112259864807e-01" purity="4.8427098989486694e-01" nType="-99"/>
              <Node pos="r" depth="4" NCoef="0" IVar="-1" Cut="0.0000000000000000e+00" cType="1" res="1.3390461914241314e-02" rms="4.4822657108306885e-01" purity="6.9570809602737427e-01" nType="-99"/>
            </Node>
          </Node>
        </Node>
        <Node pos="r" depth="1" NCoef="0" IVar="3" Cut="1.2666666984558105e+01" cType="1" res="8.6044415831565857e-02" rms="3.9414319396018982e-01" purity="7.8434634208679199e-01" nType="0">
          <Node pos="l" depth="2" NCoef="0" IVar="4" Cut="8.2857141494750977e+00" cType="1" res="2.8950067237019539e-02" rms="4.4854447245597839e-01" purity="6.2367671728134155e-01" nType="0">
            <Node pos="l" depth="3" NCoef="0" IVar="-1" Cut="0.0000000000000000e+00" cType="1" res="-2.2406687494367361e-03" rms="4.5411971211433411e-01" purity="5.2744811773300171e-01" nType="-99"/>
            <Node pos="r" depth="3" NCoef="0" IVar="-1" Cut="0.0000000000000000e+00" cType="1" res="1.7473937943577766e-02" rms="4.3780991435050964e-01" purity="7.3355370759963989e-01" nType="-99"/>
          </Node>
          <Node pos="r" depth="2" NCoef="0" IVar="0" Cut="1.2209541320800781e+01" cType="1" res="9.6982873976230621e-02" rms="3.8186615705490112e-01" purity="8.1512832641601562e-01" nType="0">
            <Node pos="l" depth="3" NCoef="0" IVar="0" Cut="1.5338283777236938e+00" cType="1" res="1.0397440195083618e-01" rms="3.7596485018730164e-01" purity="8.2106095552444458e-01" nType="0">
              <Node pos="l" depth="4" NCoef="0" IVar="-1" Cut="0.0000000000000000e+00" cType="1" res="8.2526719197630882e-03" rms="4.2648875713348389e-01" purity="7.3165690898895264e-01" nType="-99"/>
              <Node pos="r" depth="4" NCoef="0" IVar="-1" Cut="0.0000000000000000e+00" cType="1" res="3.0967896804213524e-02" rms="3.5847565531730652e-01" purity="8.4562402963638306e-01" nType="-99"/>
            </Node>
            <Node pos="r" depth="3" NCoef="0" IVar="-1" Cut="0.0000000000000000e+00" cType="1" res="1.2049534358084202e-02" rms="4.1771909594535828e-01" purity="7.7344167232513428e-01" nType="-99"/>
          </Node>
        </Node>
      </Node>
    </BinaryTree>
    <BinaryTree type="DecisionTree" boostWeight="1.0000000000000000e+00" itree="14">
      <Node pos="s" depth="0" NCoef="0" IVar="5" Cut="6.6666665077209473e+00" cType="1" res="-1.1979766422882676e-03" rms="4.0350577235221863e-01" purity="4.9864244461059570e-01" nType="0">
        <Node pos="l" depth="1" NCoef="0" IVar="4" Cut="1.0380952835083008e+01" cType="1" res="-5.3927958011627197e-02" rms="3.9681017398834229e-01" purity="2.8271698951721191e-01" nType="0">
          <Node pos="l" depth="2" NCoef="0" IVar="4" Cut="9.2380952835083008e+00" cType="1" res="-4.4197663664817810e-02" rms="3.9741060137748718e-01" purity="2.8926515579223633e-01" nType="0">
            <Node pos="l" depth="3" NCoef="0" IVar="3" Cut="1.1571428298950195e+01" cType="1" res="-9.5499239861965179e-02" rms="3.2481265068054199e-01" purity="1.7058563232421875e-01" nType="0">
              <Node pos="l" depth="4" NCoef="0" IVar="-1" Cut="0.0000000000000000e+00" cType="1" res="-4.8135530203580856e-02" rms="2.2761470079421997e-01" purity="6.3334532082080841e-02" nType="-99"/>
              <Node pos="r" depth="4" NCoef="0" IVar="-1" Cut="0.0000000000000000e+00" cType="1" res="-1.8581191077828407e-02" rms="3.6039835214614868e-01" purity="2.2416575253009796e-01" nType="-99"/>
            </Node>
            <Node pos="r" depth="3" NCoef="0" IVar="5" Cut="1.1428571939468384e+00" cType="1" res="-1.1426141718402505e-03" rms="4.4483295083045959e-01" purity="3.8886743783950806e-01" nType="0">
              <Node pos="l" depth="4" NCoef="0" IVar="-1" Cut="0.0000000000000000e+00" cType="1" res="-9.8892115056514740e-03" rms="4.3221104145050049e-01" purity="2.8322842717170715e-01" nType="-99"/>
              <Node pos="r" depth="4" NCoef="0" IVar="-1" Cut="0.0000000000000000e+00" cType="1" res="2.2833352908492088e-02" rms="4.5959192514419556e-01" purity="6.7066717147827148e-01" nType="-99"/>
            </Node>
          </Node>
          <Node pos="r" depth="2" NCoef="0" IVar="-1" Cut="0.0000000000000000e+00" cType="1" res="-5.5588260293006897e-02" rms="3.2931151986122131e-01" purity="1.5219052135944366e-01" nType="-99"/>
        </Node>
        <Node pos="r" depth="1" NCoef="0" IVar="7" Cut="4.7619048506021500e-02" cType="1" res="6.3233673572540283e-02" rms="4.0226328372955322e-01" purity="7.6248538494110107e-01" nType="0">
          <Node pos="l" depth="2" NCoef="0" IVar="4" Cut="8.2857141494750977e+00" cType="1" res="-1.7188251949846745e-03" rms="4.3788495659828186e-01" purity="6.1443769931793213e-01" nType="0">
            <Node pos="l" depth="3" NCoef="0" IVar="-1" Cut="0.0000000000000000e+00" cType="1" res="-1.6191242262721062e-02" rms="4.5276969671249390e-01" purity="4.5076280832290649e-01" nType="-99"/>
            <Node pos="r" depth="3" NCoef="0" IVar="-1" Cut="0.0000000000000000e+00" cType="1" res="1.5079542994499207e-02" rms="4.1389584541320801e-01" purity="7.5482022762298584e-01" nType="-99"/>
          </Node>
          <Node pos="r" depth="2" NCoef="0" IVar="5" Cut="1.6000000000000000e+01" cType="1" res="8.1540100276470184e-02" rms="3.8968798518180847e-01" purity="8.0421155691146851e-01" nType="0">
            <Node pos="l" depth="3" NCoef="0" IVar="3" Cut="1.2000000000000000e+01" cType="1" res="5.9565298259258270e-02" rms="4.0346822142601013e-01" purity="7.7949905395507812e-01" nType="0">
              <Node pos="l" depth="4" NCoef="0" IVar="-1" Cut="0.0000000000000000e+00" cType="1" res="-2.3073973134160042e-03" rms="4.5717808604240417e-01" purity="6.0492748022079468e-01" nType="-99"/>
              <Node pos="r" depth="4" NCoef="0" IVar="-1" Cut="0.0000000000000000e+00" cType="1" res="1.7854247242212296e-02" rms="3.9429995417594910e-01" purity="8.0416226387023926e-01" nType="-99"/>
            </Node>
            <Node pos="r" depth="3" NCoef="0" IVar="2" Cut="1.1874414682388306e+00" cType="1" res="1.0062535107135773e-01" rms="3.7627172470092773e-01" purity="8.2567453384399414e-01" nType="0">
              <Node pos="l" depth="4" NCoef="0" IVar="-1" Cut="0.0000000000000000e+00" cType="1" res="2.8949020430445671e-02" rms="3.6425939202308655e-01" purity="8.3962666988372803e-01" nType="-99"/>
              <Node pos="r" depth="4" NCoef="0" IVar="-1" Cut="0.0000000000000000e+00" cType="1" res="1.7980799078941345e-02" rms="4.0477588772773743e-01" purity="7.8888702392578125e-01" nType="-99"/>
            </Node>
          </Node>
        </Node>
      </Node>
    </BinaryTree>
    <BinaryTree type="DecisionTree" boostWeight="1.0000000000000000e+00" itree="15">
      <Node pos="s" depth="0" NCoef="0" IVar="5" Cut="1.0000000000000000e+01" cType="1" res="8.1849988782778382e-04" rms="4.0206032991409302e-01" purity="5.0006067752838135e-01" nType="0">
        <Node pos="l" depth="1" NCoef="0" IVar="6" Cut="6.8517761230468750e+02" cType="1" res="-3.9944477379322052e-02" rms="4.0015837550163269e-01" purity="3.3090656995773315e-01" nType="0">
          <Node pos="l" depth="2" NCoef="0" IVar="6" Cut="1.0212601470947266e+02" cType="1" res="-5.0212178379297256e-02" rms="3.9556288719177246e-01" purity="3.1019219756126404e-01" nType="0">
            <Node pos="l" depth="3" NCoef="0" IVar="4" Cut="1.0380952835083008e+01" cType="1" res="-1.0483281314373016e-01" rms="3.6115539073944092e-01" purity="2.0971694588661194e-01" nType="0">
              <Node pos="l" depth="4" NCoef="0" IVar="-1" Cut="0.0000000000000000e+00" cType="1" res="-2.5046503171324730e-02" rms="3.6205086112022400e-01" purity="2.1574129164218903e-01" nType="-99"/>
              <Node pos="r" depth="4" NCoef="0" IVar="-1" Cut="0.0000000000000000e+00" cType="1" res="-6.5741270780563354e-02" rms="2.8989428281784058e-01" purity="1.0802684724330902e-01" nType="-99"/>
            </Node>
            <Node pos="r" depth="3" NCoef="0" IVar="6" Cut="1.5762774658203125e+02" cType="1" res="1.2462147325277328e-01" rms="4.4687142968177795e-01" purity="6.3180065155029297e-01" nType="0">
              <Node pos="l" depth="4" NCoef="0" IVar="-1" Cut="0.0000000000000000e+00" cType="1" res="1.6610680148005486e-02" rms="4.4968116283416748e-01" purity="5.2570480108261108e-01" nType="-99"/>
              <Node pos="r" depth="4" NCoef="0" IVar="-1" Cut="0.0000000000000000e+00" cType="1" res="3.4885644912719727e-02" rms="4.4304096698760986e-01" purity="6.8483471870422363e-01" nType="-99"/>
            </Node>
          </Node>
          <Node pos="r" depth="2" NCoef="0" IVar="-1" Cut="0.0000000000000000e+00" cType="1" res="4.0370069444179535e-02" rms="4.3388664722442627e-01" purity="7.6480555534362793e-01" nType="-99"/>
        </Node>
        <Node pos="r" depth="1" NCoef="0" IVar="5" Cut="2.1428571701049805e+01" cType="1" res="6.8774990737438202e-02" rms="3.9598986506462097e-01" purity="7.8205966949462891e-01" nType="0">
          <Node pos="l" depth="2" NCoef="0" IVar="3" Cut="1.1285714149475098e+01" cType="1" res="5.2579466253519058e-02" rms="4.0231940150260925e-01" purity="7.6755267381668091e-01" nType="0">
            <Node pos="l" depth="3" NCoef="0" IVar="-1" Cut="0.0000000000000000e+00" cType="1" res="-6.9482782855629921e-03" rms="4.5356157422065735e-01" purity="5.4399561882019043e-01" nType="-99"/>
            <Node pos="r" depth="3" NCoef="0" IVar="2" Cut="1.0090541839599609e+00" cType="1" res="6.4653515815734863e-02" rms="3.9289608597755432e-01" purity="7.9986602067947388e-01" nType="0">
              <Node pos="l" depth="4" NCoef="0" IVar="-1" Cut="0.0000000000000000e+00" cType="1" res="2.0904505625367165e-02" rms="3.7997230887413025e-01" purity="8.1774342060089111e-01" nType="-99"/>
              <Node pos="r" depth="4" NCoef="0" IVar="-1" Cut="0.0000000000000000e+00" cType="1" res="1.0967630892992020e-02" rms="4.0976342558860779e-01" purity="7.7416306734085083e-01" nType="-99"/>
            </Node>
          </Node>
          <Node pos="r" depth="2" NCoef="0" IVar="5" Cut="3.1142856597900391e+01" cType="1" res="9.9509134888648987e-02" rms="3.8180720806121826e-01" purity="8.0958938598632812e-01" nType="0">
            <Node pos="l" depth="3" NCoef="0" IVar="1" Cut="3.5565999150276184e-01" cType="1" res="8.8701613247394562e-02" rms="3.8717830181121826e-01" purity="8.0025929212570190e-01" nType="0">
              <Node pos="l" depth="4" NCoef="0" IVar="-1" Cut="0.0000000000000000e+00" cType="1" res="2.5483099743723869e-02" rms="3.7799733877182007e-01" purity="8.1517845392227173e-01" nType="-99"/>
              <Node pos="r" depth="4" NCoef="0" IVar="-1" Cut="0.0000000000000000e+00" cType="1" res="1.7136046662926674e-02" rms="4.0314084291458130e-01" purity="7.7209097146987915e-01" nType="-99"/>
            </Node>
            <Node pos="r" depth="3" NCoef="0" IVar="-1" Cut="0.0000000000000000e+00" cType="1" res="3.1983118504285812e-02" rms="3.6617186665534973e-01" purity="8.3358407020568848e-01" nType="-99"/>
          </Node>
        </Node>
      </Node>
    </BinaryTree>
    <BinaryTree type="DecisionTree" boostWeight="1.0000000000000000e+00" itree="16">
      <Node pos="s" depth="0" NCoef="0" IVar="5" Cut="1.0000000000000000e+01" cType="1" res="-1.0268883779644966e-03" rms="3.9802813529968262e-01" purity="4.9767681956291199e-01" nType="0">
        <Node pos="l" depth="1" NCoef="0" IVar="4" Cut="8.2857141494750977e+00" cType="1" res="-3.8629911839962006e-02" rms="3.9508861303329468e-01" purity="3.2768025994300842e-01" nType="0">
          <Node pos="l" depth="2" NCoef="0" IVar="4" Cut="6.2857141494750977e+00" cType="1" res="-1.2556527554988861e-01" rms="2.7025151252746582e-01" purity="1.2920650839805603e-01" nType="0">
            <Node pos="l" depth="3" NCoef="0" IVar="-1" Cut="0.0000000000000000e+00" cType="1" res="-5.8659713715314865e-02" rms="2.3129528760910034e-01" purity="6.6002950072288513e-02" nType="-99"/>
            <Node pos="r" depth="3" NCoef="0" IVar="3" Cut="5.5714287757873535e+00" cType="1" res="-1.0139654576778412e-01" rms="2.7855706214904785e-01" purity="1.5125705301761627e-01" nType="0">
              <Node pos="l" depth="4" NCoef="0" IVar="-1" Cut="0.0000000000000000e+00" cType="1" res="-5.2377693355083466e-02" rms="1.7327766120433807e-01" purity="2.9843013733625412e-02" nType="-99"/>
              <Node pos="r" depth="4" NCoef="0" IVar="-1" Cut="0.0000000000000000e+00" cType="1" res="-2.3362271487712860e-02" rms="3.2280737161636353e-01" purity="2.2354681789875031e-01" nType="-99"/>
            </Node>
          </Node>
          <Node pos="r" depth="2" NCoef="0" IVar="4" Cut="1.0428571701049805e+01" cType="1" res="-1.9619636237621307e-02" rms="4.1502243280410767e-01" purity="3.7108078598976135e-01" nType="0">
            <Node pos="l" depth="3" NCoef="0" IVar="5" Cut="1.2857142686843872e+00" cType="1" res="-7.4038621969521046e-03" rms="4.1626879572868347e-01" purity="3.8317534327507019e-01" nType="0">
              <Node pos="l" depth="4" NCoef="0" IVar="-1" Cut="0.0000000000000000e+00" cType="1" res="-1.2796240858733654e-02" rms="3.9507168531417847e-01" purity="2.3197035491466522e-01" nType="-99"/>
              <Node pos="r" depth="4" NCoef="0" IVar="-1" Cut="0.0000000000000000e+00" cType="1" res="1.6486048698425293e-02" rms="4.4330278038978577e-01" purity="6.7267233133316040e-01" nType="-99"/>
            </Node>
            <Node pos="r" depth="3" NCoef="0" IVar="-1" Cut="0.0000000000000000e+00" cType="1" res="-4.8250503838062286e-02" rms="3.4496793150901794e-01" purity="1.8567045032978058e-01" nType="-99"/>
          </Node>
        </Node>
        <Node pos="r" depth="1" NCoef="0" IVar="3" Cut="9.9047622680664062e+00" cType="1" res="6.1635587364435196e-02" rms="3.9500454068183899e-01" purity="7.8096270561218262e-01" nType="0">
          <Node pos="l" depth="2" NCoef="0" IVar="-1" Cut="0.0000000000000000e+00" cType="1" res="-1.5162642812356353e-03" rms="4.7072598338127136e-01" purity="4.9137556552886963e-01" nType="-99"/>
          <Node pos="r" depth="2" NCoef="0" IVar="2" Cut="1.2325030565261841e+00" cType="1" res="6.8372651934623718e-02" rms="3.8613903522491455e-01" purity="8.0930590629577637e-01" nType="0">
            <Node pos="l" depth="3" NCoef="0" IVar="5" Cut="2.1428571701049805e+01" cType="1" res="7.8205257654190063e-02" rms="3.7660390138626099e-01" purity="8.2183521986007690e-01" nType="0">
              <Node pos="l" depth="4" NCoef="0" IVar="-1" Cut="0.0000000000000000e+00" cType="1" res="1.7726035788655281e-02" rms="3.8520738482475281e-01" purity="8.0984532833099365e-01" nType="-99"/>
              <Node pos="r" depth="4" NCoef="0" IVar="-1" Cut="0.0000000000000000e+00" cType="1" res="2.6693746447563171e-02" rms="3.5856211185455322e-01" purity="8.4479612112045288e-01" nType="-99"/>
            </Node>
            <Node pos="r" depth="3" NCoef="0" IVar="5" Cut="1.8285715103149414e+01" cType="1" res="3.7666440010070801e-02" rms="4.1300237178802490e-01" purity="7.7017813920974731e-01" nType="0">
              <Node pos="l" depth="4" NCoef="0" IVar="-1" Cut="0.0000000000000000e+00" cType="1" res="5.4189986549317837e-03" rms="4.2227840423583984e-01" purity="7.5295281410217285e-01" nType="-99"/>
              <Node pos="r" depth="4" NCoef="0" IVar="-1" Cut="0.0000000000000000e+00" cType="1" res="1.4361028559505939e-02" rms="4.0204825997352600e-01" purity="7.8866469860076904e-01" nType="-99"/>
            </Node>
          </Node>
        </Node>
      </Node>
    </BinaryTree>
    <BinaryTree type="DecisionTree" boostWeight="1.0000000000000000e+00" itree="17">
      <Node pos="s" depth="0" NCoef="0" IVar="5" Cut="1.0000000000000000e+01" cType="1" res="-1.2212628498673439e-03" rms="3.9722570776939392e-01" purity="4.9771907925605774e-01" nType="0">
        <Node pos="l" depth="1" NCoef="0" IVar="6" Cut="4.6126843261718750e+02" cType="1" res="-3.5662885755300522e-02" rms="3.9517986774444580e-01" purity="3.2767993211746216e-01" nType="0">
          <Node pos="l" depth="2" NCoef="0" IVar="6" Cut="7.0162101745605469e+01" cType="1" res="-5.0370950251817703e-02" rms="3.8768863677978516e-01" purity="2.9373580217361450e-01" nType="0">
            <Node pos="l" depth="3" NCoef="0" IVar="6" Cut="4.2232742309570312e+01" cType="1" res="-1.0202703624963760e-01" rms="3.4861013293266296e-01" purity="1.8727108836174011e-01" nType="0">
              <Node pos="l" depth="4" NCoef="0" IVar="-1" Cut="0.0000000000000000e+00" cType="1" res="-3.2685793936252594e-02" rms="3.3321571350097656e-01" purity="1.6153401136398315e-01" nType="-99"/>
              <Node pos="r" depth="4" NCoef="0" IVar="-1" Cut="0.0000000000000000e+00" cType="1" res="-1.1901457794010639e-02" rms="3.9711481332778931e-01" purity="2.8578588366508484e-01" nType="-99"/>
            </Node>
            <Node pos="r" depth="3" NCoef="0" IVar="6" Cut="1.4463911437988281e+02" cType="1" res="7.1447230875492096e-02" rms="4.4387531280517578e-01" purity="5.4480659961700439e-01" nType="0">
              <Node pos="l" depth="4" NCoef="0" IVar="-1" Cut="0.0000000000000000e+00" cType="1" res="5.9211710467934608e-03" rms="4.3940815329551697e-01" purity="4.3854862451553345e-01" nType="-99"/>
              <Node pos="r" depth="4" NCoef="0" IVar="-1" Cut="0.0000000000000000e+00" cType="1" res="2.7827795594930649e-02" rms="4.4327917695045471e-01" purity="6.5335863828659058e-01" nType="-99"/>
            </Node>
          </Node>
          <Node pos="r" depth="2" NCoef="0" IVar="-1" Cut="0.0000000000000000e+00" cType="1" res="3.5579498857259750e-02" rms="4.3932139873504639e-01" purity="7.5751626491546631e-01" nType="-99"/>
        </Node>
        <Node pos="r" depth="1" NCoef="0" IVar="3" Cut="8.5238094329833984e+00" cType="1" res="5.6286931037902832e-02" rms="3.9396354556083679e-01" purity="7.8163844347000122e-01" nType="0">
          <Node pos="l" depth="2" NCoef="0" IVar="-1" Cut="0.0000000000000000e+00" cType="1" res="-2.7262836229056120e-03" rms="4.7656318545341492e-01" purity="4.4650629162788391e-01" nType="-99"/>
          <Node pos="r" depth="2" NCoef="0" IVar="2" Cut="1.7060586214065552e+00" cType="1" res="6.2121346592903137e-02" rms="3.8566556572914124e-01" purity="8.0973976850509644e-01" nType="0">
            <Node pos="l" depth="3" NCoef="0" IVar="1" Cut="1.0704896450042725e+00" cType="1" res="6.7898467183113098e-02" rms="3.8050803542137146e-01" purity="8.1664651632308960e-01" nType="0">
              <Node pos="l" depth="4" NCoef="0" IVar="-1" Cut="0.0000000000000000e+00" cType="1" res="2.0051265135407448e-02" rms="3.7469410896301270e-01" purity="8.2490259408950806e-01" nType="-99"/>
              <Node pos="r" depth="4" NCoef="0" IVar="-1" Cut="0.0000000000000000e+00" cType="1" res="5.2718785591423512e-03" rms="4.1913077235221863e-01" purity="7.5374543666839600e-01" nType="-99"/>
            </Node>
            <Node pos="r" depth="3" NCoef="0" IVar="-1" Cut="0.0000000000000000e+00" cType="1" res="-3.2061510137282312e-04" rms="4.3323713541030884e-01" purity="7.3399376869201660e-01" nType="-99"/>
          </Node>
        </Node>
      </Node>
    </BinaryTree>
    <BinaryTree type="DecisionTree" boostWeight="1.0000000000000000e+00" itree="18">
      <Node pos="s" depth="0" NCoef="0" IVar="7" Cut="4.7619048506021500e-02" cType="1" res="1.2661147629842162e-03" rms="3.9475193619728088e-01" purity="5.0141769647598267e-01" nType="0">
        <Node pos="l" depth="1" NCoef="0" IVar="4" Cut="1.3523809432983398e+01" cType="1" res="-5.0933465361595154e-02" rms="3.4168004989624023e-01" purity="2.5634178519248962e-01" nType="0">
          <Node pos="l" depth="2" NCoef="0" IVar="3" Cut="8.5238094329833984e+00" cType="1" res="-3.9834514260292053e-02" rms="3.3860507607460022e-01" purity="2.5954726338386536e-01" nType="0">
            <Node pos="l" depth="3" NCoef="0" IVar="3" Cut="4.1904764175415039e+00" cType="1" res="-1.2818071246147156e-01" rms="2.1998737752437592e-01" purity="5.7011410593986511e-02" nType="0">
              <Node pos="l" depth="4" NCoef="0" IVar="-1" Cut="0.0000000000000000e+00" cType="1" res="-5.6644301861524582e-02" rms="1.7498762905597687e-01" purity="2.6178767904639244e-02" nType="-99"/>
              <Node pos="r" depth="4" NCoef="0" IVar="-1" Cut="0.0000000000000000e+00" cType="1" res="-3.7124294787645340e-02" rms="2.4643750488758087e-01" purity="8.0226205289363861e-02" nType="-99"/>
            </Node>
            <Node pos="r" depth="3" NCoef="0" IVar="5" Cut="3.2380952835083008e+00" cType="1" res="-2.1048344671726227e-02" rms="3.5599195957183838e-01" purity="3.0261504650115967e-01" nType="0">
              <Node pos="l" depth="4" NCoef="0" IVar="-1" Cut="0.0000000000000000e+00" cType="1" res="-1.7975987866520882e-02" rms="3.2082414627075195e-01" purity="1.3669532537460327e-01" nType="-99"/>
              <Node pos="r" depth="4" NCoef="0" IVar="-1" Cut="0.0000000000000000e+00" cType="1" res="1.1664999648928642e-02" rms="4.1292276978492737e-01" purity="6.5825045108795166e-01" nType="-99"/>
            </Node>
          </Node>
          <Node pos="r" depth="2" NCoef="0" IVar="-1" Cut="0.0000000000000000e+00" cType="1" res="-5.0606835633516312e-02" rms="3.4693962335586548e-01" purity="2.1191442012786865e-01" nType="-99"/>
        </Node>
        <Node pos="r" depth="1" NCoef="0" IVar="5" Cut="3.3333332538604736e+00" cType="1" res="3.4471970051527023e-02" rms="4.2172932624816895e-01" purity="6.5731847286224365e-01" nType="0">
          <Node pos="l" depth="2" NCoef="0" IVar="3" Cut="8.1428575515747070e+00" cType="1" res="-1.0616159997880459e-03" rms="4.6633484959602356e-01" purity="3.9666157960891724e-01" nType="0">
            <Node pos="l" depth="3" NCoef="0" IVar="-1" Cut="0.0000000000000000e+00" cType="1" res="-1.9192086532711983e-02" rms="3.8130819797515869e-01" purity="1.8379144370555878e-01" nType="-99"/>
            <Node pos="r" depth="3" NCoef="0" IVar="2" Cut="9.5380628108978271e-01" cType="1" res="1.0118375532329082e-02" rms="4.7725060582160950e-01" purity="4.2982217669487000e-01" nType="0">
              <Node pos="l" depth="4" NCoef="0" IVar="-1" Cut="0.0000000000000000e+00" cType="1" res="7.3824613355100155e-03" rms="4.8074036836624146e-01" purity="4.6031430363655090e-01" nType="-99"/>
              <Node pos="r" depth="4" NCoef="0" IVar="-1" Cut="0.0000000000000000e+00" cType="1" res="-3.0911955982446671e-03" rms="4.7247228026390076e-01" purity="3.9966091513633728e-01" nType="-99"/>
            </Node>
          </Node>
          <Node pos="r" depth="2" NCoef="0" IVar="5" Cut="2.2857143402099609e+01" cType="1" res="5.1889125257730484e-02" rms="3.9688393473625183e-01" purity="7.8508222103118896e-01" nType="0">
            <Node pos="l" depth="3" NCoef="0" IVar="2" Cut="1.1815007925033569e+00" cType="1" res="4.2630981653928757e-02" rms="4.0596032142639160e-01" purity="7.6918703317642212e-01" nType="0">
              <Node pos="l" depth="4" NCoef="0" IVar="-1" Cut="0.0000000000000000e+00" cType="1" res="1.4122758060693741e-02" rms="3.9680391550064087e-01" purity="7.8335505723953247e-01" nType="-99"/>
              <Node pos="r" depth="4" NCoef="0" IVar="-1" Cut="0.0000000000000000e+00" cType="1" res="3.5700625739991665e-03" rms="4.2789691686630249e-01" purity="7.3174965381622314e-01" nType="-99"/>
            </Node>
            <Node pos="r" depth="3" NCoef="0" IVar="5" Cut="3.1952381134033203e+01" cType="1" res="8.3484433591365814e-02" rms="3.6243331432342529e-01" purity="8.3932775259017944e-01" nType="0">
              <Node pos="l" depth="4" NCoef="0" IVar="-1" Cut="0.0000000000000000e+00" cType="1" res="2.1042911335825920e-02" rms="3.6710202693939209e-01" purity="8.3220690488815308e-01" nType="-99"/>
              <Node pos="r" depth="4" NCoef="0" IVar="-1" Cut="0.0000000000000000e+00" cType="1" res="2.8140295296907425e-02" rms="3.5173073410987854e-01" purity="8.5435807704925537e-01" nType="-99"/>
            </Node>
          </Node>
        </Node>
      </Node>
    </BinaryTree>
    <BinaryTree type="DecisionTree" boostWeight="1.0000000000000000e+00" itree="19">
      <Node pos="s" depth="0" NCoef="0" IVar="7" Cut="4.7619048506021500e-02" cType="1" res="-3.1235805363394320e-04" rms="3.9444521069526672e-01" purity="4.9976739287376404e-01" nType="0">
        <Node pos="l" depth="1" NCoef="0" IVar="4" Cut="1.3523809432983398e+01" cType="1" res="-4.7512650489807129e-02" rms="3.4187242388725281e-01" purity="2.5536420941352844e-01" nType="0">
          <Node pos="l" depth="2" NCoef="0" IVar="4" Cut="6.1904764175415039e+00" cType="1" res="-3.7443384528160095e-02" rms="3.3853632211685181e-01" purity="2.5781017541885376e-01" nType="0">
            <Node pos="l" depth="3" NCoef="0" IVar="-1" Cut="0.0000000000000000e+00" cType="1" res="-4.7530218958854675e-02" rms="3.0243977904319763e-01" purity="1.3883510231971741e-01" nType="-99"/>
            <Node pos="r" depth="3" NCoef="0" IVar="5" Cut="3.3333332538604736e+00" cType="1" res="-2.4049397557973862e-02" rms="3.3954176306724548e-01" purity="2.7073210477828979e-01" nType="0">
              <Node pos="l" depth="4" NCoef="0" IVar="-1" Cut="0.0000000000000000e+00" cType="1" res="-1.9229440018534660e-02" rms="3.0886921286582947e-01" purity="1.2451674044132233e-01" nType="-99"/>
              <Node pos="r" depth="4" NCoef="0" IVar="-1" Cut="0.0000000000000000e+00" cType="1" res="1.3686391524970531e-02" rms="3.9750590920448303e-01" purity="6.5044862031936646e-01" nType="-99"/>
            </Node>
          </Node>
          <Node pos="r" depth="2" NCoef="0" IVar="-1" Cut="0.0000000000000000e+00" cType="1" res="-4.6087864786386490e-02" rms="3.5719016194343567e-01" purity="2.2197297215461731e-01" nType="-99"/>
        </Node>
        <Node pos="r" depth="1" NCoef="0" IVar="5" Cut="3.2857143878936768e+00" cType="1" res="2.9602752998471260e-02" rms="4.2168036103248596e-01" purity="6.5466791391372681e-01" nType="0">
          <Node pos="l" depth="2" NCoef="0" IVar="3" Cut="1.0714285850524902e+01" cType="1" res="-5.8384165167808533e-03" rms="4.6534174680709839e-01" purity="3.9173319935798645e-01" nType="0">
            <Node pos="l" depth="3" NCoef="0" IVar="3" Cut="8.3333330154418945e+00" cType="1" res="-4.1770990937948227e-02" rms="4.3930095434188843e-01" purity="2.9614955186843872e-01" nType="0">
              <Node pos="l" depth="4" NCoef="0" IVar="-1" Cut="0.0000000000000000e+00" cType="1" res="-1.9658779725432396e-02" rms="3.7526050209999084e-01" purity="1.7674896121025085e-01" nType="-99"/>
              <Node pos="r" depth="4" NCoef="0" IVar="-1" Cut="0.0000000000000000e+00" cType="1" res="-4.7912979498505592e-03" rms="4.7316187620162964e-01" purity="3.6911720037460327e-01" nType="-99"/>
            </Node>
            <Node pos="r" depth="3" NCoef="0" IVar="2" Cut="7.2615200281143188e-01" cType="1" res="1.4342105016112328e-02" rms="4.7816422581672668e-01" purity="4.4541507959365845e-01" nType="0">
              <Node pos="l" depth="4" NCoef="0" IVar="-1" Cut="0.0000000000000000e+00" cType="1" res="1.2557682581245899e-02" rms="4.8184823989868164e-01" purity="5.0851643085479736e-01" nType="-99"/>
              <Node pos="r" depth="4" NCoef="0" IVar="-1" Cut="0.0000000000000000e+00" cType="1" res="-2.2766294932807796e-05" rms="4.7608393430709839e-01" purity="4.2556709051132202e-01" nType="-99"/>
            </Node>
          </Node>
